<?xml version="1.0"?>
<MethodSetup Method="BDT::BDT">
  <GeneralInfo>
    <Info name="TMVA Release" value="4.2.1 [262657]"/>
    <Info name="ROOT Release" value="6.16/00 [397312]"/>
    <Info name="Creator" value="wzhang"/>
    <Info name="Date" value="Mon Feb 10 10:32:25 2020"/>
    <Info name="Host" value="Linux lcgapp-centos7-x86-64-25.cern.ch 3.10.0-862.11.6.el7.x86_64 #1 SMP Tue Aug 14 21:49:04 UTC 2018 x86_64 x86_64 x86_64 GNU/Linux"/>
    <Info name="Dir" value="/home/wzhang/work/fwljmet_201905/CMSSW_10_2_10/src/TTTT/TMVA"/>
    <Info name="Training events" value="532594"/>
    <Info name="TrainingTime" value="7.39119391e+01"/>
    <Info name="AnalysisType" value="Classification"/>
  </GeneralInfo>
  <Options>
    <Option name="V" modified="Yes">False</Option>
    <Option name="VerbosityLevel" modified="No">Default</Option>
    <Option name="VarTransform" modified="No">None</Option>
    <Option name="H" modified="Yes">False</Option>
    <Option name="CreateMVAPdfs" modified="No">False</Option>
    <Option name="IgnoreNegWeightsInTraining" modified="Yes">True</Option>
    <Option name="NTrees" modified="Yes">100</Option>
    <Option name="MaxDepth" modified="Yes">2</Option>
    <Option name="MinNodeSize" modified="Yes">2.5%</Option>
    <Option name="nCuts" modified="Yes">20</Option>
    <Option name="BoostType" modified="Yes">AdaBoost</Option>
    <Option name="AdaBoostR2Loss" modified="No">quadratic</Option>
    <Option name="UseBaggedBoost" modified="Yes">True</Option>
    <Option name="Shrinkage" modified="No">1.000000e+00</Option>
    <Option name="AdaBoostBeta" modified="Yes">5.000000e-01</Option>
    <Option name="UseRandomisedTrees" modified="No">False</Option>
    <Option name="UseNvars" modified="No">8</Option>
    <Option name="UsePoissonNvars" modified="No">True</Option>
    <Option name="BaggedSampleFraction" modified="Yes">5.000000e-01</Option>
    <Option name="UseYesNoLeaf" modified="No">True</Option>
    <Option name="NegWeightTreatment" modified="No">inverseboostnegweights</Option>
    <Option name="Css" modified="No">1.000000e+00</Option>
    <Option name="Cts_sb" modified="No">1.000000e+00</Option>
    <Option name="Ctb_ss" modified="No">1.000000e+00</Option>
    <Option name="Cbb" modified="No">1.000000e+00</Option>
    <Option name="NodePurityLimit" modified="No">5.000000e-01</Option>
    <Option name="SeparationType" modified="Yes">giniindex</Option>
    <Option name="RegressionLossFunctionBDTG" modified="No">huber</Option>
    <Option name="HuberQuantile" modified="No">7.000000e-01</Option>
    <Option name="DoBoostMonitor" modified="No">False</Option>
    <Option name="UseFisherCuts" modified="No">False</Option>
    <Option name="MinLinCorrForFisher" modified="No">8.000000e-01</Option>
    <Option name="UseExclusiveVars" modified="No">False</Option>
    <Option name="DoPreselection" modified="No">False</Option>
    <Option name="SigToBkgFraction" modified="No">1.000000e+00</Option>
    <Option name="PruneMethod" modified="No">nopruning</Option>
    <Option name="PruneStrength" modified="No">0.000000e+00</Option>
    <Option name="PruningValFraction" modified="No">5.000000e-01</Option>
    <Option name="SkipNormalization" modified="No">False</Option>
    <Option name="nEventsMin" modified="No">0</Option>
    <Option name="UseBaggedGrad" modified="No">False</Option>
    <Option name="GradBaggingFraction" modified="No">5.000000e-01</Option>
    <Option name="UseNTrainEvents" modified="No">0</Option>
    <Option name="NNodesMax" modified="No">0</Option>
  </Options>
  <Variables NVar="61">
    <Variable VarIndex="0" Expression="AK4HTpMETpLepPt" Label="AK4HTpMETpLepPt" Title="S_{T}" Unit="GeV" Internal="AK4HTpMETpLepPt" Type="F" Min="6.20863464e+02" Max="1.94894766e+04"/>
    <Variable VarIndex="1" Expression="minMleppBjet" Label="minMleppBjet" Title="min[M(l,b)]" Unit="GeV" Internal="minMleppBjet" Type="F" Min="1.90456467e+01" Max="1.00000000e+08"/>
    <Variable VarIndex="2" Expression="mass_minBBdr" Label="mass_minBBdr" Title="M(b,b) with min[#DeltaR(b,b)]" Unit="GeV" Internal="mass_minBBdr" Type="F" Min="-1.00000000e+00" Max="3.47539014e+03"/>
    <Variable VarIndex="3" Expression="deltaR_lepBJet_maxpt" Label="deltaR_lepBJet_maxpt" Title="#DeltaR(l,b)] with max[p_{T}(l,b)]" Unit="" Internal="deltaR_lepBJet_maxpt" Type="F" Min="-1.00000000e+00" Max="5.24211597e+00"/>
    <Variable VarIndex="4" Expression="lepDR_minBBdr" Label="lepDR_minBBdr" Title="#DeltaR(l,bb) with min[#DeltaR(b,b)]" Unit="" Internal="lepDR_minBBdr" Type="F" Min="-1.00000000e+00" Max="8.09948635e+00"/>
    <Variable VarIndex="5" Expression="centrality" Label="centrality" Title="Centrality" Unit="" Internal="centrality" Type="F" Min="1.91080660e-01" Max="9.91649210e-01"/>
    <Variable VarIndex="6" Expression="deltaEta_maxBB" Label="deltaEta_maxBB" Title="max[#Delta#eta(b,b)]" Unit="" Internal="deltaEta_maxBB" Type="F" Min="-4.77932882e+00" Max="1.00000000e+09"/>
    <Variable VarIndex="7" Expression="aveCSVpt" Label="aveCSVpt" Title="p_{T} weighted CSVv2" Unit="" Internal="aveCSVpt" Type="F" Min="-1.99857593e+00" Max="1.03219306e+00"/>
    <Variable VarIndex="8" Expression="aveBBdr" Label="aveBBdr" Title="ave[#DeltaR(b,b)]" Unit="" Internal="aveBBdr" Type="F" Min="-1.00000000e+00" Max="5.59314871e+00"/>
    <Variable VarIndex="9" Expression="FW_momentum_0" Label="FW_momentum_0" Title="0^{th} FW moment" Unit="GeV" Internal="FW_momentum_0" Type="F" Min="9.99998927e-01" Max="1.00000083e+00"/>
    <Variable VarIndex="10" Expression="FW_momentum_1" Label="FW_momentum_1" Title="1^{st} FW moment" Unit="GeV" Internal="FW_momentum_1" Type="F" Min="2.78449734e-05" Max="9.85110879e-01"/>
    <Variable VarIndex="11" Expression="FW_momentum_2" Label="FW_momentum_2" Title="2^{nd} FW moment" Unit="GeV" Internal="FW_momentum_2" Type="F" Min="1.24633813e-03" Max="9.88324344e-01"/>
    <Variable VarIndex="12" Expression="FW_momentum_3" Label="FW_momentum_3" Title="3^{rd} FW moment" Unit="GeV" Internal="FW_momentum_3" Type="F" Min="1.12797099e-03" Max="9.34850991e-01"/>
    <Variable VarIndex="13" Expression="FW_momentum_4" Label="FW_momentum_4" Title="4^{th} FW moment" Unit="GeV" Internal="FW_momentum_4" Type="F" Min="4.70097084e-03" Max="9.73223031e-01"/>
    <Variable VarIndex="14" Expression="FW_momentum_5" Label="FW_momentum_5" Title="5^{th} FW moment" Unit="GeV" Internal="FW_momentum_5" Type="F" Min="2.84631667e-03" Max="9.24611390e-01"/>
    <Variable VarIndex="15" Expression="FW_momentum_6" Label="FW_momentum_6" Title="6^{th} FW moment" Unit="GeV" Internal="FW_momentum_6" Type="F" Min="1.43310735e-02" Max="9.69276011e-01"/>
    <Variable VarIndex="16" Expression="mass_maxJJJpt" Label="mass_maxJJJpt" Title="M(jjj) with max[p_{T}(jjj)]" Unit="GeV" Internal="mass_maxJJJpt" Type="F" Min="6.21498642e+01" Max="5.51421240e+03"/>
    <Variable VarIndex="17" Expression="BJetLeadPt" Label="BJetLeadPt" Title="p_{T}(b_{1})" Unit="GeV" Internal="BJetLeadPt" Type="F" Min="-9.90000000e+01" Max="9.46637109e+03"/>
    <Variable VarIndex="18" Expression="deltaR_minBB" Label="deltaR_minBB" Title="min[#DeltaR(b,b)]" Unit="" Internal="deltaR_minBB" Type="F" Min="1.28817484e-01" Max="1.00000000e+09"/>
    <Variable VarIndex="19" Expression="minDR_lepBJet" Label="minDR_lepBJet" Title="min[#DeltaR(l,b)]" Unit="" Internal="minDR_lepBJet" Type="F" Min="4.00000542e-01" Max="1.00000000e+09"/>
    <Variable VarIndex="20" Expression="MT_lepMet" Label="MT_lepMet" Title="M_{T}(lep,E_{T}^{miss})" Unit="GeV" Internal="MT_lepMet" Type="F" Min="6.00002632e+01" Max="1.16094739e+03"/>
    <Variable VarIndex="21" Expression="AK4HT" Label="AK4HT" Title="H_{T}" Unit="GeV" Internal="AK4HT" Type="F" Min="5.10000061e+02" Max="9.68473926e+03"/>
    <Variable VarIndex="22" Expression="hemiout" Label="hemiout" Title="Hemiout" Unit="GeV" Internal="hemiout" Type="F" Min="-1.00000000e+00" Max="9.53985547e+03"/>
    <Variable VarIndex="23" Expression="theJetLeadPt" Label="theJetLeadPt" Title="p_{T}(j_{1})" Unit="GeV" Internal="theJetLeadPt" Type="F" Min="6.56619492e+01" Max="9.46637109e+03"/>
    <Variable VarIndex="24" Expression="corr_met_MultiLepCalc" Label="corr_met_MultiLepCalc" Title="E_{T}^{miss}" Unit="GeV" Internal="corr_met_MultiLepCalc" Type="F" Min="6.00000839e+01" Max="9.66020801e+03"/>
    <Variable VarIndex="25" Expression="leptonPt_MultiLepCalc" Label="leptonPt_MultiLepCalc" Title="p_{T}(lep)" Unit="GeV" Internal="leptonPt_MultiLepCalc" Type="F" Min="5.00001030e+01" Max="1.15961731e+03"/>
    <Variable VarIndex="26" Expression="mass_lepJets0" Label="mass_lepJets0" Title="M(l,j_{1})" Unit="GeV" Internal="mass_lepJets0" Type="F" Min="3.38857994e+01" Max="8.80240332e+03"/>
    <Variable VarIndex="27" Expression="mass_lepJets1" Label="mass_lepJets1" Title="M(l,j_{2})" Unit="GeV" Internal="mass_lepJets1" Type="F" Min="2.65588207e+01" Max="2.64805591e+03"/>
    <Variable VarIndex="28" Expression="mass_lepJets2" Label="mass_lepJets2" Title="M(l,j_{3})" Unit="GeV" Internal="mass_lepJets2" Type="F" Min="2.18447247e+01" Max="2.34138037e+03"/>
    <Variable VarIndex="29" Expression="MT2bb" Label="MT2bb" Title="MT2bb" Unit="GeV" Internal="MT2bb" Type="F" Min="0.00000000e+00" Max="8.04370605e+02"/>
    <Variable VarIndex="30" Expression="mass_lepBJet0" Label="mass_lepBJet0" Title="M(l,b_{1})" Unit="GeV" Internal="mass_lepBJet0" Type="F" Min="-1.00000000e+00" Max="8.80240332e+03"/>
    <Variable VarIndex="31" Expression="mass_lepBJet_mindr" Label="mass_lepBJet_mindr" Title="M(l,b) with min[#DeltaR(l,b)]" Unit="GeV" Internal="mass_lepBJet_mindr" Type="F" Min="-1.00000000e+00" Max="8.80240332e+03"/>
    <Variable VarIndex="32" Expression="secondJetPt" Label="secondJetPt" Title="p_{T}(j_{2})" Unit="GeV" Internal="secondJetPt" Type="F" Min="3.47870407e+01" Max="1.68495618e+03"/>
    <Variable VarIndex="33" Expression="fifthJetPt" Label="fifthJetPt" Title="p_{T}(j_{5})" Unit="GeV" Internal="fifthJetPt" Type="F" Min="-1.00000000e+00" Max="5.17642517e+02"/>
    <Variable VarIndex="34" Expression="sixthJetPt" Label="sixthJetPt" Title="p_{T}(j_{6})" Unit="GeV" Internal="sixthJetPt" Type="F" Min="-1.00000000e+00" Max="4.02537201e+02"/>
    <Variable VarIndex="35" Expression="PtFifthJet" Label="PtFifthJet" Title="5^{th} jet p_{T}" Unit="GeV" Internal="PtFifthJet" Type="F" Min="-1.00000000e+00" Max="1.91989807e+03"/>
    <Variable VarIndex="36" Expression="mass_minLLdr" Label="mass_minLLdr" Title="M(j,j) with min[#DeltaR(j,j)], j #neq b" Unit="GeV" Internal="mass_minLLdr" Type="F" Min="-1.00000000e+00" Max="5.46484570e+03"/>
    <Variable VarIndex="37" Expression="mass_maxBBmass" Label="mass_maxBBmass" Title="max[M(b,b)]" Unit="GeV" Internal="mass_maxBBmass" Type="F" Min="-1.00000000e+00" Max="4.59059570e+03"/>
    <Variable VarIndex="38" Expression="deltaR_lepJetInMinMljet" Label="deltaR_lepJetInMinMljet" Title="#DeltaR(l,j) with min M(l, j)" Unit="" Internal="deltaR_lepJetInMinMljet" Type="F" Min="4.00000542e-01" Max="4.44488239e+00"/>
    <Variable VarIndex="39" Expression="deltaPhi_lepJetInMinMljet" Label="deltaPhi_lepJetInMinMljet" Title="#DeltaPhi(l,j) with min M(l, j)" Unit="" Internal="deltaPhi_lepJetInMinMljet" Type="F" Min="-3.14147758e+00" Max="3.14156461e+00"/>
    <Variable VarIndex="40" Expression="deltaR_lepbJetInMinMlb" Label="deltaR_lepbJetInMinMlb" Title="#DeltaR(l,b) with min M(l, b)" Unit="" Internal="deltaR_lepbJetInMinMlb" Type="F" Min="-9.90000000e+01" Max="5.32525253e+00"/>
    <Variable VarIndex="41" Expression="deltaPhi_lepbJetInMinMlb" Label="deltaPhi_lepbJetInMinMlb" Title="#DeltaPhi(l,b) with min M(l, b)" Unit="" Internal="deltaPhi_lepbJetInMinMlb" Type="F" Min="-9.90000000e+01" Max="3.14145017e+00"/>
    <Variable VarIndex="42" Expression="M_allJet_W" Label="M_allJet_W" Title="M(allJets, leptoninc W)" Unit="GeV" Internal="M_allJet_W" Type="F" Min="5.15022278e+02" Max="7.26290000e+04"/>
    <Variable VarIndex="43" Expression="HT_bjets" Label="HT_bjets" Title="HT(bjets)" Unit="GeV" Internal="HT_bjets" Type="F" Min="-1.00000000e+01" Max="9.45637109e+03"/>
    <Variable VarIndex="44" Expression="ratio_HTdHT4leadjets" Label="ratio_HTdHT4leadjets" Title="HT/HT(4 leading jets)" Unit="" Internal="ratio_HTdHT4leadjets" Type="F" Min="1.00794661e+00" Max="2.62445450e+00"/>
    <Variable VarIndex="45" Expression="csvJet3" Label="csvJet3" Title="DeepCSV(3rdPtJet)" Unit="" Internal="csvJet3" Type="F" Min="-2.00000000e+00" Max="9.99928772e-01"/>
    <Variable VarIndex="46" Expression="csvJet4" Label="csvJet4" Title="DeepCSV(4thPtJet)" Unit="" Internal="csvJet4" Type="F" Min="-2.00000000e+00" Max="9.99970436e-01"/>
    <Variable VarIndex="47" Expression="thirdcsvb_bb" Label="thirdcsvb_bb" Title="DeepCSV(3rdDeepCSVJet)" Unit="" Internal="thirdcsvb_bb" Type="F" Min="-2.00000000e+00" Max="9.99268293e-01"/>
    <Variable VarIndex="48" Expression="fourthcsvb_bb" Label="fourthcsvb_bb" Title="DeepCSV(4thDeepCSVJet)" Unit="" Internal="fourthcsvb_bb" Type="F" Min="-2.00000000e+00" Max="9.96882856e-01"/>
    <Variable VarIndex="49" Expression="NJets_JetSubCalc" Label="NJets_JetSubCalc" Title="AK4 jet multiplicity" Unit="" Internal="NJets_JetSubCalc" Type="I" Min="4.00000000e+00" Max="1.90000000e+01"/>
    <Variable VarIndex="50" Expression="HT_2m" Label="HT_2m" Title="HTwoTwoPtBjets" Unit="GeV" Internal="HT_2m" Type="F" Min="-1.00000000e+02" Max="4.15177344e+03"/>
    <Variable VarIndex="51" Expression="Sphericity" Label="Sphericity" Title="Sphericity" Unit="Sphericity" Internal="Sphericity" Type="F" Min="3.60423564e-06" Max="9.47829902e-01"/>
    <Variable VarIndex="52" Expression="Aplanarity" Label="Aplanarity" Title="Aplanarity" Unit="Aplanarity" Internal="Aplanarity" Type="F" Min="2.15262332e-07" Max="4.45236415e-01"/>
    <Variable VarIndex="53" Expression="BDTtrijet1" Label="BDTtrijet1" Title="trijet1 discriminator" Unit="" Internal="BDTtrijet1" Type="F" Min="-1.00000000e+00" Max="9.99728739e-01"/>
    <Variable VarIndex="54" Expression="BDTtrijet2" Label="BDTtrijet2" Title="trijet2 discriminator" Unit="" Internal="BDTtrijet2" Type="F" Min="-1.00000000e+00" Max="9.96382952e-01"/>
    <Variable VarIndex="55" Expression="BDTtrijet3" Label="BDTtrijet3" Title="trijet3 discriminator" Unit="" Internal="BDTtrijet3" Type="F" Min="-1.00000000e+00" Max="9.87466156e-01"/>
    <Variable VarIndex="56" Expression="BDTtrijet4" Label="BDTtrijet4" Title="trijet4 discriminator" Unit="" Internal="BDTtrijet4" Type="F" Min="-1.00000000e+00" Max="9.41090405e-01"/>
    <Variable VarIndex="57" Expression="NresolvedTops1pFake" Label="NresolvedTops1pFake" Title="resolvedTop multiplicity" Unit="" Internal="NresolvedTops1pFake" Type="F" Min="0.00000000e+00" Max="3.00000000e+00"/>
    <Variable VarIndex="58" Expression="NJetsTtagged" Label="NJetsTtagged" Title="top multiplicity" Unit="" Internal="NJetsTtagged" Type="F" Min="0.00000000e+00" Max="4.00000000e+00"/>
    <Variable VarIndex="59" Expression="NJetsWtagged" Label="NJetsWtagged" Title="W multiplicity" Unit="" Internal="NJetsWtagged" Type="F" Min="0.00000000e+00" Max="4.00000000e+00"/>
    <Variable VarIndex="60" Expression="NJetsCSVwithSF_JetSubCalc" Label="NJetsCSVwithSF_JetSubCalc" Title="bjet multiplicity" Unit="" Internal="NJetsCSVwithSF_JetSubCalc" Type="F" Min="0.00000000e+00" Max="1.10000000e+01"/>
  </Variables>
  <Spectators NSpec="0"/>
  <Classes NClass="2">
    <Class Name="Signal" Index="0"/>
    <Class Name="Background" Index="1"/>
  </Classes>
  <Transformations NTransformations="0"/>
  <MVAPdfs/>
  <Weights NTrees="100" AnalysisType="0">
    <BinaryTree type="DecisionTree" boostWeight="4.7698258323885784e-01" itree="0">
      <Node pos="s" depth="0" NCoef="0" IVar="47" Cut="2.8507810831069946e-01" cType="0" res="-9.9000000000000000e+01" rms="0.0000000000000000e+00" purity="5.0018543004989624e-01" nType="0">
        <Node pos="l" depth="1" NCoef="0" IVar="-1" Cut="5.2087694406509399e-01" cType="0" res="-9.9000000000000000e+01" rms="0.0000000000000000e+00" purity="7.2003442049026489e-01" nType="1"/>
        <Node pos="r" depth="1" NCoef="0" IVar="-1" Cut="4.2465475201606750e-01" cType="0" res="-9.9000000000000000e+01" rms="0.0000000000000000e+00" purity="2.7617508172988892e-01" nType="-1"/>
      </Node>
    </BinaryTree>
    <BinaryTree type="DecisionTree" boostWeight="4.7733288714684285e-01" itree="1">
      <Node pos="s" depth="0" NCoef="0" IVar="60" Cut="2.1428570747375488e+00" cType="0" res="-9.9000000000000000e+01" rms="0.0000000000000000e+00" purity="4.9798807501792908e-01" nType="0">
        <Node pos="l" depth="1" NCoef="0" IVar="-1" Cut="6.1593174934387207e-01" cType="0" res="-9.9000000000000000e+01" rms="0.0000000000000000e+00" purity="7.3081111907958984e-01" nType="1"/>
        <Node pos="r" depth="1" NCoef="0" IVar="54" Cut="6.1460870504379272e-01" cType="0" res="-9.9000000000000000e+01" rms="0.0000000000000000e+00" purity="3.2414498925209045e-01" nType="0">
          <Node pos="l" depth="2" NCoef="0" IVar="-1" Cut="0.0000000000000000e+00" cType="1" res="-9.9000000000000000e+01" rms="0.0000000000000000e+00" purity="5.7137000560760498e-01" nType="1"/>
          <Node pos="r" depth="2" NCoef="0" IVar="-1" Cut="0.0000000000000000e+00" cType="1" res="-9.9000000000000000e+01" rms="0.0000000000000000e+00" purity="2.2903296351432800e-01" nType="-1"/>
        </Node>
      </Node>
    </BinaryTree>
    <BinaryTree type="DecisionTree" boostWeight="3.7097792299290339e-01" itree="2">
      <Node pos="s" depth="0" NCoef="0" IVar="48" Cut="1.4023679494857788e-01" cType="0" res="-9.9000000000000000e+01" rms="0.0000000000000000e+00" purity="4.7935220599174500e-01" nType="0">
        <Node pos="l" depth="1" NCoef="0" IVar="-1" Cut="8.0459976196289062e-01" cType="0" res="-9.9000000000000000e+01" rms="0.0000000000000000e+00" purity="7.0162987709045410e-01" nType="1"/>
        <Node pos="r" depth="1" NCoef="0" IVar="-1" Cut="3.3020234107971191e-01" cType="0" res="-9.9000000000000000e+01" rms="0.0000000000000000e+00" purity="3.3797308802604675e-01" nType="-1"/>
      </Node>
    </BinaryTree>
    <BinaryTree type="DecisionTree" boostWeight="3.0872622533869920e-01" itree="3">
      <Node pos="s" depth="0" NCoef="0" IVar="60" Cut="2.1428570747375488e+00" cType="0" res="-9.9000000000000000e+01" rms="0.0000000000000000e+00" purity="4.9574077129364014e-01" nType="0">
        <Node pos="l" depth="1" NCoef="0" IVar="-1" Cut="7.1098655462265015e-01" cType="0" res="-9.9000000000000000e+01" rms="0.0000000000000000e+00" purity="6.7001450061798096e-01" nType="1"/>
        <Node pos="r" depth="1" NCoef="0" IVar="-1" Cut="6.0000000000000000e+00" cType="0" res="-9.9000000000000000e+01" rms="0.0000000000000000e+00" purity="3.6557912826538086e-01" nType="-1"/>
      </Node>
    </BinaryTree>
    <BinaryTree type="DecisionTree" boostWeight="3.2386406519720284e-01" itree="4">
      <Node pos="s" depth="0" NCoef="0" IVar="54" Cut="3.3036163449287415e-01" cType="0" res="-9.9000000000000000e+01" rms="0.0000000000000000e+00" purity="5.0695765018463135e-01" nType="0">
        <Node pos="l" depth="1" NCoef="0" IVar="-1" Cut="4.2797908186912537e-01" cType="0" res="-9.9000000000000000e+01" rms="0.0000000000000000e+00" purity="6.4539510011672974e-01" nType="1"/>
        <Node pos="r" depth="1" NCoef="0" IVar="21" Cut="9.4689392089843750e+02" cType="0" res="-9.9000000000000000e+01" rms="0.0000000000000000e+00" purity="3.7272742390632629e-01" nType="0">
          <Node pos="l" depth="2" NCoef="0" IVar="-1" Cut="0.0000000000000000e+00" cType="1" res="-9.9000000000000000e+01" rms="0.0000000000000000e+00" purity="5.6764882802963257e-01" nType="1"/>
          <Node pos="r" depth="2" NCoef="0" IVar="-1" Cut="0.0000000000000000e+00" cType="1" res="-9.9000000000000000e+01" rms="0.0000000000000000e+00" purity="2.9093626141548157e-01" nType="-1"/>
        </Node>
      </Node>
    </BinaryTree>
    <BinaryTree type="DecisionTree" boostWeight="2.6786337798726867e-01" itree="5">
      <Node pos="s" depth="0" NCoef="0" IVar="47" Cut="4.2784824967384338e-01" cType="0" res="-9.9000000000000000e+01" rms="0.0000000000000000e+00" purity="4.8803681135177612e-01" nType="0">
        <Node pos="l" depth="1" NCoef="0" IVar="-1" Cut="7.1098655462265015e-01" cType="0" res="-9.9000000000000000e+01" rms="0.0000000000000000e+00" purity="6.7165464162826538e-01" nType="1"/>
        <Node pos="r" depth="1" NCoef="0" IVar="-1" Cut="9.9292999267578125e+02" cType="0" res="-9.9000000000000000e+01" rms="0.0000000000000000e+00" purity="3.9080637693405151e-01" nType="-1"/>
      </Node>
    </BinaryTree>
    <BinaryTree type="DecisionTree" boostWeight="2.3550584441848613e-01" itree="6">
      <Node pos="s" depth="0" NCoef="0" IVar="33" Cut="7.3091789245605469e+01" cType="0" res="-9.9000000000000000e+01" rms="0.0000000000000000e+00" purity="5.0539189577102661e-01" nType="0">
        <Node pos="l" depth="1" NCoef="0" IVar="-1" Cut="7.1098655462265015e-01" cType="0" res="-9.9000000000000000e+01" rms="0.0000000000000000e+00" purity="6.5557008981704712e-01" nType="1"/>
        <Node pos="r" depth="1" NCoef="0" IVar="-1" Cut="6.0000000000000000e+00" cType="0" res="-9.9000000000000000e+01" rms="0.0000000000000000e+00" purity="4.0980306267738342e-01" nType="-1"/>
      </Node>
    </BinaryTree>
    <BinaryTree type="DecisionTree" boostWeight="2.8974961821308176e-01" itree="7">
      <Node pos="s" depth="0" NCoef="0" IVar="54" Cut="8.0532413721084595e-01" cType="0" res="-9.9000000000000000e+01" rms="0.0000000000000000e+00" purity="5.0938761234283447e-01" nType="0">
        <Node pos="l" depth="1" NCoef="0" IVar="-1" Cut="1.3569495081901550e-01" cType="0" res="-9.9000000000000000e+01" rms="0.0000000000000000e+00" purity="7.2096884250640869e-01" nType="1"/>
        <Node pos="r" depth="1" NCoef="0" IVar="20" Cut="1.6485237121582031e+02" cType="0" res="-9.9000000000000000e+01" rms="0.0000000000000000e+00" purity="4.4382548332214355e-01" nType="0">
          <Node pos="l" depth="2" NCoef="0" IVar="-1" Cut="0.0000000000000000e+00" cType="1" res="-9.9000000000000000e+01" rms="0.0000000000000000e+00" purity="6.4566195011138916e-01" nType="1"/>
          <Node pos="r" depth="2" NCoef="0" IVar="-1" Cut="0.0000000000000000e+00" cType="1" res="-9.9000000000000000e+01" rms="0.0000000000000000e+00" purity="3.9149242639541626e-01" nType="-1"/>
        </Node>
      </Node>
    </BinaryTree>
    <BinaryTree type="DecisionTree" boostWeight="2.1960178119087440e-01" itree="8">
      <Node pos="s" depth="0" NCoef="0" IVar="34" Cut="1.2645740509033203e+01" cType="0" res="-9.9000000000000000e+01" rms="0.0000000000000000e+00" purity="5.1526397466659546e-01" nType="0">
        <Node pos="l" depth="1" NCoef="0" IVar="43" Cut="2.9269155883789062e+02" cType="0" res="-9.9000000000000000e+01" rms="0.0000000000000000e+00" purity="5.6113290786743164e-01" nType="0">
          <Node pos="l" depth="2" NCoef="0" IVar="-1" Cut="0.0000000000000000e+00" cType="1" res="-9.9000000000000000e+01" rms="0.0000000000000000e+00" purity="6.7466324567794800e-01" nType="1"/>
          <Node pos="r" depth="2" NCoef="0" IVar="-1" Cut="0.0000000000000000e+00" cType="1" res="-9.9000000000000000e+01" rms="0.0000000000000000e+00" purity="4.8061934113502502e-01" nType="-1"/>
        </Node>
        <Node pos="r" depth="1" NCoef="0" IVar="-1" Cut="1.5138581848144531e+02" cType="0" res="-9.9000000000000000e+01" rms="0.0000000000000000e+00" purity="2.5349032878875732e-01" nType="-1"/>
      </Node>
    </BinaryTree>
    <BinaryTree type="DecisionTree" boostWeight="1.8624882447598384e-01" itree="9">
      <Node pos="s" depth="0" NCoef="0" IVar="49" Cut="6.0000000000000000e+00" cType="0" res="-9.9000000000000000e+01" rms="0.0000000000000000e+00" purity="5.2404528856277466e-01" nType="0">
        <Node pos="l" depth="1" NCoef="0" IVar="-1" Cut="2.2887597978115082e-01" cType="0" res="-9.9000000000000000e+01" rms="0.0000000000000000e+00" purity="5.6747728586196899e-01" nType="1"/>
        <Node pos="r" depth="1" NCoef="0" IVar="31" Cut="1.5138581848144531e+02" cType="0" res="-9.9000000000000000e+01" rms="0.0000000000000000e+00" purity="2.6697120070457458e-01" nType="0">
          <Node pos="l" depth="2" NCoef="0" IVar="-1" Cut="0.0000000000000000e+00" cType="1" res="-9.9000000000000000e+01" rms="0.0000000000000000e+00" purity="5.1074773073196411e-01" nType="1"/>
          <Node pos="r" depth="2" NCoef="0" IVar="-1" Cut="0.0000000000000000e+00" cType="1" res="-9.9000000000000000e+01" rms="0.0000000000000000e+00" purity="2.0146633684635162e-01" nType="-1"/>
        </Node>
      </Node>
    </BinaryTree>
    <BinaryTree type="DecisionTree" boostWeight="2.3477317003431458e-01" itree="10">
      <Node pos="s" depth="0" NCoef="0" IVar="55" Cut="1.3526739180088043e-01" cType="0" res="-9.9000000000000000e+01" rms="0.0000000000000000e+00" purity="5.0603306293487549e-01" nType="0">
        <Node pos="l" depth="1" NCoef="0" IVar="-1" Cut="8.3458566665649414e-01" cType="0" res="-9.9000000000000000e+01" rms="0.0000000000000000e+00" purity="7.5529259443283081e-01" nType="1"/>
        <Node pos="r" depth="1" NCoef="0" IVar="47" Cut="5.7071286439895630e-01" cType="0" res="-9.9000000000000000e+01" rms="0.0000000000000000e+00" purity="4.6716096997261047e-01" nType="0">
          <Node pos="l" depth="2" NCoef="0" IVar="-1" Cut="0.0000000000000000e+00" cType="1" res="-9.9000000000000000e+01" rms="0.0000000000000000e+00" purity="6.4187288284301758e-01" nType="1"/>
          <Node pos="r" depth="2" NCoef="0" IVar="-1" Cut="0.0000000000000000e+00" cType="1" res="-9.9000000000000000e+01" rms="0.0000000000000000e+00" purity="4.1971245408058167e-01" nType="-1"/>
        </Node>
      </Node>
    </BinaryTree>
    <BinaryTree type="DecisionTree" boostWeight="2.0532719232692323e-01" itree="11">
      <Node pos="s" depth="0" NCoef="0" IVar="0" Cut="1.0610788574218750e+03" cType="0" res="-9.9000000000000000e+01" rms="0.0000000000000000e+00" purity="5.1923435926437378e-01" nType="0">
        <Node pos="l" depth="1" NCoef="0" IVar="-1" Cut="7.1049350500106812e-01" cType="0" res="-9.9000000000000000e+01" rms="0.0000000000000000e+00" purity="6.1912924051284790e-01" nType="1"/>
        <Node pos="r" depth="1" NCoef="0" IVar="54" Cut="2.3500069975852966e-01" cType="0" res="-9.9000000000000000e+01" rms="0.0000000000000000e+00" purity="4.3414616584777832e-01" nType="0">
          <Node pos="l" depth="2" NCoef="0" IVar="-1" Cut="0.0000000000000000e+00" cType="1" res="-9.9000000000000000e+01" rms="0.0000000000000000e+00" purity="5.1921236515045166e-01" nType="1"/>
          <Node pos="r" depth="2" NCoef="0" IVar="-1" Cut="0.0000000000000000e+00" cType="1" res="-9.9000000000000000e+01" rms="0.0000000000000000e+00" purity="3.4027910232543945e-01" nType="-1"/>
        </Node>
      </Node>
    </BinaryTree>
    <BinaryTree type="DecisionTree" boostWeight="2.1606906779209872e-01" itree="12">
      <Node pos="s" depth="0" NCoef="0" IVar="49" Cut="9.0000000000000000e+00" cType="0" res="-9.9000000000000000e+01" rms="0.0000000000000000e+00" purity="5.0621950626373291e-01" nType="0">
        <Node pos="l" depth="1" NCoef="0" IVar="-1" Cut="2.4818994104862213e-01" cType="0" res="-9.9000000000000000e+01" rms="0.0000000000000000e+00" purity="6.5761739015579224e-01" nType="1"/>
        <Node pos="r" depth="1" NCoef="0" IVar="20" Cut="1.5796520996093750e+02" cType="0" res="-9.9000000000000000e+01" rms="0.0000000000000000e+00" purity="4.5945203304290771e-01" nType="0">
          <Node pos="l" depth="2" NCoef="0" IVar="-1" Cut="0.0000000000000000e+00" cType="1" res="-9.9000000000000000e+01" rms="0.0000000000000000e+00" purity="6.0992705821990967e-01" nType="1"/>
          <Node pos="r" depth="2" NCoef="0" IVar="-1" Cut="0.0000000000000000e+00" cType="1" res="-9.9000000000000000e+01" rms="0.0000000000000000e+00" purity="4.1514521837234497e-01" nType="-1"/>
        </Node>
      </Node>
    </BinaryTree>
    <BinaryTree type="DecisionTree" boostWeight="1.6612462644397447e-01" itree="13">
      <Node pos="s" depth="0" NCoef="0" IVar="33" Cut="5.8905628204345703e+01" cType="0" res="-9.9000000000000000e+01" rms="0.0000000000000000e+00" purity="5.1073163747787476e-01" nType="0">
        <Node pos="l" depth="1" NCoef="0" IVar="-1" Cut="2.8256812691688538e-01" cType="0" res="-9.9000000000000000e+01" rms="0.0000000000000000e+00" purity="5.7600253820419312e-01" nType="1"/>
        <Node pos="r" depth="1" NCoef="0" IVar="-1" Cut="3.0379117965698242e+01" cType="0" res="-9.9000000000000000e+01" rms="0.0000000000000000e+00" purity="4.0774694085121155e-01" nType="-1"/>
      </Node>
    </BinaryTree>
    <BinaryTree type="DecisionTree" boostWeight="2.2966831310558591e-01" itree="14">
      <Node pos="s" depth="0" NCoef="0" IVar="31" Cut="1.7224002075195312e+02" cType="0" res="-9.9000000000000000e+01" rms="0.0000000000000000e+00" purity="5.0158101320266724e-01" nType="0">
        <Node pos="l" depth="1" NCoef="0" IVar="-1" Cut="1.6454238891601562e+02" cType="0" res="-9.9000000000000000e+01" rms="0.0000000000000000e+00" purity="7.0062494277954102e-01" nType="1"/>
        <Node pos="r" depth="1" NCoef="0" IVar="48" Cut="2.8180986642837524e-01" cType="0" res="-9.9000000000000000e+01" rms="0.0000000000000000e+00" purity="4.6299511194229126e-01" nType="0">
          <Node pos="l" depth="2" NCoef="0" IVar="-1" Cut="0.0000000000000000e+00" cType="1" res="-9.9000000000000000e+01" rms="0.0000000000000000e+00" purity="6.6131055355072021e-01" nType="1"/>
          <Node pos="r" depth="2" NCoef="0" IVar="-1" Cut="0.0000000000000000e+00" cType="1" res="-9.9000000000000000e+01" rms="0.0000000000000000e+00" purity="4.1876041889190674e-01" nType="-1"/>
        </Node>
      </Node>
    </BinaryTree>
    <BinaryTree type="DecisionTree" boostWeight="2.1664783732833698e-01" itree="15">
      <Node pos="s" depth="0" NCoef="0" IVar="30" Cut="1.5906979370117188e+02" cType="0" res="-9.9000000000000000e+01" rms="0.0000000000000000e+00" purity="5.1948046684265137e-01" nType="0">
        <Node pos="l" depth="1" NCoef="0" IVar="34" Cut="1.8216056823730469e+01" cType="0" res="-9.9000000000000000e+01" rms="0.0000000000000000e+00" purity="5.8633416891098022e-01" nType="0">
          <Node pos="l" depth="2" NCoef="0" IVar="-1" Cut="0.0000000000000000e+00" cType="1" res="-9.9000000000000000e+01" rms="0.0000000000000000e+00" purity="6.1300200223922729e-01" nType="1"/>
          <Node pos="r" depth="2" NCoef="0" IVar="-1" Cut="0.0000000000000000e+00" cType="1" res="-9.9000000000000000e+01" rms="0.0000000000000000e+00" purity="4.1897672414779663e-01" nType="-1"/>
        </Node>
        <Node pos="r" depth="1" NCoef="0" IVar="54" Cut="7.1046495437622070e-01" cType="0" res="-9.9000000000000000e+01" rms="0.0000000000000000e+00" purity="4.2961007356643677e-01" nType="0">
          <Node pos="l" depth="2" NCoef="0" IVar="-1" Cut="0.0000000000000000e+00" cType="1" res="-9.9000000000000000e+01" rms="0.0000000000000000e+00" purity="5.5578255653381348e-01" nType="1"/>
          <Node pos="r" depth="2" NCoef="0" IVar="-1" Cut="0.0000000000000000e+00" cType="1" res="-9.9000000000000000e+01" rms="0.0000000000000000e+00" purity="3.7510928511619568e-01" nType="-1"/>
        </Node>
      </Node>
    </BinaryTree>
    <BinaryTree type="DecisionTree" boostWeight="1.6723356363801276e-01" itree="16">
      <Node pos="s" depth="0" NCoef="0" IVar="55" Cut="4.1908425092697144e-01" cType="0" res="-9.9000000000000000e+01" rms="0.0000000000000000e+00" purity="5.1481443643569946e-01" nType="0">
        <Node pos="l" depth="1" NCoef="0" IVar="-1" Cut="0.0000000000000000e+00" cType="1" res="-9.9000000000000000e+01" rms="0.0000000000000000e+00" purity="7.6624906063079834e-01" nType="1"/>
        <Node pos="r" depth="1" NCoef="0" IVar="24" Cut="1.1834426879882812e+02" cType="0" res="-9.9000000000000000e+01" rms="0.0000000000000000e+00" purity="4.9583962559700012e-01" nType="0">
          <Node pos="l" depth="2" NCoef="0" IVar="-1" Cut="0.0000000000000000e+00" cType="1" res="-9.9000000000000000e+01" rms="0.0000000000000000e+00" purity="5.7092887163162231e-01" nType="1"/>
          <Node pos="r" depth="2" NCoef="0" IVar="-1" Cut="0.0000000000000000e+00" cType="1" res="-9.9000000000000000e+01" rms="0.0000000000000000e+00" purity="4.3261462450027466e-01" nType="-1"/>
        </Node>
      </Node>
    </BinaryTree>
    <BinaryTree type="DecisionTree" boostWeight="1.7446978199447241e-01" itree="17">
      <Node pos="s" depth="0" NCoef="0" IVar="47" Cut="7.1353024244308472e-01" cType="0" res="-9.9000000000000000e+01" rms="0.0000000000000000e+00" purity="5.1325511932373047e-01" nType="0">
        <Node pos="l" depth="1" NCoef="0" IVar="-1" Cut="1.4285714924335480e-01" cType="0" res="-9.9000000000000000e+01" rms="0.0000000000000000e+00" purity="6.8820399045944214e-01" nType="1"/>
        <Node pos="r" depth="1" NCoef="0" IVar="20" Cut="1.1242637634277344e+02" cType="0" res="-9.9000000000000000e+01" rms="0.0000000000000000e+00" purity="4.8356088995933533e-01" nType="0">
          <Node pos="l" depth="2" NCoef="0" IVar="-1" Cut="0.0000000000000000e+00" cType="1" res="-9.9000000000000000e+01" rms="0.0000000000000000e+00" purity="5.5428749322891235e-01" nType="1"/>
          <Node pos="r" depth="2" NCoef="0" IVar="-1" Cut="0.0000000000000000e+00" cType="1" res="-9.9000000000000000e+01" rms="0.0000000000000000e+00" purity="4.1701218485832214e-01" nType="-1"/>
        </Node>
      </Node>
    </BinaryTree>
    <BinaryTree type="DecisionTree" boostWeight="1.6494839293277858e-01" itree="18">
      <Node pos="s" depth="0" NCoef="0" IVar="30" Cut="1.4021704101562500e+02" cType="0" res="-9.9000000000000000e+01" rms="0.0000000000000000e+00" purity="5.1152682304382324e-01" nType="0">
        <Node pos="l" depth="1" NCoef="0" IVar="22" Cut="5.0645419311523438e+02" cType="0" res="-9.9000000000000000e+01" rms="0.0000000000000000e+00" purity="5.6068307161331177e-01" nType="0">
          <Node pos="l" depth="2" NCoef="0" IVar="-1" Cut="0.0000000000000000e+00" cType="1" res="-9.9000000000000000e+01" rms="0.0000000000000000e+00" purity="6.1557054519653320e-01" nType="1"/>
          <Node pos="r" depth="2" NCoef="0" IVar="-1" Cut="0.0000000000000000e+00" cType="1" res="-9.9000000000000000e+01" rms="0.0000000000000000e+00" purity="4.9177303910255432e-01" nType="-1"/>
        </Node>
        <Node pos="r" depth="1" NCoef="0" IVar="47" Cut="5.7055127620697021e-01" cType="0" res="-9.9000000000000000e+01" rms="0.0000000000000000e+00" purity="4.2650428414344788e-01" nType="0">
          <Node pos="l" depth="2" NCoef="0" IVar="-1" Cut="0.0000000000000000e+00" cType="1" res="-9.9000000000000000e+01" rms="0.0000000000000000e+00" purity="5.8293265104293823e-01" nType="1"/>
          <Node pos="r" depth="2" NCoef="0" IVar="-1" Cut="0.0000000000000000e+00" cType="1" res="-9.9000000000000000e+01" rms="0.0000000000000000e+00" purity="3.8906499743461609e-01" nType="-1"/>
        </Node>
      </Node>
    </BinaryTree>
    <BinaryTree type="DecisionTree" boostWeight="1.1239194526223394e-01" itree="19">
      <Node pos="s" depth="0" NCoef="0" IVar="33" Cut="1.8620950698852539e+01" cType="0" res="-9.9000000000000000e+01" rms="0.0000000000000000e+00" purity="5.0776427984237671e-01" nType="0">
        <Node pos="l" depth="1" NCoef="0" IVar="31" Cut="1.5138581848144531e+02" cType="0" res="-9.9000000000000000e+01" rms="0.0000000000000000e+00" purity="5.2209806442260742e-01" nType="0">
          <Node pos="l" depth="2" NCoef="0" IVar="-1" Cut="0.0000000000000000e+00" cType="1" res="-9.9000000000000000e+01" rms="0.0000000000000000e+00" purity="6.5845221281051636e-01" nType="1"/>
          <Node pos="r" depth="2" NCoef="0" IVar="-1" Cut="0.0000000000000000e+00" cType="1" res="-9.9000000000000000e+01" rms="0.0000000000000000e+00" purity="4.8591724038124084e-01" nType="-1"/>
        </Node>
        <Node pos="r" depth="1" NCoef="0" IVar="-1" Cut="0.0000000000000000e+00" cType="1" res="-9.9000000000000000e+01" rms="0.0000000000000000e+00" purity="1.7322808504104614e-01" nType="-1"/>
      </Node>
    </BinaryTree>
    <BinaryTree type="DecisionTree" boostWeight="1.3691675560914368e-01" itree="20">
      <Node pos="s" depth="0" NCoef="0" IVar="55" Cut="2.3033618927001953e-01" cType="0" res="-9.9000000000000000e+01" rms="0.0000000000000000e+00" purity="5.2354884147644043e-01" nType="0">
        <Node pos="l" depth="1" NCoef="0" IVar="-1" Cut="0.0000000000000000e+00" cType="1" res="-9.9000000000000000e+01" rms="0.0000000000000000e+00" purity="7.0486390590667725e-01" nType="1"/>
        <Node pos="r" depth="1" NCoef="0" IVar="31" Cut="1.5457112121582031e+02" cType="0" res="-9.9000000000000000e+01" rms="0.0000000000000000e+00" purity="5.0225573778152466e-01" nType="0">
          <Node pos="l" depth="2" NCoef="0" IVar="-1" Cut="0.0000000000000000e+00" cType="1" res="-9.9000000000000000e+01" rms="0.0000000000000000e+00" purity="6.3332647085189819e-01" nType="1"/>
          <Node pos="r" depth="2" NCoef="0" IVar="-1" Cut="0.0000000000000000e+00" cType="1" res="-9.9000000000000000e+01" rms="0.0000000000000000e+00" purity="4.6880167722702026e-01" nType="-1"/>
        </Node>
      </Node>
    </BinaryTree>
    <BinaryTree type="DecisionTree" boostWeight="9.7382373110194112e-02" itree="21">
      <Node pos="s" depth="0" NCoef="0" IVar="33" Cut="2.0138944625854492e+01" cType="0" res="-9.9000000000000000e+01" rms="0.0000000000000000e+00" purity="5.2647167444229126e-01" nType="0">
        <Node pos="l" depth="1" NCoef="0" IVar="-1" Cut="1.4190040588378906e+02" cType="0" res="-9.9000000000000000e+01" rms="0.0000000000000000e+00" purity="5.3914153575897217e-01" nType="1"/>
        <Node pos="r" depth="1" NCoef="0" IVar="-1" Cut="0.0000000000000000e+00" cType="1" res="-9.9000000000000000e+01" rms="0.0000000000000000e+00" purity="2.3616087436676025e-01" nType="-1"/>
      </Node>
    </BinaryTree>
    <BinaryTree type="DecisionTree" boostWeight="1.4185280096543745e-01" itree="22">
      <Node pos="s" depth="0" NCoef="0" IVar="47" Cut="1.4207819104194641e-01" cType="0" res="-9.9000000000000000e+01" rms="0.0000000000000000e+00" purity="5.1343595981597900e-01" nType="0">
        <Node pos="l" depth="1" NCoef="0" IVar="-1" Cut="9.0054833889007568e-01" cType="0" res="-9.9000000000000000e+01" rms="0.0000000000000000e+00" purity="5.5186450481414795e-01" nType="1"/>
        <Node pos="r" depth="1" NCoef="0" IVar="31" Cut="1.5457112121582031e+02" cType="0" res="-9.9000000000000000e+01" rms="0.0000000000000000e+00" purity="4.0271368622779846e-01" nType="0">
          <Node pos="l" depth="2" NCoef="0" IVar="-1" Cut="0.0000000000000000e+00" cType="1" res="-9.9000000000000000e+01" rms="0.0000000000000000e+00" purity="5.5880188941955566e-01" nType="1"/>
          <Node pos="r" depth="2" NCoef="0" IVar="-1" Cut="0.0000000000000000e+00" cType="1" res="-9.9000000000000000e+01" rms="0.0000000000000000e+00" purity="3.5680019855499268e-01" nType="-1"/>
        </Node>
      </Node>
    </BinaryTree>
    <BinaryTree type="DecisionTree" boostWeight="1.2665007650046375e-01" itree="23">
      <Node pos="s" depth="0" NCoef="0" IVar="60" Cut="3.4285714626312256e+00" cType="0" res="-9.9000000000000000e+01" rms="0.0000000000000000e+00" purity="5.0783729553222656e-01" nType="0">
        <Node pos="l" depth="1" NCoef="0" IVar="-1" Cut="5.8868807554244995e-01" cType="0" res="-9.9000000000000000e+01" rms="0.0000000000000000e+00" purity="6.6809058189392090e-01" nType="1"/>
        <Node pos="r" depth="1" NCoef="0" IVar="29" Cut="1.1867744445800781e+02" cType="0" res="-9.9000000000000000e+01" rms="0.0000000000000000e+00" purity="4.8429441452026367e-01" nType="0">
          <Node pos="l" depth="2" NCoef="0" IVar="-1" Cut="0.0000000000000000e+00" cType="1" res="-9.9000000000000000e+01" rms="0.0000000000000000e+00" purity="6.6772514581680298e-01" nType="1"/>
          <Node pos="r" depth="2" NCoef="0" IVar="-1" Cut="0.0000000000000000e+00" cType="1" res="-9.9000000000000000e+01" rms="0.0000000000000000e+00" purity="4.6505615115165710e-01" nType="-1"/>
        </Node>
      </Node>
    </BinaryTree>
    <BinaryTree type="DecisionTree" boostWeight="7.2683978181451961e-02" itree="24">
      <Node pos="s" depth="0" NCoef="0" IVar="54" Cut="9.0109616518020630e-01" cType="0" res="-9.9000000000000000e+01" rms="0.0000000000000000e+00" purity="5.1502197980880737e-01" nType="0">
        <Node pos="l" depth="1" NCoef="0" IVar="-1" Cut="9.6929083251953125e+02" cType="0" res="-9.9000000000000000e+01" rms="0.0000000000000000e+00" purity="6.8793445825576782e-01" nType="1"/>
        <Node pos="r" depth="1" NCoef="0" IVar="33" Cut="2.3697261810302734e+01" cType="0" res="-9.9000000000000000e+01" rms="0.0000000000000000e+00" purity="4.9203667044639587e-01" nType="0">
          <Node pos="l" depth="2" NCoef="0" IVar="-1" Cut="0.0000000000000000e+00" cType="1" res="-9.9000000000000000e+01" rms="0.0000000000000000e+00" purity="5.0427436828613281e-01" nType="1"/>
          <Node pos="r" depth="2" NCoef="0" IVar="-1" Cut="0.0000000000000000e+00" cType="1" res="-9.9000000000000000e+01" rms="0.0000000000000000e+00" purity="2.3849956691265106e-01" nType="-1"/>
        </Node>
      </Node>
    </BinaryTree>
    <BinaryTree type="DecisionTree" boostWeight="1.3392167214319145e-01" itree="25">
      <Node pos="s" depth="0" NCoef="0" IVar="54" Cut="4.5187674462795258e-02" cType="0" res="-9.9000000000000000e+01" rms="0.0000000000000000e+00" purity="5.0826859474182129e-01" nType="0">
        <Node pos="l" depth="1" NCoef="0" IVar="-1" Cut="1.7656445312500000e+02" cType="0" res="-9.9000000000000000e+01" rms="0.0000000000000000e+00" purity="5.5245143175125122e-01" nType="1"/>
        <Node pos="r" depth="1" NCoef="0" IVar="29" Cut="9.4309593200683594e+01" cType="0" res="-9.9000000000000000e+01" rms="0.0000000000000000e+00" purity="4.3234297633171082e-01" nType="0">
          <Node pos="l" depth="2" NCoef="0" IVar="-1" Cut="0.0000000000000000e+00" cType="1" res="-9.9000000000000000e+01" rms="0.0000000000000000e+00" purity="5.5955713987350464e-01" nType="1"/>
          <Node pos="r" depth="2" NCoef="0" IVar="-1" Cut="0.0000000000000000e+00" cType="1" res="-9.9000000000000000e+01" rms="0.0000000000000000e+00" purity="4.0164300799369812e-01" nType="-1"/>
        </Node>
      </Node>
    </BinaryTree>
    <BinaryTree type="DecisionTree" boostWeight="1.3542611323721360e-01" itree="26">
      <Node pos="s" depth="0" NCoef="0" IVar="54" Cut="9.0109616518020630e-01" cType="0" res="-9.9000000000000000e+01" rms="0.0000000000000000e+00" purity="4.9504902958869934e-01" nType="0">
        <Node pos="l" depth="1" NCoef="0" IVar="-1" Cut="2.9726657271385193e-01" cType="0" res="-9.9000000000000000e+01" rms="0.0000000000000000e+00" purity="6.5616881847381592e-01" nType="1"/>
        <Node pos="r" depth="1" NCoef="0" IVar="58" Cut="1.9047619402408600e-01" cType="0" res="-9.9000000000000000e+01" rms="0.0000000000000000e+00" purity="4.7435486316680908e-01" nType="0">
          <Node pos="l" depth="2" NCoef="0" IVar="-1" Cut="0.0000000000000000e+00" cType="1" res="-9.9000000000000000e+01" rms="0.0000000000000000e+00" purity="5.9915846586227417e-01" nType="1"/>
          <Node pos="r" depth="2" NCoef="0" IVar="-1" Cut="0.0000000000000000e+00" cType="1" res="-9.9000000000000000e+01" rms="0.0000000000000000e+00" purity="4.5189788937568665e-01" nType="-1"/>
        </Node>
      </Node>
    </BinaryTree>
    <BinaryTree type="DecisionTree" boostWeight="1.0621628747980495e-01" itree="27">
      <Node pos="s" depth="0" NCoef="0" IVar="47" Cut="7.1362370252609253e-01" cType="0" res="-9.9000000000000000e+01" rms="0.0000000000000000e+00" purity="5.1246392726898193e-01" nType="0">
        <Node pos="l" depth="1" NCoef="0" IVar="-1" Cut="1.4285714924335480e-01" cType="0" res="-9.9000000000000000e+01" rms="0.0000000000000000e+00" purity="6.4429092407226562e-01" nType="1"/>
        <Node pos="r" depth="1" NCoef="0" IVar="20" Cut="2.1687374877929688e+02" cType="0" res="-9.9000000000000000e+01" rms="0.0000000000000000e+00" purity="4.9064567685127258e-01" nType="0">
          <Node pos="l" depth="2" NCoef="0" IVar="-1" Cut="0.0000000000000000e+00" cType="1" res="-9.9000000000000000e+01" rms="0.0000000000000000e+00" purity="6.6657263040542603e-01" nType="1"/>
          <Node pos="r" depth="2" NCoef="0" IVar="-1" Cut="0.0000000000000000e+00" cType="1" res="-9.9000000000000000e+01" rms="0.0000000000000000e+00" purity="4.7423121333122253e-01" nType="-1"/>
        </Node>
      </Node>
    </BinaryTree>
    <BinaryTree type="DecisionTree" boostWeight="7.7941113942343154e-02" itree="28">
      <Node pos="s" depth="0" NCoef="0" IVar="33" Cut="1.7542587280273438e+01" cType="0" res="-9.9000000000000000e+01" rms="0.0000000000000000e+00" purity="5.1763874292373657e-01" nType="0">
        <Node pos="l" depth="1" NCoef="0" IVar="20" Cut="1.4586076354980469e+02" cType="0" res="-9.9000000000000000e+01" rms="0.0000000000000000e+00" purity="5.2786189317703247e-01" nType="0">
          <Node pos="l" depth="2" NCoef="0" IVar="-1" Cut="0.0000000000000000e+00" cType="1" res="-9.9000000000000000e+01" rms="0.0000000000000000e+00" purity="6.1010044813156128e-01" nType="1"/>
          <Node pos="r" depth="2" NCoef="0" IVar="-1" Cut="0.0000000000000000e+00" cType="1" res="-9.9000000000000000e+01" rms="0.0000000000000000e+00" purity="4.9793636798858643e-01" nType="-1"/>
        </Node>
        <Node pos="r" depth="1" NCoef="0" IVar="-1" Cut="0.0000000000000000e+00" cType="1" res="-9.9000000000000000e+01" rms="0.0000000000000000e+00" purity="2.5722369551658630e-01" nType="-1"/>
      </Node>
    </BinaryTree>
    <BinaryTree type="DecisionTree" boostWeight="8.9751616622646316e-02" itree="29">
      <Node pos="s" depth="0" NCoef="0" IVar="20" Cut="2.1727842712402344e+02" cType="0" res="-9.9000000000000000e+01" rms="0.0000000000000000e+00" purity="5.1730787754058838e-01" nType="0">
        <Node pos="l" depth="1" NCoef="0" IVar="-1" Cut="8.0876213312149048e-01" cType="0" res="-9.9000000000000000e+01" rms="0.0000000000000000e+00" purity="6.8511432409286499e-01" nType="1"/>
        <Node pos="r" depth="1" NCoef="0" IVar="55" Cut="2.2987301647663116e-01" cType="0" res="-9.9000000000000000e+01" rms="0.0000000000000000e+00" purity="5.0110924243927002e-01" nType="0">
          <Node pos="l" depth="2" NCoef="0" IVar="-1" Cut="0.0000000000000000e+00" cType="1" res="-9.9000000000000000e+01" rms="0.0000000000000000e+00" purity="6.5379935503005981e-01" nType="1"/>
          <Node pos="r" depth="2" NCoef="0" IVar="-1" Cut="0.0000000000000000e+00" cType="1" res="-9.9000000000000000e+01" rms="0.0000000000000000e+00" purity="4.8318472504615784e-01" nType="-1"/>
        </Node>
      </Node>
    </BinaryTree>
    <BinaryTree type="DecisionTree" boostWeight="1.5532419740795242e-01" itree="30">
      <Node pos="s" depth="0" NCoef="0" IVar="51" Cut="1.7618216574192047e-01" cType="0" res="-9.9000000000000000e+01" rms="0.0000000000000000e+00" purity="5.2853024005889893e-01" nType="0">
        <Node pos="l" depth="1" NCoef="0" IVar="0" Cut="8.1730944824218750e+02" cType="0" res="-9.9000000000000000e+01" rms="0.0000000000000000e+00" purity="5.5747550725936890e-01" nType="0">
          <Node pos="l" depth="2" NCoef="0" IVar="-1" Cut="0.0000000000000000e+00" cType="1" res="-9.9000000000000000e+01" rms="0.0000000000000000e+00" purity="5.8265197277069092e-01" nType="1"/>
          <Node pos="r" depth="2" NCoef="0" IVar="-1" Cut="0.0000000000000000e+00" cType="1" res="-9.9000000000000000e+01" rms="0.0000000000000000e+00" purity="4.4930747151374817e-01" nType="-1"/>
        </Node>
        <Node pos="r" depth="1" NCoef="0" IVar="31" Cut="1.9942666625976562e+02" cType="0" res="-9.9000000000000000e+01" rms="0.0000000000000000e+00" purity="4.4382533431053162e-01" nType="0">
          <Node pos="l" depth="2" NCoef="0" IVar="-1" Cut="0.0000000000000000e+00" cType="1" res="-9.9000000000000000e+01" rms="0.0000000000000000e+00" purity="5.8406430482864380e-01" nType="1"/>
          <Node pos="r" depth="2" NCoef="0" IVar="-1" Cut="0.0000000000000000e+00" cType="1" res="-9.9000000000000000e+01" rms="0.0000000000000000e+00" purity="4.2258518934249878e-01" nType="-1"/>
        </Node>
      </Node>
    </BinaryTree>
    <BinaryTree type="DecisionTree" boostWeight="9.7776548246605435e-02" itree="31">
      <Node pos="s" depth="0" NCoef="0" IVar="53" Cut="5.2353757619857788e-01" cType="0" res="-9.9000000000000000e+01" rms="0.0000000000000000e+00" purity="5.2401340007781982e-01" nType="0">
        <Node pos="l" depth="1" NCoef="0" IVar="-1" Cut="1.8879101562500000e+02" cType="0" res="-9.9000000000000000e+01" rms="0.0000000000000000e+00" purity="5.4080450534820557e-01" nType="1"/>
        <Node pos="r" depth="1" NCoef="0" IVar="-1" Cut="1.6751925945281982e+00" cType="0" res="-9.9000000000000000e+01" rms="0.0000000000000000e+00" purity="3.8618683815002441e-01" nType="-1"/>
      </Node>
    </BinaryTree>
    <BinaryTree type="DecisionTree" boostWeight="1.1739677852049864e-01" itree="32">
      <Node pos="s" depth="0" NCoef="0" IVar="33" Cut="2.3697261810302734e+01" cType="0" res="-9.9000000000000000e+01" rms="0.0000000000000000e+00" purity="5.2107113599777222e-01" nType="0">
        <Node pos="l" depth="1" NCoef="0" IVar="30" Cut="1.4021704101562500e+02" cType="0" res="-9.9000000000000000e+01" rms="0.0000000000000000e+00" purity="5.3066617250442505e-01" nType="0">
          <Node pos="l" depth="2" NCoef="0" IVar="-1" Cut="0.0000000000000000e+00" cType="1" res="-9.9000000000000000e+01" rms="0.0000000000000000e+00" purity="5.6456762552261353e-01" nType="1"/>
          <Node pos="r" depth="2" NCoef="0" IVar="-1" Cut="0.0000000000000000e+00" cType="1" res="-9.9000000000000000e+01" rms="0.0000000000000000e+00" purity="4.7052317857742310e-01" nType="-1"/>
        </Node>
        <Node pos="r" depth="1" NCoef="0" IVar="-1" Cut="0.0000000000000000e+00" cType="1" res="-9.9000000000000000e+01" rms="0.0000000000000000e+00" purity="2.7362701296806335e-01" nType="-1"/>
      </Node>
    </BinaryTree>
    <BinaryTree type="DecisionTree" boostWeight="1.0548249368868305e-01" itree="33">
      <Node pos="s" depth="0" NCoef="0" IVar="49" Cut="1.0000000000000000e+01" cType="0" res="-9.9000000000000000e+01" rms="0.0000000000000000e+00" purity="5.1026332378387451e-01" nType="0">
        <Node pos="l" depth="1" NCoef="0" IVar="-1" Cut="0.0000000000000000e+00" cType="1" res="-9.9000000000000000e+01" rms="0.0000000000000000e+00" purity="6.5173995494842529e-01" nType="1"/>
        <Node pos="r" depth="1" NCoef="0" IVar="29" Cut="7.1960762023925781e+01" cType="0" res="-9.9000000000000000e+01" rms="0.0000000000000000e+00" purity="4.9505332112312317e-01" nType="0">
          <Node pos="l" depth="2" NCoef="0" IVar="-1" Cut="0.0000000000000000e+00" cType="1" res="-9.9000000000000000e+01" rms="0.0000000000000000e+00" purity="5.6202989816665649e-01" nType="1"/>
          <Node pos="r" depth="2" NCoef="0" IVar="-1" Cut="0.0000000000000000e+00" cType="1" res="-9.9000000000000000e+01" rms="0.0000000000000000e+00" purity="4.6665909886360168e-01" nType="-1"/>
        </Node>
      </Node>
    </BinaryTree>
    <BinaryTree type="DecisionTree" boostWeight="9.4673833428367701e-02" itree="34">
      <Node pos="s" depth="0" NCoef="0" IVar="52" Cut="2.0875090733170509e-02" cType="0" res="-9.9000000000000000e+01" rms="0.0000000000000000e+00" purity="5.0930768251419067e-01" nType="0">
        <Node pos="l" depth="1" NCoef="0" IVar="-1" Cut="1.3911213684082031e+02" cType="0" res="-9.9000000000000000e+01" rms="0.0000000000000000e+00" purity="5.3219938278198242e-01" nType="1"/>
        <Node pos="r" depth="1" NCoef="0" IVar="0" Cut="1.5218227539062500e+03" cType="0" res="-9.9000000000000000e+01" rms="0.0000000000000000e+00" purity="4.2395463585853577e-01" nType="0">
          <Node pos="l" depth="2" NCoef="0" IVar="-1" Cut="0.0000000000000000e+00" cType="1" res="-9.9000000000000000e+01" rms="0.0000000000000000e+00" purity="5.7228177785873413e-01" nType="1"/>
          <Node pos="r" depth="2" NCoef="0" IVar="-1" Cut="0.0000000000000000e+00" cType="1" res="-9.9000000000000000e+01" rms="0.0000000000000000e+00" purity="3.8978657126426697e-01" nType="-1"/>
        </Node>
      </Node>
    </BinaryTree>
    <BinaryTree type="DecisionTree" boostWeight="1.0725243508791497e-01" itree="35">
      <Node pos="s" depth="0" NCoef="0" IVar="24" Cut="1.8147143554687500e+02" cType="0" res="-9.9000000000000000e+01" rms="0.0000000000000000e+00" purity="5.0549757480621338e-01" nType="0">
        <Node pos="l" depth="1" NCoef="0" IVar="20" Cut="1.0095056915283203e+02" cType="0" res="-9.9000000000000000e+01" rms="0.0000000000000000e+00" purity="5.9940254688262939e-01" nType="0">
          <Node pos="l" depth="2" NCoef="0" IVar="-1" Cut="0.0000000000000000e+00" cType="1" res="-9.9000000000000000e+01" rms="0.0000000000000000e+00" purity="6.9489324092864990e-01" nType="1"/>
          <Node pos="r" depth="2" NCoef="0" IVar="-1" Cut="0.0000000000000000e+00" cType="1" res="-9.9000000000000000e+01" rms="0.0000000000000000e+00" purity="4.9433514475822449e-01" nType="-1"/>
        </Node>
        <Node pos="r" depth="1" NCoef="0" IVar="54" Cut="9.0054833889007568e-01" cType="0" res="-9.9000000000000000e+01" rms="0.0000000000000000e+00" purity="4.8256391286849976e-01" nType="0">
          <Node pos="l" depth="2" NCoef="0" IVar="-1" Cut="0.0000000000000000e+00" cType="1" res="-9.9000000000000000e+01" rms="0.0000000000000000e+00" purity="6.0175293684005737e-01" nType="1"/>
          <Node pos="r" depth="2" NCoef="0" IVar="-1" Cut="0.0000000000000000e+00" cType="1" res="-9.9000000000000000e+01" rms="0.0000000000000000e+00" purity="4.6704968810081482e-01" nType="-1"/>
        </Node>
      </Node>
    </BinaryTree>
    <BinaryTree type="DecisionTree" boostWeight="9.1527767455225228e-02" itree="36">
      <Node pos="s" depth="0" NCoef="0" IVar="33" Cut="4.8394523620605469e+01" cType="0" res="-9.9000000000000000e+01" rms="0.0000000000000000e+00" purity="5.1445788145065308e-01" nType="0">
        <Node pos="l" depth="1" NCoef="0" IVar="-1" Cut="1.8001588439941406e+02" cType="0" res="-9.9000000000000000e+01" rms="0.0000000000000000e+00" purity="5.3638887405395508e-01" nType="1"/>
        <Node pos="r" depth="1" NCoef="0" IVar="3" Cut="1.5954284667968750e+00" cType="0" res="-9.9000000000000000e+01" rms="0.0000000000000000e+00" purity="4.2846313118934631e-01" nType="0">
          <Node pos="l" depth="2" NCoef="0" IVar="-1" Cut="0.0000000000000000e+00" cType="1" res="-9.9000000000000000e+01" rms="0.0000000000000000e+00" purity="5.1229447126388550e-01" nType="1"/>
          <Node pos="r" depth="2" NCoef="0" IVar="-1" Cut="0.0000000000000000e+00" cType="1" res="-9.9000000000000000e+01" rms="0.0000000000000000e+00" purity="3.6741510033607483e-01" nType="-1"/>
        </Node>
      </Node>
    </BinaryTree>
    <BinaryTree type="DecisionTree" boostWeight="1.0024372735769865e-01" itree="37">
      <Node pos="s" depth="0" NCoef="0" IVar="48" Cut="4.2558953166007996e-01" cType="0" res="-9.9000000000000000e+01" rms="0.0000000000000000e+00" purity="5.0281739234924316e-01" nType="0">
        <Node pos="l" depth="1" NCoef="0" IVar="-1" Cut="0.0000000000000000e+00" cType="1" res="-9.9000000000000000e+01" rms="0.0000000000000000e+00" purity="6.3828080892562866e-01" nType="1"/>
        <Node pos="r" depth="1" NCoef="0" IVar="3" Cut="1.3569353818893433e+00" cType="0" res="-9.9000000000000000e+01" rms="0.0000000000000000e+00" purity="4.9032703042030334e-01" nType="0">
          <Node pos="l" depth="2" NCoef="0" IVar="-1" Cut="0.0000000000000000e+00" cType="1" res="-9.9000000000000000e+01" rms="0.0000000000000000e+00" purity="5.3277492523193359e-01" nType="1"/>
          <Node pos="r" depth="2" NCoef="0" IVar="-1" Cut="0.0000000000000000e+00" cType="1" res="-9.9000000000000000e+01" rms="0.0000000000000000e+00" purity="4.4949853420257568e-01" nType="-1"/>
        </Node>
      </Node>
    </BinaryTree>
    <BinaryTree type="DecisionTree" boostWeight="7.4018499631945858e-02" itree="38">
      <Node pos="s" depth="0" NCoef="0" IVar="47" Cut="8.5644596815109253e-01" cType="0" res="-9.9000000000000000e+01" rms="0.0000000000000000e+00" purity="5.0769698619842529e-01" nType="0">
        <Node pos="l" depth="1" NCoef="0" IVar="-1" Cut="0.0000000000000000e+00" cType="1" res="-9.9000000000000000e+01" rms="0.0000000000000000e+00" purity="6.5904968976974487e-01" nType="1"/>
        <Node pos="r" depth="1" NCoef="0" IVar="48" Cut="3.6396179348230362e-02" cType="0" res="-9.9000000000000000e+01" rms="0.0000000000000000e+00" purity="4.9605199694633484e-01" nType="0">
          <Node pos="l" depth="2" NCoef="0" IVar="-1" Cut="0.0000000000000000e+00" cType="1" res="-9.9000000000000000e+01" rms="0.0000000000000000e+00" purity="5.1353722810745239e-01" nType="1"/>
          <Node pos="r" depth="2" NCoef="0" IVar="-1" Cut="0.0000000000000000e+00" cType="1" res="-9.9000000000000000e+01" rms="0.0000000000000000e+00" purity="3.7732747197151184e-01" nType="-1"/>
        </Node>
      </Node>
    </BinaryTree>
    <BinaryTree type="DecisionTree" boostWeight="1.1233509965045689e-01" itree="39">
      <Node pos="s" depth="0" NCoef="0" IVar="24" Cut="1.6427058410644531e+02" cType="0" res="-9.9000000000000000e+01" rms="0.0000000000000000e+00" purity="5.0050914287567139e-01" nType="0">
        <Node pos="l" depth="1" NCoef="0" IVar="20" Cut="1.0898268127441406e+02" cType="0" res="-9.9000000000000000e+01" rms="0.0000000000000000e+00" purity="5.7609260082244873e-01" nType="0">
          <Node pos="l" depth="2" NCoef="0" IVar="-1" Cut="0.0000000000000000e+00" cType="1" res="-9.9000000000000000e+01" rms="0.0000000000000000e+00" purity="6.7490124702453613e-01" nType="1"/>
          <Node pos="r" depth="2" NCoef="0" IVar="-1" Cut="0.0000000000000000e+00" cType="1" res="-9.9000000000000000e+01" rms="0.0000000000000000e+00" purity="4.9105572700500488e-01" nType="-1"/>
        </Node>
        <Node pos="r" depth="1" NCoef="0" IVar="52" Cut="8.3500929176807404e-02" cType="0" res="-9.9000000000000000e+01" rms="0.0000000000000000e+00" purity="4.7650146484375000e-01" nType="0">
          <Node pos="l" depth="2" NCoef="0" IVar="-1" Cut="0.0000000000000000e+00" cType="1" res="-9.9000000000000000e+01" rms="0.0000000000000000e+00" purity="5.3883588314056396e-01" nType="1"/>
          <Node pos="r" depth="2" NCoef="0" IVar="-1" Cut="0.0000000000000000e+00" cType="1" res="-9.9000000000000000e+01" rms="0.0000000000000000e+00" purity="4.5031565427780151e-01" nType="-1"/>
        </Node>
      </Node>
    </BinaryTree>
    <BinaryTree type="DecisionTree" boostWeight="9.9267948551896801e-02" itree="40">
      <Node pos="s" depth="0" NCoef="0" IVar="47" Cut="7.1347743272781372e-01" cType="0" res="-9.9000000000000000e+01" rms="0.0000000000000000e+00" purity="5.0198841094970703e-01" nType="0">
        <Node pos="l" depth="1" NCoef="0" IVar="-1" Cut="1.4285714924335480e-01" cType="0" res="-9.9000000000000000e+01" rms="0.0000000000000000e+00" purity="5.9760236740112305e-01" nType="1"/>
        <Node pos="r" depth="1" NCoef="0" IVar="48" Cut="5.9834934771060944e-02" cType="0" res="-9.9000000000000000e+01" rms="0.0000000000000000e+00" purity="4.8634269833564758e-01" nType="0">
          <Node pos="l" depth="2" NCoef="0" IVar="-1" Cut="0.0000000000000000e+00" cType="1" res="-9.9000000000000000e+01" rms="0.0000000000000000e+00" purity="5.2021622657775879e-01" nType="1"/>
          <Node pos="r" depth="2" NCoef="0" IVar="-1" Cut="0.0000000000000000e+00" cType="1" res="-9.9000000000000000e+01" rms="0.0000000000000000e+00" purity="4.1059678792953491e-01" nType="-1"/>
        </Node>
      </Node>
    </BinaryTree>
    <BinaryTree type="DecisionTree" boostWeight="8.8059157389232576e-02" itree="41">
      <Node pos="s" depth="0" NCoef="0" IVar="55" Cut="4.1961869597434998e-01" cType="0" res="-9.9000000000000000e+01" rms="0.0000000000000000e+00" purity="4.9124348163604736e-01" nType="0">
        <Node pos="l" depth="1" NCoef="0" IVar="-1" Cut="0.0000000000000000e+00" cType="1" res="-9.9000000000000000e+01" rms="0.0000000000000000e+00" purity="6.3919734954833984e-01" nType="1"/>
        <Node pos="r" depth="1" NCoef="0" IVar="20" Cut="2.0694735717773438e+02" cType="0" res="-9.9000000000000000e+01" rms="0.0000000000000000e+00" purity="4.8153600096702576e-01" nType="0">
          <Node pos="l" depth="2" NCoef="0" IVar="-1" Cut="0.0000000000000000e+00" cType="1" res="-9.9000000000000000e+01" rms="0.0000000000000000e+00" purity="6.0016906261444092e-01" nType="1"/>
          <Node pos="r" depth="2" NCoef="0" IVar="-1" Cut="0.0000000000000000e+00" cType="1" res="-9.9000000000000000e+01" rms="0.0000000000000000e+00" purity="4.6896091103553772e-01" nType="-1"/>
        </Node>
      </Node>
    </BinaryTree>
    <BinaryTree type="DecisionTree" boostWeight="8.7510436939593206e-02" itree="42">
      <Node pos="s" depth="0" NCoef="0" IVar="60" Cut="3.1428570747375488e+00" cType="0" res="-9.9000000000000000e+01" rms="0.0000000000000000e+00" purity="5.0130885839462280e-01" nType="0">
        <Node pos="l" depth="1" NCoef="0" IVar="-1" Cut="5.7474285364151001e-01" cType="0" res="-9.9000000000000000e+01" rms="0.0000000000000000e+00" purity="6.0522359609603882e-01" nType="1"/>
        <Node pos="r" depth="1" NCoef="0" IVar="58" Cut="1.9047619402408600e-01" cType="0" res="-9.9000000000000000e+01" rms="0.0000000000000000e+00" purity="4.8620849847793579e-01" nType="0">
          <Node pos="l" depth="2" NCoef="0" IVar="-1" Cut="0.0000000000000000e+00" cType="1" res="-9.9000000000000000e+01" rms="0.0000000000000000e+00" purity="5.7164222002029419e-01" nType="1"/>
          <Node pos="r" depth="2" NCoef="0" IVar="-1" Cut="0.0000000000000000e+00" cType="1" res="-9.9000000000000000e+01" rms="0.0000000000000000e+00" purity="4.7161546349525452e-01" nType="-1"/>
        </Node>
      </Node>
    </BinaryTree>
    <BinaryTree type="DecisionTree" boostWeight="1.1325529837298592e-01" itree="43">
      <Node pos="s" depth="0" NCoef="0" IVar="20" Cut="1.1242636871337891e+02" cType="0" res="-9.9000000000000000e+01" rms="0.0000000000000000e+00" purity="5.1240706443786621e-01" nType="0">
        <Node pos="l" depth="1" NCoef="0" IVar="24" Cut="1.0439553833007812e+02" cType="0" res="-9.9000000000000000e+01" rms="0.0000000000000000e+00" purity="5.4959386587142944e-01" nType="0">
          <Node pos="l" depth="2" NCoef="0" IVar="-1" Cut="0.0000000000000000e+00" cType="1" res="-9.9000000000000000e+01" rms="0.0000000000000000e+00" purity="6.0918396711349487e-01" nType="1"/>
          <Node pos="r" depth="2" NCoef="0" IVar="-1" Cut="0.0000000000000000e+00" cType="1" res="-9.9000000000000000e+01" rms="0.0000000000000000e+00" purity="4.8453423380851746e-01" nType="-1"/>
        </Node>
        <Node pos="r" depth="1" NCoef="0" IVar="31" Cut="1.3855632019042969e+02" cType="0" res="-9.9000000000000000e+01" rms="0.0000000000000000e+00" purity="4.7729536890983582e-01" nType="0">
          <Node pos="l" depth="2" NCoef="0" IVar="-1" Cut="0.0000000000000000e+00" cType="1" res="-9.9000000000000000e+01" rms="0.0000000000000000e+00" purity="5.5491936206817627e-01" nType="1"/>
          <Node pos="r" depth="2" NCoef="0" IVar="-1" Cut="0.0000000000000000e+00" cType="1" res="-9.9000000000000000e+01" rms="0.0000000000000000e+00" purity="4.5305985212326050e-01" nType="-1"/>
        </Node>
      </Node>
    </BinaryTree>
    <BinaryTree type="DecisionTree" boostWeight="6.0803597961275178e-02" itree="44">
      <Node pos="s" depth="0" NCoef="0" IVar="53" Cut="6.1865061521530151e-01" cType="0" res="-9.9000000000000000e+01" rms="0.0000000000000000e+00" purity="5.0837427377700806e-01" nType="0">
        <Node pos="l" depth="1" NCoef="0" IVar="-1" Cut="1.7668838500976562e+02" cType="0" res="-9.9000000000000000e+01" rms="0.0000000000000000e+00" purity="5.2223759889602661e-01" nType="1"/>
        <Node pos="r" depth="1" NCoef="0" IVar="-1" Cut="1.5505179166793823e+00" cType="0" res="-9.9000000000000000e+01" rms="0.0000000000000000e+00" purity="4.1475543379783630e-01" nType="-1"/>
      </Node>
    </BinaryTree>
    <BinaryTree type="DecisionTree" boostWeight="7.4817364235038389e-02" itree="45">
      <Node pos="s" depth="0" NCoef="0" IVar="16" Cut="5.8139392089843750e+02" cType="1" res="-9.9000000000000000e+01" rms="0.0000000000000000e+00" purity="5.1331382989883423e-01" nType="0">
        <Node pos="l" depth="1" NCoef="0" IVar="-1" Cut="1.5725898742675781e+02" cType="0" res="-9.9000000000000000e+01" rms="0.0000000000000000e+00" purity="5.3120779991149902e-01" nType="1"/>
        <Node pos="r" depth="1" NCoef="0" IVar="-1" Cut="1.2220599365234375e+03" cType="0" res="-9.9000000000000000e+01" rms="0.0000000000000000e+00" purity="4.3625843524932861e-01" nType="-1"/>
      </Node>
    </BinaryTree>
    <BinaryTree type="DecisionTree" boostWeight="5.8681313132755972e-02" itree="46">
      <Node pos="s" depth="0" NCoef="0" IVar="24" Cut="1.8147138977050781e+02" cType="0" res="-9.9000000000000000e+01" rms="0.0000000000000000e+00" purity="5.0050252676010132e-01" nType="0">
        <Node pos="l" depth="1" NCoef="0" IVar="-1" Cut="1.5014859008789062e+02" cType="0" res="-9.9000000000000000e+01" rms="0.0000000000000000e+00" purity="5.7818943262100220e-01" nType="1"/>
        <Node pos="r" depth="1" NCoef="0" IVar="-1" Cut="1.4249396324157715e-01" cType="0" res="-9.9000000000000000e+01" rms="0.0000000000000000e+00" purity="4.8220574855804443e-01" nType="-1"/>
      </Node>
    </BinaryTree>
    <BinaryTree type="DecisionTree" boostWeight="1.0945728599964898e-01" itree="47">
      <Node pos="s" depth="0" NCoef="0" IVar="20" Cut="1.4190045166015625e+02" cType="0" res="-9.9000000000000000e+01" rms="0.0000000000000000e+00" purity="4.9698290228843689e-01" nType="0">
        <Node pos="l" depth="1" NCoef="0" IVar="24" Cut="1.2073641967773438e+02" cType="0" res="-9.9000000000000000e+01" rms="0.0000000000000000e+00" purity="5.5683678388595581e-01" nType="0">
          <Node pos="l" depth="2" NCoef="0" IVar="-1" Cut="0.0000000000000000e+00" cType="1" res="-9.9000000000000000e+01" rms="0.0000000000000000e+00" purity="6.3812166452407837e-01" nType="1"/>
          <Node pos="r" depth="2" NCoef="0" IVar="-1" Cut="0.0000000000000000e+00" cType="1" res="-9.9000000000000000e+01" rms="0.0000000000000000e+00" purity="4.8257002234458923e-01" nType="-1"/>
        </Node>
        <Node pos="r" depth="1" NCoef="0" IVar="49" Cut="1.0000000000000000e+01" cType="0" res="-9.9000000000000000e+01" rms="0.0000000000000000e+00" purity="4.7261682152748108e-01" nType="0">
          <Node pos="l" depth="2" NCoef="0" IVar="-1" Cut="0.0000000000000000e+00" cType="1" res="-9.9000000000000000e+01" rms="0.0000000000000000e+00" purity="5.9537625312805176e-01" nType="1"/>
          <Node pos="r" depth="2" NCoef="0" IVar="-1" Cut="0.0000000000000000e+00" cType="1" res="-9.9000000000000000e+01" rms="0.0000000000000000e+00" purity="4.5922258496284485e-01" nType="-1"/>
        </Node>
      </Node>
    </BinaryTree>
    <BinaryTree type="DecisionTree" boostWeight="5.0136563086238359e-02" itree="48">
      <Node pos="s" depth="0" NCoef="0" IVar="47" Cut="8.5633772611618042e-01" cType="0" res="-9.9000000000000000e+01" rms="0.0000000000000000e+00" purity="5.1347428560256958e-01" nType="0">
        <Node pos="l" depth="1" NCoef="0" IVar="-1" Cut="0.0000000000000000e+00" cType="1" res="-9.9000000000000000e+01" rms="0.0000000000000000e+00" purity="6.4306026697158813e-01" nType="1"/>
        <Node pos="r" depth="1" NCoef="0" IVar="33" Cut="2.0138944625854492e+01" cType="0" res="-9.9000000000000000e+01" rms="0.0000000000000000e+00" purity="5.0394147634506226e-01" nType="0">
          <Node pos="l" depth="2" NCoef="0" IVar="-1" Cut="0.0000000000000000e+00" cType="1" res="-9.9000000000000000e+01" rms="0.0000000000000000e+00" purity="5.1056468486785889e-01" nType="1"/>
          <Node pos="r" depth="2" NCoef="0" IVar="-1" Cut="0.0000000000000000e+00" cType="1" res="-9.9000000000000000e+01" rms="0.0000000000000000e+00" purity="3.4032472968101501e-01" nType="-1"/>
        </Node>
      </Node>
    </BinaryTree>
    <BinaryTree type="DecisionTree" boostWeight="8.7854386860191300e-02" itree="49">
      <Node pos="s" depth="0" NCoef="0" IVar="5" Cut="5.3607326745986938e-01" cType="0" res="-9.9000000000000000e+01" rms="0.0000000000000000e+00" purity="5.1881337165832520e-01" nType="0">
        <Node pos="l" depth="1" NCoef="0" IVar="-1" Cut="1.5457112121582031e+02" cType="0" res="-9.9000000000000000e+01" rms="0.0000000000000000e+00" purity="5.4181772470474243e-01" nType="1"/>
        <Node pos="r" depth="1" NCoef="0" IVar="20" Cut="1.2549491119384766e+02" cType="0" res="-9.9000000000000000e+01" rms="0.0000000000000000e+00" purity="4.7035232186317444e-01" nType="0">
          <Node pos="l" depth="2" NCoef="0" IVar="-1" Cut="0.0000000000000000e+00" cType="1" res="-9.9000000000000000e+01" rms="0.0000000000000000e+00" purity="5.2332538366317749e-01" nType="1"/>
          <Node pos="r" depth="2" NCoef="0" IVar="-1" Cut="0.0000000000000000e+00" cType="1" res="-9.9000000000000000e+01" rms="0.0000000000000000e+00" purity="4.3593290448188782e-01" nType="-1"/>
        </Node>
      </Node>
    </BinaryTree>
    <BinaryTree type="DecisionTree" boostWeight="7.2391539637589999e-02" itree="50">
      <Node pos="s" depth="0" NCoef="0" IVar="48" Cut="4.2560169100761414e-01" cType="0" res="-9.9000000000000000e+01" rms="0.0000000000000000e+00" purity="4.9832925200462341e-01" nType="0">
        <Node pos="l" depth="1" NCoef="0" IVar="-1" Cut="0.0000000000000000e+00" cType="1" res="-9.9000000000000000e+01" rms="0.0000000000000000e+00" purity="6.0656481981277466e-01" nType="1"/>
        <Node pos="r" depth="1" NCoef="0" IVar="29" Cut="1.0794114685058594e+02" cType="0" res="-9.9000000000000000e+01" rms="0.0000000000000000e+00" purity="4.8846706748008728e-01" nType="0">
          <Node pos="l" depth="2" NCoef="0" IVar="-1" Cut="0.0000000000000000e+00" cType="1" res="-9.9000000000000000e+01" rms="0.0000000000000000e+00" purity="5.7509911060333252e-01" nType="1"/>
          <Node pos="r" depth="2" NCoef="0" IVar="-1" Cut="0.0000000000000000e+00" cType="1" res="-9.9000000000000000e+01" rms="0.0000000000000000e+00" purity="4.7653555870056152e-01" nType="-1"/>
        </Node>
      </Node>
    </BinaryTree>
    <BinaryTree type="DecisionTree" boostWeight="7.3202269484533636e-02" itree="51">
      <Node pos="s" depth="0" NCoef="0" IVar="47" Cut="8.5634762048721313e-01" cType="0" res="-9.9000000000000000e+01" rms="0.0000000000000000e+00" purity="5.0647461414337158e-01" nType="0">
        <Node pos="l" depth="1" NCoef="0" IVar="-1" Cut="0.0000000000000000e+00" cType="1" res="-9.9000000000000000e+01" rms="0.0000000000000000e+00" purity="6.2676382064819336e-01" nType="1"/>
        <Node pos="r" depth="1" NCoef="0" IVar="29" Cut="2.9758893966674805e+01" cType="0" res="-9.9000000000000000e+01" rms="0.0000000000000000e+00" purity="4.9746894836425781e-01" nType="0">
          <Node pos="l" depth="2" NCoef="0" IVar="-1" Cut="0.0000000000000000e+00" cType="1" res="-9.9000000000000000e+01" rms="0.0000000000000000e+00" purity="5.2140587568283081e-01" nType="1"/>
          <Node pos="r" depth="2" NCoef="0" IVar="-1" Cut="0.0000000000000000e+00" cType="1" res="-9.9000000000000000e+01" rms="0.0000000000000000e+00" purity="4.5555430650711060e-01" nType="-1"/>
        </Node>
      </Node>
    </BinaryTree>
    <BinaryTree type="DecisionTree" boostWeight="2.8663645960976238e-02" itree="52">
      <Node pos="s" depth="0" NCoef="0" IVar="55" Cut="4.1487580537796021e-01" cType="0" res="-9.9000000000000000e+01" rms="0.0000000000000000e+00" purity="5.0282752513885498e-01" nType="0">
        <Node pos="l" depth="1" NCoef="0" IVar="-1" Cut="0.0000000000000000e+00" cType="1" res="-9.9000000000000000e+01" rms="0.0000000000000000e+00" purity="6.3012218475341797e-01" nType="1"/>
        <Node pos="r" depth="1" NCoef="0" IVar="33" Cut="2.0138944625854492e+01" cType="0" res="-9.9000000000000000e+01" rms="0.0000000000000000e+00" purity="4.9427384138107300e-01" nType="0">
          <Node pos="l" depth="2" NCoef="0" IVar="-1" Cut="0.0000000000000000e+00" cType="1" res="-9.9000000000000000e+01" rms="0.0000000000000000e+00" purity="5.0042688846588135e-01" nType="1"/>
          <Node pos="r" depth="2" NCoef="0" IVar="-1" Cut="0.0000000000000000e+00" cType="1" res="-9.9000000000000000e+01" rms="0.0000000000000000e+00" purity="3.4090346097946167e-01" nType="-1"/>
        </Node>
      </Node>
    </BinaryTree>
    <BinaryTree type="DecisionTree" boostWeight="6.8321649562125733e-02" itree="53">
      <Node pos="s" depth="0" NCoef="0" IVar="55" Cut="4.1961869597434998e-01" cType="0" res="-9.9000000000000000e+01" rms="0.0000000000000000e+00" purity="4.9538868665695190e-01" nType="0">
        <Node pos="l" depth="1" NCoef="0" IVar="-1" Cut="0.0000000000000000e+00" cType="1" res="-9.9000000000000000e+01" rms="0.0000000000000000e+00" purity="6.2884664535522461e-01" nType="1"/>
        <Node pos="r" depth="1" NCoef="0" IVar="22" Cut="9.0765289306640625e+02" cType="0" res="-9.9000000000000000e+01" rms="0.0000000000000000e+00" purity="4.8643448948860168e-01" nType="0">
          <Node pos="l" depth="2" NCoef="0" IVar="-1" Cut="0.0000000000000000e+00" cType="1" res="-9.9000000000000000e+01" rms="0.0000000000000000e+00" purity="5.9282493591308594e-01" nType="1"/>
          <Node pos="r" depth="2" NCoef="0" IVar="-1" Cut="0.0000000000000000e+00" cType="1" res="-9.9000000000000000e+01" rms="0.0000000000000000e+00" purity="4.7763240337371826e-01" nType="-1"/>
        </Node>
      </Node>
    </BinaryTree>
    <BinaryTree type="DecisionTree" boostWeight="8.4732684657693597e-02" itree="54">
      <Node pos="s" depth="0" NCoef="0" IVar="16" Cut="5.8139392089843750e+02" cType="1" res="-9.9000000000000000e+01" rms="0.0000000000000000e+00" purity="5.0912445783615112e-01" nType="0">
        <Node pos="l" depth="1" NCoef="0" IVar="33" Cut="1.3347908973693848e+01" cType="0" res="-9.9000000000000000e+01" rms="0.0000000000000000e+00" purity="5.2542698383331299e-01" nType="0">
          <Node pos="l" depth="2" NCoef="0" IVar="-1" Cut="0.0000000000000000e+00" cType="1" res="-9.9000000000000000e+01" rms="0.0000000000000000e+00" purity="5.3145319223403931e-01" nType="1"/>
          <Node pos="r" depth="2" NCoef="0" IVar="-1" Cut="0.0000000000000000e+00" cType="1" res="-9.9000000000000000e+01" rms="0.0000000000000000e+00" purity="3.5743814706802368e-01" nType="-1"/>
        </Node>
        <Node pos="r" depth="1" NCoef="0" IVar="21" Cut="1.3837911376953125e+03" cType="0" res="-9.9000000000000000e+01" rms="0.0000000000000000e+00" purity="4.3844190239906311e-01" nType="0">
          <Node pos="l" depth="2" NCoef="0" IVar="-1" Cut="0.0000000000000000e+00" cType="1" res="-9.9000000000000000e+01" rms="0.0000000000000000e+00" purity="5.2175217866897583e-01" nType="1"/>
          <Node pos="r" depth="2" NCoef="0" IVar="-1" Cut="0.0000000000000000e+00" cType="1" res="-9.9000000000000000e+01" rms="0.0000000000000000e+00" purity="4.1058227419853210e-01" nType="-1"/>
        </Node>
      </Node>
    </BinaryTree>
    <BinaryTree type="DecisionTree" boostWeight="7.0064585918954134e-02" itree="55">
      <Node pos="s" depth="0" NCoef="0" IVar="37" Cut="1.7224012756347656e+02" cType="0" res="-9.9000000000000000e+01" rms="0.0000000000000000e+00" purity="4.9877369403839111e-01" nType="0">
        <Node pos="l" depth="1" NCoef="0" IVar="-1" Cut="1.6050506591796875e+02" cType="0" res="-9.9000000000000000e+01" rms="0.0000000000000000e+00" purity="5.2237784862518311e-01" nType="1"/>
        <Node pos="r" depth="1" NCoef="0" IVar="20" Cut="1.4190040588378906e+02" cType="0" res="-9.9000000000000000e+01" rms="0.0000000000000000e+00" purity="4.5376238226890564e-01" nType="0">
          <Node pos="l" depth="2" NCoef="0" IVar="-1" Cut="0.0000000000000000e+00" cType="1" res="-9.9000000000000000e+01" rms="0.0000000000000000e+00" purity="5.2376651763916016e-01" nType="1"/>
          <Node pos="r" depth="2" NCoef="0" IVar="-1" Cut="0.0000000000000000e+00" cType="1" res="-9.9000000000000000e+01" rms="0.0000000000000000e+00" purity="4.2807567119598389e-01" nType="-1"/>
        </Node>
      </Node>
    </BinaryTree>
    <BinaryTree type="DecisionTree" boostWeight="4.5247594436906194e-02" itree="56">
      <Node pos="s" depth="0" NCoef="0" IVar="54" Cut="9.0054833889007568e-01" cType="0" res="-9.9000000000000000e+01" rms="0.0000000000000000e+00" purity="4.9373826384544373e-01" nType="0">
        <Node pos="l" depth="1" NCoef="0" IVar="0" Cut="9.7044256591796875e+02" cType="0" res="-9.9000000000000000e+01" rms="0.0000000000000000e+00" purity="5.7362323999404907e-01" nType="0">
          <Node pos="l" depth="2" NCoef="0" IVar="-1" Cut="0.0000000000000000e+00" cType="1" res="-9.9000000000000000e+01" rms="0.0000000000000000e+00" purity="6.2272250652313232e-01" nType="1"/>
          <Node pos="r" depth="2" NCoef="0" IVar="-1" Cut="0.0000000000000000e+00" cType="1" res="-9.9000000000000000e+01" rms="0.0000000000000000e+00" purity="4.9739128351211548e-01" nType="-1"/>
        </Node>
        <Node pos="r" depth="1" NCoef="0" IVar="-1" Cut="4.7476958483457565e-02" cType="0" res="-9.9000000000000000e+01" rms="0.0000000000000000e+00" purity="4.8391568660736084e-01" nType="-1"/>
      </Node>
    </BinaryTree>
    <BinaryTree type="DecisionTree" boostWeight="6.8180714161475975e-02" itree="57">
      <Node pos="s" depth="0" NCoef="0" IVar="33" Cut="2.3697261810302734e+01" cType="0" res="-9.9000000000000000e+01" rms="0.0000000000000000e+00" purity="5.0083619356155396e-01" nType="0">
        <Node pos="l" depth="1" NCoef="0" IVar="51" Cut="2.2713325917720795e-01" cType="0" res="-9.9000000000000000e+01" rms="0.0000000000000000e+00" purity="5.0755268335342407e-01" nType="0">
          <Node pos="l" depth="2" NCoef="0" IVar="-1" Cut="0.0000000000000000e+00" cType="1" res="-9.9000000000000000e+01" rms="0.0000000000000000e+00" purity="5.2772170305252075e-01" nType="1"/>
          <Node pos="r" depth="2" NCoef="0" IVar="-1" Cut="0.0000000000000000e+00" cType="1" res="-9.9000000000000000e+01" rms="0.0000000000000000e+00" purity="4.7004649043083191e-01" nType="-1"/>
        </Node>
        <Node pos="r" depth="1" NCoef="0" IVar="-1" Cut="0.0000000000000000e+00" cType="1" res="-9.9000000000000000e+01" rms="0.0000000000000000e+00" purity="3.0251181125640869e-01" nType="-1"/>
      </Node>
    </BinaryTree>
    <BinaryTree type="DecisionTree" boostWeight="3.6557893712332694e-02" itree="58">
      <Node pos="s" depth="0" NCoef="0" IVar="29" Cut="1.4392152404785156e+02" cType="0" res="-9.9000000000000000e+01" rms="0.0000000000000000e+00" purity="4.9425289034843445e-01" nType="0">
        <Node pos="l" depth="1" NCoef="0" IVar="-1" Cut="0.0000000000000000e+00" cType="1" res="-9.9000000000000000e+01" rms="0.0000000000000000e+00" purity="6.3029658794403076e-01" nType="1"/>
        <Node pos="r" depth="1" NCoef="0" IVar="-1" Cut="3.4990207672119141e+01" cType="0" res="-9.9000000000000000e+01" rms="0.0000000000000000e+00" purity="4.8738476634025574e-01" nType="-1"/>
      </Node>
    </BinaryTree>
    <BinaryTree type="DecisionTree" boostWeight="4.8381213831712802e-02" itree="59">
      <Node pos="s" depth="0" NCoef="0" IVar="53" Cut="1.4258916676044464e-01" cType="0" res="-9.9000000000000000e+01" rms="0.0000000000000000e+00" purity="4.9936890602111816e-01" nType="0">
        <Node pos="l" depth="1" NCoef="0" IVar="43" Cut="4.5357369995117188e+02" cType="0" res="-9.9000000000000000e+01" rms="0.0000000000000000e+00" purity="5.0726473331451416e-01" nType="0">
          <Node pos="l" depth="2" NCoef="0" IVar="-1" Cut="0.0000000000000000e+00" cType="1" res="-9.9000000000000000e+01" rms="0.0000000000000000e+00" purity="5.7608234882354736e-01" nType="1"/>
          <Node pos="r" depth="2" NCoef="0" IVar="-1" Cut="0.0000000000000000e+00" cType="1" res="-9.9000000000000000e+01" rms="0.0000000000000000e+00" purity="4.9374285340309143e-01" nType="-1"/>
        </Node>
        <Node pos="r" depth="1" NCoef="0" IVar="-1" Cut="1.1558482646942139e+00" cType="0" res="-9.9000000000000000e+01" rms="0.0000000000000000e+00" purity="3.7100875377655029e-01" nType="-1"/>
      </Node>
    </BinaryTree>
    <BinaryTree type="DecisionTree" boostWeight="7.4734085541824702e-02" itree="60">
      <Node pos="s" depth="0" NCoef="0" IVar="20" Cut="1.0898262786865234e+02" cType="0" res="-9.9000000000000000e+01" rms="0.0000000000000000e+00" purity="5.0145751237869263e-01" nType="0">
        <Node pos="l" depth="1" NCoef="0" IVar="-1" Cut="1.5725898742675781e+02" cType="0" res="-9.9000000000000000e+01" rms="0.0000000000000000e+00" purity="5.3001284599304199e-01" nType="1"/>
        <Node pos="r" depth="1" NCoef="0" IVar="43" Cut="4.9411184692382812e+02" cType="0" res="-9.9000000000000000e+01" rms="0.0000000000000000e+00" purity="4.7123122215270996e-01" nType="0">
          <Node pos="l" depth="2" NCoef="0" IVar="-1" Cut="0.0000000000000000e+00" cType="1" res="-9.9000000000000000e+01" rms="0.0000000000000000e+00" purity="5.5963426828384399e-01" nType="1"/>
          <Node pos="r" depth="2" NCoef="0" IVar="-1" Cut="0.0000000000000000e+00" cType="1" res="-9.9000000000000000e+01" rms="0.0000000000000000e+00" purity="4.5729660987854004e-01" nType="-1"/>
        </Node>
      </Node>
    </BinaryTree>
    <BinaryTree type="DecisionTree" boostWeight="5.6832475571933390e-02" itree="61">
      <Node pos="s" depth="0" NCoef="0" IVar="58" Cut="1.9047619402408600e-01" cType="0" res="-9.9000000000000000e+01" rms="0.0000000000000000e+00" purity="5.0279885530471802e-01" nType="0">
        <Node pos="l" depth="1" NCoef="0" IVar="-1" Cut="7.5118688964843750e+02" cType="0" res="-9.9000000000000000e+01" rms="0.0000000000000000e+00" purity="5.7518261671066284e-01" nType="1"/>
        <Node pos="r" depth="1" NCoef="0" IVar="16" Cut="5.4066937255859375e+02" cType="1" res="-9.9000000000000000e+01" rms="0.0000000000000000e+00" purity="4.8968657851219177e-01" nType="0">
          <Node pos="l" depth="2" NCoef="0" IVar="-1" Cut="0.0000000000000000e+00" cType="1" res="-9.9000000000000000e+01" rms="0.0000000000000000e+00" purity="5.0606507062911987e-01" nType="1"/>
          <Node pos="r" depth="2" NCoef="0" IVar="-1" Cut="0.0000000000000000e+00" cType="1" res="-9.9000000000000000e+01" rms="0.0000000000000000e+00" purity="4.2769351601600647e-01" nType="-1"/>
        </Node>
      </Node>
    </BinaryTree>
    <BinaryTree type="DecisionTree" boostWeight="5.0154634772445625e-02" itree="62">
      <Node pos="s" depth="0" NCoef="0" IVar="33" Cut="3.6108882904052734e+01" cType="0" res="-9.9000000000000000e+01" rms="0.0000000000000000e+00" purity="5.0823515653610229e-01" nType="0">
        <Node pos="l" depth="1" NCoef="0" IVar="-1" Cut="7.6382035017013550e-01" cType="0" res="-9.9000000000000000e+01" rms="0.0000000000000000e+00" purity="5.1689708232879639e-01" nType="1"/>
        <Node pos="r" depth="1" NCoef="0" IVar="44" Cut="1.1416242122650146e+00" cType="0" res="-9.9000000000000000e+01" rms="0.0000000000000000e+00" purity="3.9169195294380188e-01" nType="0">
          <Node pos="l" depth="2" NCoef="0" IVar="-1" Cut="0.0000000000000000e+00" cType="1" res="-9.9000000000000000e+01" rms="0.0000000000000000e+00" purity="5.3539168834686279e-01" nType="1"/>
          <Node pos="r" depth="2" NCoef="0" IVar="-1" Cut="0.0000000000000000e+00" cType="1" res="-9.9000000000000000e+01" rms="0.0000000000000000e+00" purity="3.0555739998817444e-01" nType="-1"/>
        </Node>
      </Node>
    </BinaryTree>
    <BinaryTree type="DecisionTree" boostWeight="6.6073515149975753e-02" itree="63">
      <Node pos="s" depth="0" NCoef="0" IVar="47" Cut="8.5644596815109253e-01" cType="0" res="-9.9000000000000000e+01" rms="0.0000000000000000e+00" purity="4.9433946609497070e-01" nType="0">
        <Node pos="l" depth="1" NCoef="0" IVar="-1" Cut="0.0000000000000000e+00" cType="1" res="-9.9000000000000000e+01" rms="0.0000000000000000e+00" purity="5.9494727849960327e-01" nType="1"/>
        <Node pos="r" depth="1" NCoef="0" IVar="3" Cut="1.3744745254516602e+00" cType="0" res="-9.9000000000000000e+01" rms="0.0000000000000000e+00" purity="4.8689106106758118e-01" nType="0">
          <Node pos="l" depth="2" NCoef="0" IVar="-1" Cut="0.0000000000000000e+00" cType="1" res="-9.9000000000000000e+01" rms="0.0000000000000000e+00" purity="5.1580464839935303e-01" nType="1"/>
          <Node pos="r" depth="2" NCoef="0" IVar="-1" Cut="0.0000000000000000e+00" cType="1" res="-9.9000000000000000e+01" rms="0.0000000000000000e+00" purity="4.5979157090187073e-01" nType="-1"/>
        </Node>
      </Node>
    </BinaryTree>
    <BinaryTree type="DecisionTree" boostWeight="7.4732939236749271e-02" itree="64">
      <Node pos="s" depth="0" NCoef="0" IVar="24" Cut="1.7668867492675781e+02" cType="0" res="-9.9000000000000000e+01" rms="0.0000000000000000e+00" purity="4.9787750840187073e-01" nType="0">
        <Node pos="l" depth="1" NCoef="0" IVar="-1" Cut="1.1242640686035156e+02" cType="0" res="-9.9000000000000000e+01" rms="0.0000000000000000e+00" purity="5.6230932474136353e-01" nType="1"/>
        <Node pos="r" depth="1" NCoef="0" IVar="47" Cut="7.1352082490921021e-01" cType="0" res="-9.9000000000000000e+01" rms="0.0000000000000000e+00" purity="4.8175233602523804e-01" nType="0">
          <Node pos="l" depth="2" NCoef="0" IVar="-1" Cut="0.0000000000000000e+00" cType="1" res="-9.9000000000000000e+01" rms="0.0000000000000000e+00" purity="5.4488921165466309e-01" nType="1"/>
          <Node pos="r" depth="2" NCoef="0" IVar="-1" Cut="0.0000000000000000e+00" cType="1" res="-9.9000000000000000e+01" rms="0.0000000000000000e+00" purity="4.7126379609107971e-01" nType="-1"/>
        </Node>
      </Node>
    </BinaryTree>
    <BinaryTree type="DecisionTree" boostWeight="3.7455565804832683e-02" itree="65">
      <Node pos="s" depth="0" NCoef="0" IVar="55" Cut="4.1908425092697144e-01" cType="0" res="-9.9000000000000000e+01" rms="0.0000000000000000e+00" purity="4.9518036842346191e-01" nType="0">
        <Node pos="l" depth="1" NCoef="0" IVar="-1" Cut="0.0000000000000000e+00" cType="1" res="-9.9000000000000000e+01" rms="0.0000000000000000e+00" purity="6.0817146301269531e-01" nType="1"/>
        <Node pos="r" depth="1" NCoef="0" IVar="-1" Cut="2.0138944625854492e+01" cType="0" res="-9.9000000000000000e+01" rms="0.0000000000000000e+00" purity="4.8742261528968811e-01" nType="-1"/>
      </Node>
    </BinaryTree>
    <BinaryTree type="DecisionTree" boostWeight="4.2875974106964095e-02" itree="66">
      <Node pos="s" depth="0" NCoef="0" IVar="59" Cut="1.4285714924335480e-01" cType="0" res="-9.9000000000000000e+01" rms="0.0000000000000000e+00" purity="5.0084078311920166e-01" nType="0">
        <Node pos="l" depth="1" NCoef="0" IVar="-1" Cut="1.2728040218353271e+00" cType="0" res="-9.9000000000000000e+01" rms="0.0000000000000000e+00" purity="5.3974449634552002e-01" nType="1"/>
        <Node pos="r" depth="1" NCoef="0" IVar="-1" Cut="1.4257690310478210e-01" cType="0" res="-9.9000000000000000e+01" rms="0.0000000000000000e+00" purity="4.8570331931114197e-01" nType="-1"/>
      </Node>
    </BinaryTree>
    <BinaryTree type="DecisionTree" boostWeight="7.2204574273081287e-02" itree="67">
      <Node pos="s" depth="0" NCoef="0" IVar="5" Cut="7.6281714439392090e-01" cType="0" res="-9.9000000000000000e+01" rms="0.0000000000000000e+00" purity="5.1052552461624146e-01" nType="0">
        <Node pos="l" depth="1" NCoef="0" IVar="16" Cut="1.9017694091796875e+02" cType="0" res="-9.9000000000000000e+01" rms="0.0000000000000000e+00" purity="5.7166725397109985e-01" nType="0">
          <Node pos="l" depth="2" NCoef="0" IVar="-1" Cut="0.0000000000000000e+00" cType="1" res="-9.9000000000000000e+01" rms="0.0000000000000000e+00" purity="5.9909331798553467e-01" nType="1"/>
          <Node pos="r" depth="2" NCoef="0" IVar="-1" Cut="0.0000000000000000e+00" cType="1" res="-9.9000000000000000e+01" rms="0.0000000000000000e+00" purity="4.6895197033882141e-01" nType="-1"/>
        </Node>
        <Node pos="r" depth="1" NCoef="0" IVar="10" Cut="2.3457142710685730e-01" cType="0" res="-9.9000000000000000e+01" rms="0.0000000000000000e+00" purity="4.9890154600143433e-01" nType="0">
          <Node pos="l" depth="2" NCoef="0" IVar="-1" Cut="0.0000000000000000e+00" cType="1" res="-9.9000000000000000e+01" rms="0.0000000000000000e+00" purity="5.3661644458770752e-01" nType="1"/>
          <Node pos="r" depth="2" NCoef="0" IVar="-1" Cut="0.0000000000000000e+00" cType="1" res="-9.9000000000000000e+01" rms="0.0000000000000000e+00" purity="4.7853431105613708e-01" nType="-1"/>
        </Node>
      </Node>
    </BinaryTree>
    <BinaryTree type="DecisionTree" boostWeight="5.2979387716115191e-02" itree="68">
      <Node pos="s" depth="0" NCoef="0" IVar="5" Cut="6.8803077936172485e-01" cType="0" res="-9.9000000000000000e+01" rms="0.0000000000000000e+00" purity="5.0704991817474365e-01" nType="0">
        <Node pos="l" depth="1" NCoef="0" IVar="49" Cut="6.0000000000000000e+00" cType="0" res="-9.9000000000000000e+01" rms="0.0000000000000000e+00" purity="5.4959970712661743e-01" nType="0">
          <Node pos="l" depth="2" NCoef="0" IVar="-1" Cut="0.0000000000000000e+00" cType="1" res="-9.9000000000000000e+01" rms="0.0000000000000000e+00" purity="5.6700825691223145e-01" nType="1"/>
          <Node pos="r" depth="2" NCoef="0" IVar="-1" Cut="0.0000000000000000e+00" cType="1" res="-9.9000000000000000e+01" rms="0.0000000000000000e+00" purity="4.6487271785736084e-01" nType="-1"/>
        </Node>
        <Node pos="r" depth="1" NCoef="0" IVar="-1" Cut="5.2353757619857788e-01" cType="0" res="-9.9000000000000000e+01" rms="0.0000000000000000e+00" purity="4.8868697881698608e-01" nType="-1"/>
      </Node>
    </BinaryTree>
    <BinaryTree type="DecisionTree" boostWeight="6.1543659469640279e-02" itree="69">
      <Node pos="s" depth="0" NCoef="0" IVar="53" Cut="2.3792731761932373e-01" cType="0" res="-9.9000000000000000e+01" rms="0.0000000000000000e+00" purity="5.1406013965606689e-01" nType="0">
        <Node pos="l" depth="1" NCoef="0" IVar="7" Cut="7.4340581893920898e-01" cType="1" res="-9.9000000000000000e+01" rms="0.0000000000000000e+00" purity="5.2139562368392944e-01" nType="0">
          <Node pos="l" depth="2" NCoef="0" IVar="-1" Cut="0.0000000000000000e+00" cType="1" res="-9.9000000000000000e+01" rms="0.0000000000000000e+00" purity="5.4986149072647095e-01" nType="1"/>
          <Node pos="r" depth="2" NCoef="0" IVar="-1" Cut="0.0000000000000000e+00" cType="1" res="-9.9000000000000000e+01" rms="0.0000000000000000e+00" purity="4.9487575888633728e-01" nType="-1"/>
        </Node>
        <Node pos="r" depth="1" NCoef="0" IVar="-1" Cut="2.6199916005134583e-01" cType="1" res="-9.9000000000000000e+01" rms="0.0000000000000000e+00" purity="4.1460028290748596e-01" nType="-1"/>
      </Node>
    </BinaryTree>
    <BinaryTree type="DecisionTree" boostWeight="3.9204147200568730e-02" itree="70">
      <Node pos="s" depth="0" NCoef="0" IVar="33" Cut="2.3697261810302734e+01" cType="0" res="-9.9000000000000000e+01" rms="0.0000000000000000e+00" purity="5.0924497842788696e-01" nType="0">
        <Node pos="l" depth="1" NCoef="0" IVar="-1" Cut="4.1961869597434998e-01" cType="0" res="-9.9000000000000000e+01" rms="0.0000000000000000e+00" purity="5.1491832733154297e-01" nType="1"/>
        <Node pos="r" depth="1" NCoef="0" IVar="-1" Cut="0.0000000000000000e+00" cType="1" res="-9.9000000000000000e+01" rms="0.0000000000000000e+00" purity="3.4558254480361938e-01" nType="-1"/>
      </Node>
    </BinaryTree>
    <BinaryTree type="DecisionTree" boostWeight="7.6512327000007929e-02" itree="71">
      <Node pos="s" depth="0" NCoef="0" IVar="47" Cut="1.4226071536540985e-01" cType="0" res="-9.9000000000000000e+01" rms="0.0000000000000000e+00" purity="5.0333541631698608e-01" nType="0">
        <Node pos="l" depth="1" NCoef="0" IVar="5" Cut="5.3750312328338623e-01" cType="0" res="-9.9000000000000000e+01" rms="0.0000000000000000e+00" purity="5.1946163177490234e-01" nType="0">
          <Node pos="l" depth="2" NCoef="0" IVar="-1" Cut="0.0000000000000000e+00" cType="1" res="-9.9000000000000000e+01" rms="0.0000000000000000e+00" purity="5.3760093450546265e-01" nType="1"/>
          <Node pos="r" depth="2" NCoef="0" IVar="-1" Cut="0.0000000000000000e+00" cType="1" res="-9.9000000000000000e+01" rms="0.0000000000000000e+00" purity="4.8225241899490356e-01" nType="-1"/>
        </Node>
        <Node pos="r" depth="1" NCoef="0" IVar="37" Cut="3.0342916870117188e+02" cType="0" res="-9.9000000000000000e+01" rms="0.0000000000000000e+00" purity="4.5579776167869568e-01" nType="0">
          <Node pos="l" depth="2" NCoef="0" IVar="-1" Cut="0.0000000000000000e+00" cType="1" res="-9.9000000000000000e+01" rms="0.0000000000000000e+00" purity="5.2596551179885864e-01" nType="1"/>
          <Node pos="r" depth="2" NCoef="0" IVar="-1" Cut="0.0000000000000000e+00" cType="1" res="-9.9000000000000000e+01" rms="0.0000000000000000e+00" purity="4.2763990163803101e-01" nType="-1"/>
        </Node>
      </Node>
    </BinaryTree>
    <BinaryTree type="DecisionTree" boostWeight="4.8702079488412535e-02" itree="72">
      <Node pos="s" depth="0" NCoef="0" IVar="55" Cut="4.1961869597434998e-01" cType="0" res="-9.9000000000000000e+01" rms="0.0000000000000000e+00" purity="5.0185543298721313e-01" nType="0">
        <Node pos="l" depth="1" NCoef="0" IVar="-1" Cut="0.0000000000000000e+00" cType="1" res="-9.9000000000000000e+01" rms="0.0000000000000000e+00" purity="6.0571432113647461e-01" nType="1"/>
        <Node pos="r" depth="1" NCoef="0" IVar="29" Cut="1.2574613189697266e+02" cType="0" res="-9.9000000000000000e+01" rms="0.0000000000000000e+00" purity="4.9455931782722473e-01" nType="0">
          <Node pos="l" depth="2" NCoef="0" IVar="-1" Cut="0.0000000000000000e+00" cType="1" res="-9.9000000000000000e+01" rms="0.0000000000000000e+00" purity="5.8644086122512817e-01" nType="1"/>
          <Node pos="r" depth="2" NCoef="0" IVar="-1" Cut="0.0000000000000000e+00" cType="1" res="-9.9000000000000000e+01" rms="0.0000000000000000e+00" purity="4.8698019981384277e-01" nType="-1"/>
        </Node>
      </Node>
    </BinaryTree>
    <BinaryTree type="DecisionTree" boostWeight="3.0439136261122969e-02" itree="73">
      <Node pos="s" depth="0" NCoef="0" IVar="53" Cut="-9.0477484464645386e-01" cType="0" res="-9.9000000000000000e+01" rms="0.0000000000000000e+00" purity="5.0623381137847900e-01" nType="0">
        <Node pos="l" depth="1" NCoef="0" IVar="-1" Cut="4.2522862553596497e-01" cType="0" res="-9.9000000000000000e+01" rms="0.0000000000000000e+00" purity="5.1118153333663940e-01" nType="1"/>
        <Node pos="r" depth="1" NCoef="0" IVar="-1" Cut="0.0000000000000000e+00" cType="1" res="-9.9000000000000000e+01" rms="0.0000000000000000e+00" purity="3.9018711447715759e-01" nType="-1"/>
      </Node>
    </BinaryTree>
    <BinaryTree type="DecisionTree" boostWeight="4.1695080960456425e-02" itree="74">
      <Node pos="s" depth="0" NCoef="0" IVar="8" Cut="1.5116757154464722e+00" cType="0" res="-9.9000000000000000e+01" rms="0.0000000000000000e+00" purity="5.0320959091186523e-01" nType="0">
        <Node pos="l" depth="1" NCoef="0" IVar="-1" Cut="1.4971000671386719e+02" cType="0" res="-9.9000000000000000e+01" rms="0.0000000000000000e+00" purity="5.1521795988082886e-01" nType="1"/>
        <Node pos="r" depth="1" NCoef="0" IVar="-1" Cut="2.0115163177251816e-02" cType="0" res="-9.9000000000000000e+01" rms="0.0000000000000000e+00" purity="4.5802906155586243e-01" nType="-1"/>
      </Node>
    </BinaryTree>
    <BinaryTree type="DecisionTree" boostWeight="5.6214123028504336e-02" itree="75">
      <Node pos="s" depth="0" NCoef="0" IVar="33" Cut="3.6129219055175781e+01" cType="0" res="-9.9000000000000000e+01" rms="0.0000000000000000e+00" purity="4.9874553084373474e-01" nType="0">
        <Node pos="l" depth="1" NCoef="0" IVar="20" Cut="1.4190061950683594e+02" cType="0" res="-9.9000000000000000e+01" rms="0.0000000000000000e+00" purity="5.0611609220504761e-01" nType="0">
          <Node pos="l" depth="2" NCoef="0" IVar="-1" Cut="0.0000000000000000e+00" cType="1" res="-9.9000000000000000e+01" rms="0.0000000000000000e+00" purity="5.4846328496932983e-01" nType="1"/>
          <Node pos="r" depth="2" NCoef="0" IVar="-1" Cut="0.0000000000000000e+00" cType="1" res="-9.9000000000000000e+01" rms="0.0000000000000000e+00" purity="4.8935684561729431e-01" nType="-1"/>
        </Node>
        <Node pos="r" depth="1" NCoef="0" IVar="44" Cut="1.1387205123901367e+00" cType="0" res="-9.9000000000000000e+01" rms="0.0000000000000000e+00" purity="4.0101188421249390e-01" nType="0">
          <Node pos="l" depth="2" NCoef="0" IVar="-1" Cut="0.0000000000000000e+00" cType="1" res="-9.9000000000000000e+01" rms="0.0000000000000000e+00" purity="5.2379810810089111e-01" nType="1"/>
          <Node pos="r" depth="2" NCoef="0" IVar="-1" Cut="0.0000000000000000e+00" cType="1" res="-9.9000000000000000e+01" rms="0.0000000000000000e+00" purity="3.2584208250045776e-01" nType="-1"/>
        </Node>
      </Node>
    </BinaryTree>
    <BinaryTree type="DecisionTree" boostWeight="3.3432441148979260e-02" itree="76">
      <Node pos="s" depth="0" NCoef="0" IVar="55" Cut="4.1378673911094666e-01" cType="0" res="-9.9000000000000000e+01" rms="0.0000000000000000e+00" purity="5.0760483741760254e-01" nType="0">
        <Node pos="l" depth="1" NCoef="0" IVar="-1" Cut="0.0000000000000000e+00" cType="1" res="-9.9000000000000000e+01" rms="0.0000000000000000e+00" purity="6.0063159465789795e-01" nType="1"/>
        <Node pos="r" depth="1" NCoef="0" IVar="53" Cut="4.7373395413160324e-02" cType="0" res="-9.9000000000000000e+01" rms="0.0000000000000000e+00" purity="5.0125652551651001e-01" nType="0">
          <Node pos="l" depth="2" NCoef="0" IVar="-1" Cut="0.0000000000000000e+00" cType="1" res="-9.9000000000000000e+01" rms="0.0000000000000000e+00" purity="5.0645643472671509e-01" nType="1"/>
          <Node pos="r" depth="2" NCoef="0" IVar="-1" Cut="0.0000000000000000e+00" cType="1" res="-9.9000000000000000e+01" rms="0.0000000000000000e+00" purity="4.0673500299453735e-01" nType="-1"/>
        </Node>
      </Node>
    </BinaryTree>
    <BinaryTree type="DecisionTree" boostWeight="3.7131673732890717e-02" itree="77">
      <Node pos="s" depth="0" NCoef="0" IVar="53" Cut="1.4258916676044464e-01" cType="0" res="-9.9000000000000000e+01" rms="0.0000000000000000e+00" purity="4.9698871374130249e-01" nType="0">
        <Node pos="l" depth="1" NCoef="0" IVar="54" Cut="9.0054833889007568e-01" cType="0" res="-9.9000000000000000e+01" rms="0.0000000000000000e+00" purity="5.0351715087890625e-01" nType="0">
          <Node pos="l" depth="2" NCoef="0" IVar="-1" Cut="0.0000000000000000e+00" cType="1" res="-9.9000000000000000e+01" rms="0.0000000000000000e+00" purity="5.6933641433715820e-01" nType="1"/>
          <Node pos="r" depth="2" NCoef="0" IVar="-1" Cut="0.0000000000000000e+00" cType="1" res="-9.9000000000000000e+01" rms="0.0000000000000000e+00" purity="4.9463596940040588e-01" nType="-1"/>
        </Node>
        <Node pos="r" depth="1" NCoef="0" IVar="-1" Cut="3.9699984741210938e+02" cType="0" res="-9.9000000000000000e+01" rms="0.0000000000000000e+00" purity="3.8912567496299744e-01" nType="-1"/>
      </Node>
    </BinaryTree>
    <BinaryTree type="DecisionTree" boostWeight="8.7022192034666282e-02" itree="78">
      <Node pos="s" depth="0" NCoef="0" IVar="16" Cut="4.4557672119140625e+02" cType="1" res="-9.9000000000000000e+01" rms="0.0000000000000000e+00" purity="5.0347524881362915e-01" nType="0">
        <Node pos="l" depth="1" NCoef="0" IVar="16" Cut="1.9074890136718750e+02" cType="0" res="-9.9000000000000000e+01" rms="0.0000000000000000e+00" purity="5.2043044567108154e-01" nType="0">
          <Node pos="l" depth="2" NCoef="0" IVar="-1" Cut="0.0000000000000000e+00" cType="1" res="-9.9000000000000000e+01" rms="0.0000000000000000e+00" purity="5.4152446985244751e-01" nType="1"/>
