<?xml version="1.0"?>
<MethodSetup Method="BDT::BDT">
  <GeneralInfo>
    <Info name="TMVA Release" value="4.2.1 [262657]"/>
    <Info name="ROOT Release" value="6.16/00 [397312]"/>
    <Info name="Creator" value="wzhang"/>
    <Info name="Date" value="Fri Feb 14 15:30:25 2020"/>
    <Info name="Host" value="Linux lcgapp-centos7-x86-64-25.cern.ch 3.10.0-862.11.6.el7.x86_64 #1 SMP Tue Aug 14 21:49:04 UTC 2018 x86_64 x86_64 x86_64 GNU/Linux"/>
    <Info name="Dir" value="/home/wzhang/work/fwljmet_201905/CMSSW_10_2_10/src/TTTT/TMVA"/>
    <Info name="Training events" value="477374"/>
    <Info name="TrainingTime" value="6.51107519e+01"/>
    <Info name="AnalysisType" value="Classification"/>
  </GeneralInfo>
  <Options>
    <Option name="V" modified="Yes">False</Option>
    <Option name="VerbosityLevel" modified="No">Default</Option>
    <Option name="VarTransform" modified="No">None</Option>
    <Option name="H" modified="Yes">False</Option>
    <Option name="CreateMVAPdfs" modified="No">False</Option>
    <Option name="IgnoreNegWeightsInTraining" modified="Yes">True</Option>
    <Option name="NTrees" modified="Yes">100</Option>
    <Option name="MaxDepth" modified="Yes">2</Option>
    <Option name="MinNodeSize" modified="Yes">2.5%</Option>
    <Option name="nCuts" modified="Yes">20</Option>
    <Option name="BoostType" modified="Yes">AdaBoost</Option>
    <Option name="AdaBoostR2Loss" modified="No">quadratic</Option>
    <Option name="UseBaggedBoost" modified="Yes">True</Option>
    <Option name="Shrinkage" modified="No">1.000000e+00</Option>
    <Option name="AdaBoostBeta" modified="Yes">5.000000e-01</Option>
    <Option name="UseRandomisedTrees" modified="No">False</Option>
    <Option name="UseNvars" modified="No">8</Option>
    <Option name="UsePoissonNvars" modified="No">True</Option>
    <Option name="BaggedSampleFraction" modified="Yes">5.000000e-01</Option>
    <Option name="UseYesNoLeaf" modified="No">True</Option>
    <Option name="NegWeightTreatment" modified="No">inverseboostnegweights</Option>
    <Option name="Css" modified="No">1.000000e+00</Option>
    <Option name="Cts_sb" modified="No">1.000000e+00</Option>
    <Option name="Ctb_ss" modified="No">1.000000e+00</Option>
    <Option name="Cbb" modified="No">1.000000e+00</Option>
    <Option name="NodePurityLimit" modified="No">5.000000e-01</Option>
    <Option name="SeparationType" modified="Yes">giniindex</Option>
    <Option name="RegressionLossFunctionBDTG" modified="No">huber</Option>
    <Option name="HuberQuantile" modified="No">7.000000e-01</Option>
    <Option name="DoBoostMonitor" modified="No">False</Option>
    <Option name="UseFisherCuts" modified="No">False</Option>
    <Option name="MinLinCorrForFisher" modified="No">8.000000e-01</Option>
    <Option name="UseExclusiveVars" modified="No">False</Option>
    <Option name="DoPreselection" modified="No">False</Option>
    <Option name="SigToBkgFraction" modified="No">1.000000e+00</Option>
    <Option name="PruneMethod" modified="No">nopruning</Option>
    <Option name="PruneStrength" modified="No">0.000000e+00</Option>
    <Option name="PruningValFraction" modified="No">5.000000e-01</Option>
    <Option name="SkipNormalization" modified="No">False</Option>
    <Option name="nEventsMin" modified="No">0</Option>
    <Option name="UseBaggedGrad" modified="No">False</Option>
    <Option name="GradBaggingFraction" modified="No">5.000000e-01</Option>
    <Option name="UseNTrainEvents" modified="No">0</Option>
    <Option name="NNodesMax" modified="No">0</Option>
  </Options>
  <Variables NVar="61">
    <Variable VarIndex="0" Expression="AK4HTpMETpLepPt" Label="AK4HTpMETpLepPt" Title="S_{T}" Unit="GeV" Internal="AK4HTpMETpLepPt" Type="F" Min="6.20863464e+02" Max="5.39464697e+03"/>
    <Variable VarIndex="1" Expression="minMleppBjet" Label="minMleppBjet" Title="min[M(l,b)]" Unit="GeV" Internal="minMleppBjet" Type="F" Min="1.90305920e+01" Max="1.25936609e+03"/>
    <Variable VarIndex="2" Expression="mass_minBBdr" Label="mass_minBBdr" Title="M(b,b) with min[#DeltaR(b,b)]" Unit="GeV" Internal="mass_minBBdr" Type="F" Min="1.63379345e+01" Max="3.52824146e+03"/>
    <Variable VarIndex="3" Expression="deltaR_lepBJet_maxpt" Label="deltaR_lepBJet_maxpt" Title="#DeltaR(l,b)] with max[p_{T}(l,b)]" Unit="" Internal="deltaR_lepBJet_maxpt" Type="F" Min="4.00014430e-01" Max="5.17334700e+00"/>
    <Variable VarIndex="4" Expression="lepDR_minBBdr" Label="lepDR_minBBdr" Title="#DeltaR(l,bb) with min[#DeltaR(b,b)]" Unit="" Internal="lepDR_minBBdr" Type="F" Min="1.28833216e-03" Max="8.09948635e+00"/>
    <Variable VarIndex="5" Expression="centrality" Label="centrality" Title="Centrality" Unit="" Internal="centrality" Type="F" Min="1.97259143e-01" Max="9.94023860e-01"/>
    <Variable VarIndex="6" Expression="deltaEta_maxBB" Label="deltaEta_maxBB" Title="max[#Delta#eta(b,b)]" Unit="" Internal="deltaEta_maxBB" Type="F" Min="-4.77932882e+00" Max="4.78888941e+00"/>
    <Variable VarIndex="7" Expression="aveCSVpt" Label="aveCSVpt" Title="p_{T} weighted CSVv2" Unit="" Internal="aveCSVpt" Type="F" Min="-1.99784184e+00" Max="1.01502109e+00"/>
    <Variable VarIndex="8" Expression="aveBBdr" Label="aveBBdr" Title="ave[#DeltaR(b,b)]" Unit="" Internal="aveBBdr" Type="F" Min="3.95664990e-01" Max="5.61013079e+00"/>
    <Variable VarIndex="9" Expression="FW_momentum_0" Label="FW_momentum_0" Title="0^{th} FW moment" Unit="GeV" Internal="FW_momentum_0" Type="F" Min="9.99998927e-01" Max="1.00000095e+00"/>
    <Variable VarIndex="10" Expression="FW_momentum_1" Label="FW_momentum_1" Title="1^{st} FW moment" Unit="GeV" Internal="FW_momentum_1" Type="F" Min="2.44622915e-05" Max="9.75371957e-01"/>
    <Variable VarIndex="11" Expression="FW_momentum_2" Label="FW_momentum_2" Title="2^{nd} FW moment" Unit="GeV" Internal="FW_momentum_2" Type="F" Min="8.27223470e-04" Max="9.79112864e-01"/>
    <Variable VarIndex="12" Expression="FW_momentum_3" Label="FW_momentum_3" Title="3^{rd} FW moment" Unit="GeV" Internal="FW_momentum_3" Type="F" Min="1.12797099e-03" Max="8.72204781e-01"/>
    <Variable VarIndex="13" Expression="FW_momentum_4" Label="FW_momentum_4" Title="4^{th} FW moment" Unit="GeV" Internal="FW_momentum_4" Type="F" Min="4.70097084e-03" Max="9.33849931e-01"/>
    <Variable VarIndex="14" Expression="FW_momentum_5" Label="FW_momentum_5" Title="5^{th} FW moment" Unit="GeV" Internal="FW_momentum_5" Type="F" Min="2.84631667e-03" Max="8.70751858e-01"/>
    <Variable VarIndex="15" Expression="FW_momentum_6" Label="FW_momentum_6" Title="6^{th} FW moment" Unit="GeV" Internal="FW_momentum_6" Type="F" Min="1.45080490e-02" Max="8.81440461e-01"/>
    <Variable VarIndex="16" Expression="mass_maxJJJpt" Label="mass_maxJJJpt" Title="M(jjj) with max[p_{T}(jjj)]" Unit="GeV" Internal="mass_maxJJJpt" Type="F" Min="6.21498642e+01" Max="4.94783301e+03"/>
    <Variable VarIndex="17" Expression="BJetLeadPt" Label="BJetLeadPt" Title="p_{T}(b_{1})" Unit="GeV" Internal="BJetLeadPt" Type="F" Min="3.02089653e+01" Max="2.08851611e+03"/>
    <Variable VarIndex="18" Expression="deltaR_minBB" Label="deltaR_minBB" Title="min[#DeltaR(b,b)]" Unit="" Internal="deltaR_minBB" Type="F" Min="2.30966866e-01" Max="5.61013079e+00"/>
    <Variable VarIndex="19" Expression="minDR_lepBJet" Label="minDR_lepBJet" Title="min[#DeltaR(l,b)]" Unit="" Internal="minDR_lepBJet" Type="F" Min="4.00013953e-01" Max="4.81672192e+00"/>
    <Variable VarIndex="20" Expression="MT_lepMet" Label="MT_lepMet" Title="M_{T}(lep,E_{T}^{miss})" Unit="GeV" Internal="MT_lepMet" Type="F" Min="6.00001678e+01" Max="1.10520239e+03"/>
    <Variable VarIndex="21" Expression="AK4HT" Label="AK4HT" Title="H_{T}" Unit="GeV" Internal="AK4HT" Type="F" Min="5.10000153e+02" Max="4.61343164e+03"/>
    <Variable VarIndex="22" Expression="hemiout" Label="hemiout" Title="Hemiout" Unit="GeV" Internal="hemiout" Type="F" Min="-1.00000000e+00" Max="2.75916553e+03"/>
    <Variable VarIndex="23" Expression="theJetLeadPt" Label="theJetLeadPt" Title="p_{T}(j_{1})" Unit="GeV" Internal="theJetLeadPt" Type="F" Min="6.63698883e+01" Max="2.52876636e+03"/>
    <Variable VarIndex="24" Expression="corr_met_MultiLepCalc" Label="corr_met_MultiLepCalc" Title="E_{T}^{miss}" Unit="GeV" Internal="corr_met_MultiLepCalc" Type="F" Min="6.00000343e+01" Max="1.39423572e+03"/>
    <Variable VarIndex="25" Expression="leptonPt_MultiLepCalc" Label="leptonPt_MultiLepCalc" Title="p_{T}(lep)" Unit="GeV" Internal="leptonPt_MultiLepCalc" Type="F" Min="5.00001717e+01" Max="1.05066223e+03"/>
    <Variable VarIndex="26" Expression="mass_lepJets0" Label="mass_lepJets0" Title="M(l,j_{1})" Unit="GeV" Internal="mass_lepJets0" Type="F" Min="3.60237045e+01" Max="3.48660376e+03"/>
    <Variable VarIndex="27" Expression="mass_lepJets1" Label="mass_lepJets1" Title="M(l,j_{2})" Unit="GeV" Internal="mass_lepJets1" Type="F" Min="2.76412392e+01" Max="2.77977686e+03"/>
    <Variable VarIndex="28" Expression="mass_lepJets2" Label="mass_lepJets2" Title="M(l,j_{3})" Unit="GeV" Internal="mass_lepJets2" Type="F" Min="2.18447247e+01" Max="2.29785645e+03"/>
    <Variable VarIndex="29" Expression="MT2bb" Label="MT2bb" Title="MT2bb" Unit="GeV" Internal="MT2bb" Type="F" Min="6.34046507e+00" Max="8.04370605e+02"/>
    <Variable VarIndex="30" Expression="mass_lepBJet0" Label="mass_lepBJet0" Title="M(l,b_{1})" Unit="GeV" Internal="mass_lepBJet0" Type="F" Min="2.12006760e+01" Max="3.36046582e+03"/>
    <Variable VarIndex="31" Expression="mass_lepBJet_mindr" Label="mass_lepBJet_mindr" Title="M(l,b) with min[#DeltaR(l,b)]" Unit="GeV" Internal="mass_lepBJet_mindr" Type="F" Min="1.90305939e+01" Max="1.97018225e+03"/>
    <Variable VarIndex="32" Expression="secondJetPt" Label="secondJetPt" Title="p_{T}(j_{2})" Unit="GeV" Internal="secondJetPt" Type="F" Min="3.28107300e+01" Max="1.57601575e+03"/>
    <Variable VarIndex="33" Expression="fifthJetPt" Label="fifthJetPt" Title="p_{T}(j_{5})" Unit="GeV" Internal="fifthJetPt" Type="F" Min="-1.00000000e+00" Max="4.42917847e+02"/>
    <Variable VarIndex="34" Expression="sixthJetPt" Label="sixthJetPt" Title="p_{T}(j_{6})" Unit="GeV" Internal="sixthJetPt" Type="F" Min="-1.00000000e+00" Max="4.02537201e+02"/>
    <Variable VarIndex="35" Expression="PtFifthJet" Label="PtFifthJet" Title="5^{th} jet p_{T}" Unit="GeV" Internal="PtFifthJet" Type="F" Min="-1.00000000e+00" Max="1.91989807e+03"/>
    <Variable VarIndex="36" Expression="mass_minLLdr" Label="mass_minLLdr" Title="M(j,j) with min[#DeltaR(j,j)], j #neq b" Unit="GeV" Internal="mass_minLLdr" Type="F" Min="-1.00000000e+00" Max="4.65981445e+03"/>
    <Variable VarIndex="37" Expression="mass_maxBBmass" Label="mass_maxBBmass" Title="max[M(b,b)]" Unit="GeV" Internal="mass_maxBBmass" Type="F" Min="1.82635689e+01" Max="4.14529248e+03"/>
    <Variable VarIndex="38" Expression="deltaR_lepJetInMinMljet" Label="deltaR_lepJetInMinMljet" Title="#DeltaR(l,j) with min M(l, j)" Unit="" Internal="deltaR_lepJetInMinMljet" Type="F" Min="4.00007069e-01" Max="4.35522938e+00"/>
    <Variable VarIndex="39" Expression="deltaPhi_lepJetInMinMljet" Label="deltaPhi_lepJetInMinMljet" Title="#DeltaPhi(l,j) with min M(l, j)" Unit="" Internal="deltaPhi_lepJetInMinMljet" Type="F" Min="-3.14141488e+00" Max="3.14156461e+00"/>
    <Variable VarIndex="40" Expression="deltaR_lepbJetInMinMlb" Label="deltaR_lepbJetInMinMlb" Title="#DeltaR(l,b) with min M(l, b)" Unit="" Internal="deltaR_lepbJetInMinMlb" Type="F" Min="4.00013953e-01" Max="5.16441107e+00"/>
    <Variable VarIndex="41" Expression="deltaPhi_lepbJetInMinMlb" Label="deltaPhi_lepbJetInMinMlb" Title="#DeltaPhi(l,b) with min M(l, b)" Unit="" Internal="deltaPhi_lepbJetInMinMlb" Type="F" Min="-3.14146256e+00" Max="3.14157939e+00"/>
    <Variable VarIndex="42" Expression="M_allJet_W" Label="M_allJet_W" Title="M(allJets, leptoninc W)" Unit="GeV" Internal="M_allJet_W" Type="F" Min="5.32208008e+02" Max="8.08401660e+03"/>
    <Variable VarIndex="43" Expression="HT_bjets" Label="HT_bjets" Title="HT(bjets)" Unit="GeV" Internal="HT_bjets" Type="F" Min="5.02371559e+01" Max="3.24818188e+03"/>
    <Variable VarIndex="44" Expression="ratio_HTdHT4leadjets" Label="ratio_HTdHT4leadjets" Title="HT/HT(4 leading jets)" Unit="" Internal="ratio_HTdHT4leadjets" Type="F" Min="1.00776112e+00" Max="2.62445450e+00"/>
    <Variable VarIndex="45" Expression="csvJet3" Label="csvJet3" Title="DeepCSV(3rdPtJet)" Unit="" Internal="csvJet3" Type="F" Min="-2.00000000e+00" Max="9.99929070e-01"/>
    <Variable VarIndex="46" Expression="csvJet4" Label="csvJet4" Title="DeepCSV(4thPtJet)" Unit="" Internal="csvJet4" Type="F" Min="-2.00000000e+00" Max="9.99930859e-01"/>
    <Variable VarIndex="47" Expression="thirdcsvb_bb" Label="thirdcsvb_bb" Title="DeepCSV(3rdDeepCSVJet)" Unit="" Internal="thirdcsvb_bb" Type="F" Min="-2.00000000e+00" Max="9.99164999e-01"/>
    <Variable VarIndex="48" Expression="fourthcsvb_bb" Label="fourthcsvb_bb" Title="DeepCSV(4thDeepCSVJet)" Unit="" Internal="fourthcsvb_bb" Type="F" Min="-2.00000000e+00" Max="9.97438133e-01"/>
    <Variable VarIndex="49" Expression="NJets_JetSubCalc" Label="NJets_JetSubCalc" Title="AK4 jet multiplicity" Unit="" Internal="NJets_JetSubCalc" Type="I" Min="4.00000000e+00" Max="1.90000000e+01"/>
    <Variable VarIndex="50" Expression="HT_2m" Label="HT_2m" Title="HTwoTwoPtBjets" Unit="GeV" Internal="HT_2m" Type="F" Min="6.04830132e+01" Max="4.15177344e+03"/>
    <Variable VarIndex="51" Expression="Sphericity" Label="Sphericity" Title="Sphericity" Unit="Sphericity" Internal="Sphericity" Type="F" Min="7.99266039e-04" Max="9.35396314e-01"/>
    <Variable VarIndex="52" Expression="Aplanarity" Label="Aplanarity" Title="Aplanarity" Unit="Aplanarity" Internal="Aplanarity" Type="F" Min="1.00221655e-07" Max="4.45714027e-01"/>
    <Variable VarIndex="53" Expression="BDTtrijet1" Label="BDTtrijet1" Title="trijet1 discriminator" Unit="" Internal="BDTtrijet1" Type="F" Min="-1.00000000e+00" Max="9.99728739e-01"/>
    <Variable VarIndex="54" Expression="BDTtrijet2" Label="BDTtrijet2" Title="trijet2 discriminator" Unit="" Internal="BDTtrijet2" Type="F" Min="-1.00000000e+00" Max="9.96493161e-01"/>
    <Variable VarIndex="55" Expression="BDTtrijet3" Label="BDTtrijet3" Title="trijet3 discriminator" Unit="" Internal="BDTtrijet3" Type="F" Min="-1.00000000e+00" Max="9.87466156e-01"/>
    <Variable VarIndex="56" Expression="BDTtrijet4" Label="BDTtrijet4" Title="trijet4 discriminator" Unit="" Internal="BDTtrijet4" Type="F" Min="-1.00000000e+00" Max="9.41090405e-01"/>
    <Variable VarIndex="57" Expression="NresolvedTops1pFake" Label="NresolvedTops1pFake" Title="resolvedTop multiplicity" Unit="" Internal="NresolvedTops1pFake" Type="F" Min="0.00000000e+00" Max="3.00000000e+00"/>
    <Variable VarIndex="58" Expression="NJetsTtagged" Label="NJetsTtagged" Title="top multiplicity" Unit="" Internal="NJetsTtagged" Type="F" Min="0.00000000e+00" Max="4.00000000e+00"/>
    <Variable VarIndex="59" Expression="NJetsWtagged" Label="NJetsWtagged" Title="W multiplicity" Unit="" Internal="NJetsWtagged" Type="F" Min="0.00000000e+00" Max="4.00000000e+00"/>
    <Variable VarIndex="60" Expression="NJetsCSVwithSF_JetSubCalc" Label="NJetsCSVwithSF_JetSubCalc" Title="bjet multiplicity" Unit="" Internal="NJetsCSVwithSF_JetSubCalc" Type="F" Min="2.00000000e+00" Max="9.00000000e+00"/>
  </Variables>
  <Spectators NSpec="0"/>
  <Classes NClass="2">
    <Class Name="Signal" Index="0"/>
    <Class Name="Background" Index="1"/>
  </Classes>
  <Transformations NTransformations="0"/>
  <MVAPdfs/>
  <Weights NTrees="100" AnalysisType="0">
    <BinaryTree type="DecisionTree" boostWeight="4.8438209614510330e-01" itree="0">
      <Node pos="s" depth="0" NCoef="0" IVar="47" Cut="2.8501287102699280e-01" cType="0" res="-9.9000000000000000e+01" rms="0.0000000000000000e+00" purity="5.0213968753814697e-01" nType="0">
        <Node pos="l" depth="1" NCoef="0" IVar="-1" Cut="4.2582210898399353e-01" cType="0" res="-9.9000000000000000e+01" rms="0.0000000000000000e+00" purity="7.1791815757751465e-01" nType="1"/>
        <Node pos="r" depth="1" NCoef="0" IVar="-1" Cut="4.2497172951698303e-01" cType="0" res="-9.9000000000000000e+01" rms="0.0000000000000000e+00" purity="2.6756605505943298e-01" nType="-1"/>
      </Node>
    </BinaryTree>
    <BinaryTree type="DecisionTree" boostWeight="4.4663067209243862e-01" itree="1">
      <Node pos="s" depth="0" NCoef="0" IVar="60" Cut="2.3333332538604736e+00" cType="0" res="-9.9000000000000000e+01" rms="0.0000000000000000e+00" purity="4.9716892838478088e-01" nType="0">
        <Node pos="l" depth="1" NCoef="0" IVar="-1" Cut="5.1973789930343628e-01" cType="0" res="-9.9000000000000000e+01" rms="0.0000000000000000e+00" purity="7.1565419435501099e-01" nType="1"/>
        <Node pos="r" depth="1" NCoef="0" IVar="54" Cut="5.2000087499618530e-01" cType="0" res="-9.9000000000000000e+01" rms="0.0000000000000000e+00" purity="3.1594955921173096e-01" nType="0">
          <Node pos="l" depth="2" NCoef="0" IVar="-1" Cut="0.0000000000000000e+00" cType="1" res="-9.9000000000000000e+01" rms="0.0000000000000000e+00" purity="5.3240358829498291e-01" nType="1"/>
          <Node pos="r" depth="2" NCoef="0" IVar="-1" Cut="0.0000000000000000e+00" cType="1" res="-9.9000000000000000e+01" rms="0.0000000000000000e+00" purity="2.1608756482601166e-01" nType="-1"/>
        </Node>
      </Node>
    </BinaryTree>
    <BinaryTree type="DecisionTree" boostWeight="3.7803986596856798e-01" itree="2">
      <Node pos="s" depth="0" NCoef="0" IVar="48" Cut="1.3853380084037781e-01" cType="0" res="-9.9000000000000000e+01" rms="0.0000000000000000e+00" purity="4.8292487859725952e-01" nType="0">
        <Node pos="l" depth="1" NCoef="0" IVar="-1" Cut="7.1098655462265015e-01" cType="0" res="-9.9000000000000000e+01" rms="0.0000000000000000e+00" purity="7.0094436407089233e-01" nType="1"/>
        <Node pos="r" depth="1" NCoef="0" IVar="-1" Cut="3.3057066798210144e-01" cType="0" res="-9.9000000000000000e+01" rms="0.0000000000000000e+00" purity="3.3350795507431030e-01" nType="-1"/>
      </Node>
    </BinaryTree>
    <BinaryTree type="DecisionTree" boostWeight="3.7539996655527613e-01" itree="3">
      <Node pos="s" depth="0" NCoef="0" IVar="60" Cut="2.2857143878936768e+00" cType="0" res="-9.9000000000000000e+01" rms="0.0000000000000000e+00" purity="4.9290236830711365e-01" nType="0">
        <Node pos="l" depth="1" NCoef="0" IVar="-1" Cut="5.2043867111206055e-01" cType="0" res="-9.9000000000000000e+01" rms="0.0000000000000000e+00" purity="6.5909767150878906e-01" nType="1"/>
        <Node pos="r" depth="1" NCoef="0" IVar="1" Cut="1.5326261901855469e+02" cType="0" res="-9.9000000000000000e+01" rms="0.0000000000000000e+00" purity="3.5311108827590942e-01" nType="0">
          <Node pos="l" depth="2" NCoef="0" IVar="-1" Cut="0.0000000000000000e+00" cType="1" res="-9.9000000000000000e+01" rms="0.0000000000000000e+00" purity="6.7336094379425049e-01" nType="1"/>
          <Node pos="r" depth="2" NCoef="0" IVar="-1" Cut="0.0000000000000000e+00" cType="1" res="-9.9000000000000000e+01" rms="0.0000000000000000e+00" purity="2.9977431893348694e-01" nType="-1"/>
        </Node>
      </Node>
    </BinaryTree>
    <BinaryTree type="DecisionTree" boostWeight="2.9793108136637109e-01" itree="4">
      <Node pos="s" depth="0" NCoef="0" IVar="54" Cut="3.3076730370521545e-01" cType="0" res="-9.9000000000000000e+01" rms="0.0000000000000000e+00" purity="4.8426613211631775e-01" nType="0">
        <Node pos="l" depth="1" NCoef="0" IVar="-1" Cut="4.2788708209991455e-01" cType="0" res="-9.9000000000000000e+01" rms="0.0000000000000000e+00" purity="6.2497377395629883e-01" nType="1"/>
        <Node pos="r" depth="1" NCoef="0" IVar="0" Cut="1.0762889404296875e+03" cType="0" res="-9.9000000000000000e+01" rms="0.0000000000000000e+00" purity="3.4725689888000488e-01" nType="0">
          <Node pos="l" depth="2" NCoef="0" IVar="-1" Cut="0.0000000000000000e+00" cType="1" res="-9.9000000000000000e+01" rms="0.0000000000000000e+00" purity="5.1360929012298584e-01" nType="1"/>
          <Node pos="r" depth="2" NCoef="0" IVar="-1" Cut="0.0000000000000000e+00" cType="1" res="-9.9000000000000000e+01" rms="0.0000000000000000e+00" purity="2.3125407099723816e-01" nType="-1"/>
        </Node>
      </Node>
    </BinaryTree>
    <BinaryTree type="DecisionTree" boostWeight="2.8797773022167950e-01" itree="5">
      <Node pos="s" depth="0" NCoef="0" IVar="47" Cut="4.2789548635482788e-01" cType="0" res="-9.9000000000000000e+01" rms="0.0000000000000000e+00" purity="4.6658959984779358e-01" nType="0">
        <Node pos="l" depth="1" NCoef="0" IVar="-1" Cut="8.0604135990142822e-01" cType="0" res="-9.9000000000000000e+01" rms="0.0000000000000000e+00" purity="6.4937055110931396e-01" nType="1"/>
        <Node pos="r" depth="1" NCoef="0" IVar="-1" Cut="1.2776566505432129e+01" cType="0" res="-9.9000000000000000e+01" rms="0.0000000000000000e+00" purity="3.6499637365341187e-01" nType="-1"/>
      </Node>
    </BinaryTree>
    <BinaryTree type="DecisionTree" boostWeight="3.0997514235999218e-01" itree="6">
      <Node pos="s" depth="0" NCoef="0" IVar="54" Cut="7.1098655462265015e-01" cType="0" res="-9.9000000000000000e+01" rms="0.0000000000000000e+00" purity="4.8190349340438843e-01" nType="0">
        <Node pos="l" depth="1" NCoef="0" IVar="-1" Cut="9.6893865966796875e+02" cType="0" res="-9.9000000000000000e+01" rms="0.0000000000000000e+00" purity="6.7140656709671021e-01" nType="1"/>
        <Node pos="r" depth="1" NCoef="0" IVar="22" Cut="6.5458300781250000e+02" cType="0" res="-9.9000000000000000e+01" rms="0.0000000000000000e+00" purity="3.9902198314666748e-01" nType="0">
          <Node pos="l" depth="2" NCoef="0" IVar="-1" Cut="0.0000000000000000e+00" cType="1" res="-9.9000000000000000e+01" rms="0.0000000000000000e+00" purity="5.7916849851608276e-01" nType="1"/>
          <Node pos="r" depth="2" NCoef="0" IVar="-1" Cut="0.0000000000000000e+00" cType="1" res="-9.9000000000000000e+01" rms="0.0000000000000000e+00" purity="3.3821594715118408e-01" nType="-1"/>
        </Node>
      </Node>
    </BinaryTree>
    <BinaryTree type="DecisionTree" boostWeight="1.7141316178051808e-01" itree="7">
      <Node pos="s" depth="0" NCoef="0" IVar="34" Cut="1.5572843551635742e+01" cType="0" res="-9.9000000000000000e+01" rms="0.0000000000000000e+00" purity="4.8018455505371094e-01" nType="0">
        <Node pos="l" depth="1" NCoef="0" IVar="20" Cut="1.8205422973632812e+02" cType="0" res="-9.9000000000000000e+01" rms="0.0000000000000000e+00" purity="5.2589333057403564e-01" nType="0">
          <Node pos="l" depth="2" NCoef="0" IVar="-1" Cut="0.0000000000000000e+00" cType="1" res="-9.9000000000000000e+01" rms="0.0000000000000000e+00" purity="7.6383823156356812e-01" nType="1"/>
          <Node pos="r" depth="2" NCoef="0" IVar="-1" Cut="0.0000000000000000e+00" cType="1" res="-9.9000000000000000e+01" rms="0.0000000000000000e+00" purity="4.8566097021102905e-01" nType="-1"/>
        </Node>
        <Node pos="r" depth="1" NCoef="0" IVar="-1" Cut="1.3645777893066406e+02" cType="0" res="-9.9000000000000000e+01" rms="0.0000000000000000e+00" purity="2.1597141027450562e-01" nType="-1"/>
      </Node>
    </BinaryTree>
    <BinaryTree type="DecisionTree" boostWeight="1.9545988596851074e-01" itree="8">
      <Node pos="s" depth="0" NCoef="0" IVar="34" Cut="3.7432113647460938e+01" cType="0" res="-9.9000000000000000e+01" rms="0.0000000000000000e+00" purity="4.9797070026397705e-01" nType="0">
        <Node pos="l" depth="1" NCoef="0" IVar="-1" Cut="2.8290781378746033e-01" cType="0" res="-9.9000000000000000e+01" rms="0.0000000000000000e+00" purity="5.6064289808273315e-01" nType="1"/>
        <Node pos="r" depth="1" NCoef="0" IVar="31" Cut="1.5591323852539062e+02" cType="0" res="-9.9000000000000000e+01" rms="0.0000000000000000e+00" purity="3.0716094374656677e-01" nType="0">
          <Node pos="l" depth="2" NCoef="0" IVar="-1" Cut="0.0000000000000000e+00" cType="1" res="-9.9000000000000000e+01" rms="0.0000000000000000e+00" purity="5.4040741920471191e-01" nType="1"/>
          <Node pos="r" depth="2" NCoef="0" IVar="-1" Cut="0.0000000000000000e+00" cType="1" res="-9.9000000000000000e+01" rms="0.0000000000000000e+00" purity="2.6307386159896851e-01" nType="-1"/>
        </Node>
      </Node>
    </BinaryTree>
    <BinaryTree type="DecisionTree" boostWeight="2.0144650901175154e-01" itree="9">
      <Node pos="s" depth="0" NCoef="0" IVar="33" Cut="6.0635459899902344e+01" cType="0" res="-9.9000000000000000e+01" rms="0.0000000000000000e+00" purity="4.8731759190559387e-01" nType="0">
        <Node pos="l" depth="1" NCoef="0" IVar="-1" Cut="3.2497742772102356e-01" cType="0" res="-9.9000000000000000e+01" rms="0.0000000000000000e+00" purity="5.7491415739059448e-01" nType="1"/>
        <Node pos="r" depth="1" NCoef="0" IVar="-1" Cut="1.9278585910797119e+00" cType="0" res="-9.9000000000000000e+01" rms="0.0000000000000000e+00" purity="3.6701259016990662e-01" nType="-1"/>
      </Node>
    </BinaryTree>
    <BinaryTree type="DecisionTree" boostWeight="2.7370434666000798e-01" itree="10">
      <Node pos="s" depth="0" NCoef="0" IVar="47" Cut="5.7071286439895630e-01" cType="0" res="-9.9000000000000000e+01" rms="0.0000000000000000e+00" purity="4.7337555885314941e-01" nType="0">
        <Node pos="l" depth="1" NCoef="0" IVar="-1" Cut="4.2560169100761414e-01" cType="0" res="-9.9000000000000000e+01" rms="0.0000000000000000e+00" purity="6.5758305788040161e-01" nType="1"/>
        <Node pos="r" depth="1" NCoef="0" IVar="55" Cut="1.2973260879516602e-01" cType="0" res="-9.9000000000000000e+01" rms="0.0000000000000000e+00" purity="4.1546273231506348e-01" nType="0">
          <Node pos="l" depth="2" NCoef="0" IVar="-1" Cut="0.0000000000000000e+00" cType="1" res="-9.9000000000000000e+01" rms="0.0000000000000000e+00" purity="6.7016011476516724e-01" nType="1"/>
          <Node pos="r" depth="2" NCoef="0" IVar="-1" Cut="0.0000000000000000e+00" cType="1" res="-9.9000000000000000e+01" rms="0.0000000000000000e+00" purity="3.8015237450599670e-01" nType="-1"/>
        </Node>
      </Node>
    </BinaryTree>
    <BinaryTree type="DecisionTree" boostWeight="2.2074625556844948e-01" itree="11">
      <Node pos="s" depth="0" NCoef="0" IVar="60" Cut="3.3333332538604736e+00" cType="0" res="-9.9000000000000000e+01" rms="0.0000000000000000e+00" purity="4.9460580945014954e-01" nType="0">
        <Node pos="l" depth="1" NCoef="0" IVar="-1" Cut="5.6284698486328125e+01" cType="0" res="-9.9000000000000000e+01" rms="0.0000000000000000e+00" purity="7.0505720376968384e-01" nType="1"/>
        <Node pos="r" depth="1" NCoef="0" IVar="20" Cut="1.5796490478515625e+02" cType="0" res="-9.9000000000000000e+01" rms="0.0000000000000000e+00" purity="4.5967614650726318e-01" nType="0">
          <Node pos="l" depth="2" NCoef="0" IVar="-1" Cut="0.0000000000000000e+00" cType="1" res="-9.9000000000000000e+01" rms="0.0000000000000000e+00" purity="6.2337732315063477e-01" nType="1"/>
          <Node pos="r" depth="2" NCoef="0" IVar="-1" Cut="0.0000000000000000e+00" cType="1" res="-9.9000000000000000e+01" rms="0.0000000000000000e+00" purity="4.1566494107246399e-01" nType="-1"/>
        </Node>
      </Node>
    </BinaryTree>
    <BinaryTree type="DecisionTree" boostWeight="2.3325977997121711e-01" itree="12">
      <Node pos="s" depth="0" NCoef="0" IVar="54" Cut="8.0604135990142822e-01" cType="0" res="-9.9000000000000000e+01" rms="0.0000000000000000e+00" purity="5.0097739696502686e-01" nType="0">
        <Node pos="l" depth="1" NCoef="0" IVar="-1" Cut="9.7194091796875000e+02" cType="0" res="-9.9000000000000000e+01" rms="0.0000000000000000e+00" purity="6.6058790683746338e-01" nType="1"/>
        <Node pos="r" depth="1" NCoef="0" IVar="31" Cut="1.5544432067871094e+02" cType="0" res="-9.9000000000000000e+01" rms="0.0000000000000000e+00" purity="4.5407459139823914e-01" nType="0">
          <Node pos="l" depth="2" NCoef="0" IVar="-1" Cut="0.0000000000000000e+00" cType="1" res="-9.9000000000000000e+01" rms="0.0000000000000000e+00" purity="6.5382158756256104e-01" nType="1"/>
          <Node pos="r" depth="2" NCoef="0" IVar="-1" Cut="0.0000000000000000e+00" cType="1" res="-9.9000000000000000e+01" rms="0.0000000000000000e+00" purity="4.1048550605773926e-01" nType="-1"/>
        </Node>
      </Node>
    </BinaryTree>
    <BinaryTree type="DecisionTree" boostWeight="1.5577023243360777e-01" itree="13">
      <Node pos="s" depth="0" NCoef="0" IVar="49" Cut="6.0000000000000000e+00" cType="0" res="-9.9000000000000000e+01" rms="0.0000000000000000e+00" purity="5.1026672124862671e-01" nType="0">
        <Node pos="l" depth="1" NCoef="0" IVar="43" Cut="3.5380953979492188e+02" cType="0" res="-9.9000000000000000e+01" rms="0.0000000000000000e+00" purity="5.4392063617706299e-01" nType="0">
          <Node pos="l" depth="2" NCoef="0" IVar="-1" Cut="0.0000000000000000e+00" cType="1" res="-9.9000000000000000e+01" rms="0.0000000000000000e+00" purity="6.6294580698013306e-01" nType="1"/>
          <Node pos="r" depth="2" NCoef="0" IVar="-1" Cut="0.0000000000000000e+00" cType="1" res="-9.9000000000000000e+01" rms="0.0000000000000000e+00" purity="4.9030932784080505e-01" nType="-1"/>
        </Node>
        <Node pos="r" depth="1" NCoef="0" IVar="-1" Cut="8.7338399887084961e+00" cType="0" res="-9.9000000000000000e+01" rms="0.0000000000000000e+00" purity="2.9487663507461548e-01" nType="-1"/>
      </Node>
    </BinaryTree>
    <BinaryTree type="DecisionTree" boostWeight="1.7836761377577112e-01" itree="14">
      <Node pos="s" depth="0" NCoef="0" IVar="49" Cut="9.0000000000000000e+00" cType="0" res="-9.9000000000000000e+01" rms="0.0000000000000000e+00" purity="5.2154481410980225e-01" nType="0">
        <Node pos="l" depth="1" NCoef="0" IVar="-1" Cut="2.8291925787925720e-01" cType="0" res="-9.9000000000000000e+01" rms="0.0000000000000000e+00" purity="6.6468214988708496e-01" nType="1"/>
        <Node pos="r" depth="1" NCoef="0" IVar="30" Cut="1.3814868164062500e+02" cType="0" res="-9.9000000000000000e+01" rms="0.0000000000000000e+00" purity="4.7518563270568848e-01" nType="0">
          <Node pos="l" depth="2" NCoef="0" IVar="-1" Cut="0.0000000000000000e+00" cType="1" res="-9.9000000000000000e+01" rms="0.0000000000000000e+00" purity="5.2969485521316528e-01" nType="1"/>
          <Node pos="r" depth="2" NCoef="0" IVar="-1" Cut="0.0000000000000000e+00" cType="1" res="-9.9000000000000000e+01" rms="0.0000000000000000e+00" purity="3.7337169051170349e-01" nType="-1"/>
        </Node>
      </Node>
    </BinaryTree>
    <BinaryTree type="DecisionTree" boostWeight="1.4221731665038803e-01" itree="15">
      <Node pos="s" depth="0" NCoef="0" IVar="34" Cut="1.2236595153808594e+01" cType="0" res="-9.9000000000000000e+01" rms="0.0000000000000000e+00" purity="5.1231491565704346e-01" nType="0">
        <Node pos="l" depth="1" NCoef="0" IVar="20" Cut="1.3808358764648438e+02" cType="0" res="-9.9000000000000000e+01" rms="0.0000000000000000e+00" purity="5.4498004913330078e-01" nType="0">
          <Node pos="l" depth="2" NCoef="0" IVar="-1" Cut="0.0000000000000000e+00" cType="1" res="-9.9000000000000000e+01" rms="0.0000000000000000e+00" purity="6.5664166212081909e-01" nType="1"/>
          <Node pos="r" depth="2" NCoef="0" IVar="-1" Cut="0.0000000000000000e+00" cType="1" res="-9.9000000000000000e+01" rms="0.0000000000000000e+00" purity="4.9606752395629883e-01" nType="-1"/>
        </Node>
        <Node pos="r" depth="1" NCoef="0" IVar="-1" Cut="1.8285038757324219e+02" cType="0" res="-9.9000000000000000e+01" rms="0.0000000000000000e+00" purity="2.9522842168807983e-01" nType="-1"/>
      </Node>
    </BinaryTree>
    <BinaryTree type="DecisionTree" boostWeight="1.3066762608941915e-01" itree="16">
      <Node pos="s" depth="0" NCoef="0" IVar="49" Cut="6.0000000000000000e+00" cType="0" res="-9.9000000000000000e+01" rms="0.0000000000000000e+00" purity="5.1662576198577881e-01" nType="0">
        <Node pos="l" depth="1" NCoef="0" IVar="-1" Cut="3.1981039047241211e-01" cType="0" res="-9.9000000000000000e+01" rms="0.0000000000000000e+00" purity="5.4710155725479126e-01" nType="1"/>
        <Node pos="r" depth="1" NCoef="0" IVar="-1" Cut="1.3837236022949219e+02" cType="0" res="-9.9000000000000000e+01" rms="0.0000000000000000e+00" purity="3.1948325037956238e-01" nType="-1"/>
      </Node>
    </BinaryTree>
    <BinaryTree type="DecisionTree" boostWeight="1.6627331720765906e-01" itree="17">
      <Node pos="s" depth="0" NCoef="0" IVar="48" Cut="2.8356271982192993e-01" cType="0" res="-9.9000000000000000e+01" rms="0.0000000000000000e+00" purity="5.0606471300125122e-01" nType="0">
        <Node pos="l" depth="1" NCoef="0" IVar="-1" Cut="9.0000000000000000e+00" cType="0" res="-9.9000000000000000e+01" rms="0.0000000000000000e+00" purity="6.7232555150985718e-01" nType="1"/>
        <Node pos="r" depth="1" NCoef="0" IVar="48" Cut="6.6065534949302673e-02" cType="0" res="-9.9000000000000000e+01" rms="0.0000000000000000e+00" purity="4.6911793947219849e-01" nType="0">
          <Node pos="l" depth="2" NCoef="0" IVar="-1" Cut="0.0000000000000000e+00" cType="1" res="-9.9000000000000000e+01" rms="0.0000000000000000e+00" purity="5.2544140815734863e-01" nType="1"/>
          <Node pos="r" depth="2" NCoef="0" IVar="-1" Cut="0.0000000000000000e+00" cType="1" res="-9.9000000000000000e+01" rms="0.0000000000000000e+00" purity="3.7751713395118713e-01" nType="-1"/>
        </Node>
      </Node>
    </BinaryTree>
    <BinaryTree type="DecisionTree" boostWeight="1.7068738015384816e-01" itree="18">
      <Node pos="s" depth="0" NCoef="0" IVar="55" Cut="2.2622570395469666e-01" cType="0" res="-9.9000000000000000e+01" rms="0.0000000000000000e+00" purity="4.9252513051033020e-01" nType="0">
        <Node pos="l" depth="1" NCoef="0" IVar="-1" Cut="0.0000000000000000e+00" cType="1" res="-9.9000000000000000e+01" rms="0.0000000000000000e+00" purity="7.0059770345687866e-01" nType="1"/>
        <Node pos="r" depth="1" NCoef="0" IVar="24" Cut="1.1893123626708984e+02" cType="0" res="-9.9000000000000000e+01" rms="0.0000000000000000e+00" purity="4.6725657582283020e-01" nType="0">
          <Node pos="l" depth="2" NCoef="0" IVar="-1" Cut="0.0000000000000000e+00" cType="1" res="-9.9000000000000000e+01" rms="0.0000000000000000e+00" purity="5.4151260852813721e-01" nType="1"/>
          <Node pos="r" depth="2" NCoef="0" IVar="-1" Cut="0.0000000000000000e+00" cType="1" res="-9.9000000000000000e+01" rms="0.0000000000000000e+00" purity="4.0553802251815796e-01" nType="-1"/>
        </Node>
      </Node>
    </BinaryTree>
    <BinaryTree type="DecisionTree" boostWeight="1.5740847237099964e-01" itree="19">
      <Node pos="s" depth="0" NCoef="0" IVar="49" Cut="1.0000000000000000e+01" cType="0" res="-9.9000000000000000e+01" rms="0.0000000000000000e+00" purity="4.9315276741981506e-01" nType="0">
        <Node pos="l" depth="1" NCoef="0" IVar="-1" Cut="0.0000000000000000e+00" cType="1" res="-9.9000000000000000e+01" rms="0.0000000000000000e+00" purity="7.0304435491561890e-01" nType="1"/>
        <Node pos="r" depth="1" NCoef="0" IVar="47" Cut="7.1353024244308472e-01" cType="0" res="-9.9000000000000000e+01" rms="0.0000000000000000e+00" purity="4.6890047192573547e-01" nType="0">
          <Node pos="l" depth="2" NCoef="0" IVar="-1" Cut="0.0000000000000000e+00" cType="1" res="-9.9000000000000000e+01" rms="0.0000000000000000e+00" purity="6.1968243122100830e-01" nType="1"/>
          <Node pos="r" depth="2" NCoef="0" IVar="-1" Cut="0.0000000000000000e+00" cType="1" res="-9.9000000000000000e+01" rms="0.0000000000000000e+00" purity="4.4519498944282532e-01" nType="-1"/>
        </Node>
      </Node>
    </BinaryTree>
    <BinaryTree type="DecisionTree" boostWeight="1.4272150530797451e-01" itree="20">
      <Node pos="s" depth="0" NCoef="0" IVar="54" Cut="2.3571249842643738e-01" cType="0" res="-9.9000000000000000e+01" rms="0.0000000000000000e+00" purity="5.0839430093765259e-01" nType="0">
        <Node pos="l" depth="1" NCoef="0" IVar="-1" Cut="2.8235006713867188e+02" cType="0" res="-9.9000000000000000e+01" rms="0.0000000000000000e+00" purity="5.7275915145874023e-01" nType="1"/>
        <Node pos="r" depth="1" NCoef="0" IVar="-1" Cut="4.1277889251708984e+01" cType="0" res="-9.9000000000000000e+01" rms="0.0000000000000000e+00" purity="4.3136852979660034e-01" nType="-1"/>
      </Node>
    </BinaryTree>
    <BinaryTree type="DecisionTree" boostWeight="1.1653546106987467e-01" itree="21">
      <Node pos="s" depth="0" NCoef="0" IVar="0" Cut="8.5064038085937500e+02" cType="0" res="-9.9000000000000000e+01" rms="0.0000000000000000e+00" purity="5.0917375087738037e-01" nType="0">
        <Node pos="l" depth="1" NCoef="0" IVar="-1" Cut="9.0054833889007568e-01" cType="0" res="-9.9000000000000000e+01" rms="0.0000000000000000e+00" purity="5.4464101791381836e-01" nType="1"/>
        <Node pos="r" depth="1" NCoef="0" IVar="-1" Cut="5.9556122869253159e-02" cType="0" res="-9.9000000000000000e+01" rms="0.0000000000000000e+00" purity="4.0137526392936707e-01" nType="-1"/>
      </Node>
    </BinaryTree>
    <BinaryTree type="DecisionTree" boostWeight="1.1829065345802210e-01" itree="22">
      <Node pos="s" depth="0" NCoef="0" IVar="55" Cut="4.1961869597434998e-01" cType="0" res="-9.9000000000000000e+01" rms="0.0000000000000000e+00" purity="5.0093531608581543e-01" nType="0">
        <Node pos="l" depth="1" NCoef="0" IVar="-1" Cut="0.0000000000000000e+00" cType="1" res="-9.9000000000000000e+01" rms="0.0000000000000000e+00" purity="7.2683399915695190e-01" nType="1"/>
        <Node pos="r" depth="1" NCoef="0" IVar="29" Cut="1.3639242553710938e+02" cType="0" res="-9.9000000000000000e+01" rms="0.0000000000000000e+00" purity="4.8374393582344055e-01" nType="0">
          <Node pos="l" depth="2" NCoef="0" IVar="-1" Cut="0.0000000000000000e+00" cType="1" res="-9.9000000000000000e+01" rms="0.0000000000000000e+00" purity="7.1599900722503662e-01" nType="1"/>
          <Node pos="r" depth="2" NCoef="0" IVar="-1" Cut="0.0000000000000000e+00" cType="1" res="-9.9000000000000000e+01" rms="0.0000000000000000e+00" purity="4.6651530265808105e-01" nType="-1"/>
        </Node>
      </Node>
    </BinaryTree>
    <BinaryTree type="DecisionTree" boostWeight="1.2711241063684700e-01" itree="23">
      <Node pos="s" depth="0" NCoef="0" IVar="47" Cut="1.4216636121273041e-01" cType="0" res="-9.9000000000000000e+01" rms="0.0000000000000000e+00" purity="5.0720345973968506e-01" nType="0">
        <Node pos="l" depth="1" NCoef="0" IVar="-1" Cut="9.0054833889007568e-01" cType="0" res="-9.9000000000000000e+01" rms="0.0000000000000000e+00" purity="5.4193300008773804e-01" nType="1"/>
        <Node pos="r" depth="1" NCoef="0" IVar="1" Cut="1.3905145263671875e+02" cType="0" res="-9.9000000000000000e+01" rms="0.0000000000000000e+00" purity="3.9754617214202881e-01" nType="0">
          <Node pos="l" depth="2" NCoef="0" IVar="-1" Cut="0.0000000000000000e+00" cType="1" res="-9.9000000000000000e+01" rms="0.0000000000000000e+00" purity="5.6915193796157837e-01" nType="1"/>
          <Node pos="r" depth="2" NCoef="0" IVar="-1" Cut="0.0000000000000000e+00" cType="1" res="-9.9000000000000000e+01" rms="0.0000000000000000e+00" purity="3.5405728220939636e-01" nType="-1"/>
        </Node>
      </Node>
    </BinaryTree>
    <BinaryTree type="DecisionTree" boostWeight="1.5812917129688128e-01" itree="24">
      <Node pos="s" depth="0" NCoef="0" IVar="54" Cut="9.0109616518020630e-01" cType="0" res="-9.9000000000000000e+01" rms="0.0000000000000000e+00" purity="4.8954480886459351e-01" nType="0">
        <Node pos="l" depth="1" NCoef="0" IVar="-1" Cut="4.9493225097656250e+02" cType="0" res="-9.9000000000000000e+01" rms="0.0000000000000000e+00" purity="6.6875845193862915e-01" nType="1"/>
        <Node pos="r" depth="1" NCoef="0" IVar="20" Cut="1.8001675415039062e+02" cType="0" res="-9.9000000000000000e+01" rms="0.0000000000000000e+00" purity="4.6602866053581238e-01" nType="0">
          <Node pos="l" depth="2" NCoef="0" IVar="-1" Cut="0.0000000000000000e+00" cType="1" res="-9.9000000000000000e+01" rms="0.0000000000000000e+00" purity="6.1065495014190674e-01" nType="1"/>
          <Node pos="r" depth="2" NCoef="0" IVar="-1" Cut="0.0000000000000000e+00" cType="1" res="-9.9000000000000000e+01" rms="0.0000000000000000e+00" purity="4.4105708599090576e-01" nType="-1"/>
        </Node>
      </Node>
    </BinaryTree>
    <BinaryTree type="DecisionTree" boostWeight="1.2811024401606733e-01" itree="25">
      <Node pos="s" depth="0" NCoef="0" IVar="48" Cut="2.8291925787925720e-01" cType="0" res="-9.9000000000000000e+01" rms="0.0000000000000000e+00" purity="5.1198399066925049e-01" nType="0">
        <Node pos="l" depth="1" NCoef="0" IVar="-1" Cut="9.0000000000000000e+00" cType="0" res="-9.9000000000000000e+01" rms="0.0000000000000000e+00" purity="6.3933205604553223e-01" nType="1"/>
        <Node pos="r" depth="1" NCoef="0" IVar="1" Cut="1.7449493408203125e+02" cType="0" res="-9.9000000000000000e+01" rms="0.0000000000000000e+00" purity="4.8442259430885315e-01" nType="0">
          <Node pos="l" depth="2" NCoef="0" IVar="-1" Cut="0.0000000000000000e+00" cType="1" res="-9.9000000000000000e+01" rms="0.0000000000000000e+00" purity="6.7773574590682983e-01" nType="1"/>
          <Node pos="r" depth="2" NCoef="0" IVar="-1" Cut="0.0000000000000000e+00" cType="1" res="-9.9000000000000000e+01" rms="0.0000000000000000e+00" purity="4.6545466780662537e-01" nType="-1"/>
        </Node>
      </Node>
    </BinaryTree>
    <BinaryTree type="DecisionTree" boostWeight="1.0296074812415022e-01" itree="26">
      <Node pos="s" depth="0" NCoef="0" IVar="55" Cut="4.1329717636108398e-01" cType="0" res="-9.9000000000000000e+01" rms="0.0000000000000000e+00" purity="5.1549994945526123e-01" nType="0">
        <Node pos="l" depth="1" NCoef="0" IVar="-1" Cut="0.0000000000000000e+00" cType="1" res="-9.9000000000000000e+01" rms="0.0000000000000000e+00" purity="7.1160149574279785e-01" nType="1"/>
        <Node pos="r" depth="1" NCoef="0" IVar="58" Cut="1.9047619402408600e-01" cType="0" res="-9.9000000000000000e+01" rms="0.0000000000000000e+00" purity="5.0048917531967163e-01" nType="0">
          <Node pos="l" depth="2" NCoef="0" IVar="-1" Cut="0.0000000000000000e+00" cType="1" res="-9.9000000000000000e+01" rms="0.0000000000000000e+00" purity="6.2646108865737915e-01" nType="1"/>
          <Node pos="r" depth="2" NCoef="0" IVar="-1" Cut="0.0000000000000000e+00" cType="1" res="-9.9000000000000000e+01" rms="0.0000000000000000e+00" purity="4.7716185450553894e-01" nType="-1"/>
        </Node>
      </Node>
    </BinaryTree>
    <BinaryTree type="DecisionTree" boostWeight="1.1061303098020564e-01" itree="27">
      <Node pos="s" depth="0" NCoef="0" IVar="22" Cut="5.1989587402343750e+02" cType="0" res="-9.9000000000000000e+01" rms="0.0000000000000000e+00" purity="5.2464646100997925e-01" nType="0">
        <Node pos="l" depth="1" NCoef="0" IVar="-1" Cut="4.7556497192382812e+02" cType="1" res="-9.9000000000000000e+01" rms="0.0000000000000000e+00" purity="5.8084380626678467e-01" nType="1"/>
        <Node pos="r" depth="1" NCoef="0" IVar="-1" Cut="8.7034101486206055e+00" cType="0" res="-9.9000000000000000e+01" rms="0.0000000000000000e+00" purity="4.6997854113578796e-01" nType="-1"/>
      </Node>
    </BinaryTree>
    <BinaryTree type="DecisionTree" boostWeight="1.2876446029078792e-01" itree="28">
      <Node pos="s" depth="0" NCoef="0" IVar="52" Cut="4.1086312383413315e-02" cType="0" res="-9.9000000000000000e+01" rms="0.0000000000000000e+00" purity="5.2452009916305542e-01" nType="0">
        <Node pos="l" depth="1" NCoef="0" IVar="-1" Cut="1.4001074218750000e+02" cType="0" res="-9.9000000000000000e+01" rms="0.0000000000000000e+00" purity="5.7649660110473633e-01" nType="1"/>
        <Node pos="r" depth="1" NCoef="0" IVar="-1" Cut="3.5037357330322266e+01" cType="0" res="-9.9000000000000000e+01" rms="0.0000000000000000e+00" purity="4.5310252904891968e-01" nType="-1"/>
      </Node>
    </BinaryTree>
    <BinaryTree type="DecisionTree" boostWeight="1.0402553132075976e-01" itree="29">
      <Node pos="s" depth="0" NCoef="0" IVar="20" Cut="1.0977185821533203e+02" cType="0" res="-9.9000000000000000e+01" rms="0.0000000000000000e+00" purity="5.2469885349273682e-01" nType="0">
        <Node pos="l" depth="1" NCoef="0" IVar="-1" Cut="1.2353688812255859e+02" cType="0" res="-9.9000000000000000e+01" rms="0.0000000000000000e+00" purity="5.7604479789733887e-01" nType="1"/>
        <Node pos="r" depth="1" NCoef="0" IVar="-1" Cut="3.4135826110839844e+01" cType="0" res="-9.9000000000000000e+01" rms="0.0000000000000000e+00" purity="4.7270062565803528e-01" nType="-1"/>
      </Node>
    </BinaryTree>
    <BinaryTree type="DecisionTree" boostWeight="9.1411162222317779e-02" itree="30">
      <Node pos="s" depth="0" NCoef="0" IVar="53" Cut="4.2837765812873840e-01" cType="0" res="-9.9000000000000000e+01" rms="0.0000000000000000e+00" purity="5.2096712589263916e-01" nType="0">
        <Node pos="l" depth="1" NCoef="0" IVar="-1" Cut="1.5777967834472656e+02" cType="0" res="-9.9000000000000000e+01" rms="0.0000000000000000e+00" purity="5.3663367033004761e-01" nType="1"/>
        <Node pos="r" depth="1" NCoef="0" IVar="-1" Cut="1.4852409362792969e+00" cType="0" res="-9.9000000000000000e+01" rms="0.0000000000000000e+00" purity="3.6586284637451172e-01" nType="-1"/>
      </Node>
    </BinaryTree>
    <BinaryTree type="DecisionTree" boostWeight="1.3142202980868367e-01" itree="31">
      <Node pos="s" depth="0" NCoef="0" IVar="30" Cut="1.6136053466796875e+02" cType="0" res="-9.9000000000000000e+01" rms="0.0000000000000000e+00" purity="5.1355236768722534e-01" nType="0">
        <Node pos="l" depth="1" NCoef="0" IVar="-1" Cut="6.1301201581954956e-01" cType="0" res="-9.9000000000000000e+01" rms="0.0000000000000000e+00" purity="5.5553191900253296e-01" nType="1"/>
        <Node pos="r" depth="1" NCoef="0" IVar="47" Cut="7.1332937479019165e-01" cType="0" res="-9.9000000000000000e+01" rms="0.0000000000000000e+00" purity="4.5542043447494507e-01" nType="0">
          <Node pos="l" depth="2" NCoef="0" IVar="-1" Cut="0.0000000000000000e+00" cType="1" res="-9.9000000000000000e+01" rms="0.0000000000000000e+00" purity="6.2526899576187134e-01" nType="1"/>
          <Node pos="r" depth="2" NCoef="0" IVar="-1" Cut="0.0000000000000000e+00" cType="1" res="-9.9000000000000000e+01" rms="0.0000000000000000e+00" purity="4.2845046520233154e-01" nType="-1"/>
        </Node>
      </Node>
    </BinaryTree>
    <BinaryTree type="DecisionTree" boostWeight="9.1652784893304515e-02" itree="32">
      <Node pos="s" depth="0" NCoef="0" IVar="33" Cut="1.9545152664184570e+01" cType="0" res="-9.9000000000000000e+01" rms="0.0000000000000000e+00" purity="5.1019603013992310e-01" nType="0">
        <Node pos="l" depth="1" NCoef="0" IVar="20" Cut="1.4190048217773438e+02" cType="0" res="-9.9000000000000000e+01" rms="0.0000000000000000e+00" purity="5.2075427770614624e-01" nType="0">
          <Node pos="l" depth="2" NCoef="0" IVar="-1" Cut="0.0000000000000000e+00" cType="1" res="-9.9000000000000000e+01" rms="0.0000000000000000e+00" purity="6.0019993782043457e-01" nType="1"/>
          <Node pos="r" depth="2" NCoef="0" IVar="-1" Cut="0.0000000000000000e+00" cType="1" res="-9.9000000000000000e+01" rms="0.0000000000000000e+00" purity="4.8833009600639343e-01" nType="-1"/>
        </Node>
        <Node pos="r" depth="1" NCoef="0" IVar="-1" Cut="0.0000000000000000e+00" cType="1" res="-9.9000000000000000e+01" rms="0.0000000000000000e+00" purity="2.4059556424617767e-01" nType="-1"/>
      </Node>
    </BinaryTree>
    <BinaryTree type="DecisionTree" boostWeight="1.0531285691854513e-01" itree="33">
      <Node pos="s" depth="0" NCoef="0" IVar="29" Cut="1.1651771545410156e+02" cType="0" res="-9.9000000000000000e+01" rms="0.0000000000000000e+00" purity="5.1169157028198242e-01" nType="0">
        <Node pos="l" depth="1" NCoef="0" IVar="-1" Cut="6.1946928501129150e-01" cType="0" res="-9.9000000000000000e+01" rms="0.0000000000000000e+00" purity="6.5566331148147583e-01" nType="1"/>
        <Node pos="r" depth="1" NCoef="0" IVar="60" Cut="3.3333332538604736e+00" cType="0" res="-9.9000000000000000e+01" rms="0.0000000000000000e+00" purity="4.9475836753845215e-01" nType="0">
          <Node pos="l" depth="2" NCoef="0" IVar="-1" Cut="0.0000000000000000e+00" cType="1" res="-9.9000000000000000e+01" rms="0.0000000000000000e+00" purity="6.2144267559051514e-01" nType="1"/>
          <Node pos="r" depth="2" NCoef="0" IVar="-1" Cut="0.0000000000000000e+00" cType="1" res="-9.9000000000000000e+01" rms="0.0000000000000000e+00" purity="4.7337034344673157e-01" nType="-1"/>
        </Node>
      </Node>
    </BinaryTree>
    <BinaryTree type="DecisionTree" boostWeight="9.8930893777210441e-02" itree="34">
      <Node pos="s" depth="0" NCoef="0" IVar="33" Cut="4.1277889251708984e+01" cType="0" res="-9.9000000000000000e+01" rms="0.0000000000000000e+00" purity="5.1937693357467651e-01" nType="0">
        <Node pos="l" depth="1" NCoef="0" IVar="24" Cut="1.2073590087890625e+02" cType="0" res="-9.9000000000000000e+01" rms="0.0000000000000000e+00" purity="5.3671479225158691e-01" nType="0">
          <Node pos="l" depth="2" NCoef="0" IVar="-1" Cut="0.0000000000000000e+00" cType="1" res="-9.9000000000000000e+01" rms="0.0000000000000000e+00" purity="5.8794575929641724e-01" nType="1"/>
          <Node pos="r" depth="2" NCoef="0" IVar="-1" Cut="0.0000000000000000e+00" cType="1" res="-9.9000000000000000e+01" rms="0.0000000000000000e+00" purity="4.9806597828865051e-01" nType="-1"/>
        </Node>
        <Node pos="r" depth="1" NCoef="0" IVar="44" Cut="1.1802099943161011e+00" cType="0" res="-9.9000000000000000e+01" rms="0.0000000000000000e+00" purity="3.8350054621696472e-01" nType="0">
          <Node pos="l" depth="2" NCoef="0" IVar="-1" Cut="0.0000000000000000e+00" cType="1" res="-9.9000000000000000e+01" rms="0.0000000000000000e+00" purity="5.2632147073745728e-01" nType="1"/>
          <Node pos="r" depth="2" NCoef="0" IVar="-1" Cut="0.0000000000000000e+00" cType="1" res="-9.9000000000000000e+01" rms="0.0000000000000000e+00" purity="3.3078020811080933e-01" nType="-1"/>
        </Node>
      </Node>
    </BinaryTree>
    <BinaryTree type="DecisionTree" boostWeight="1.1332270515839170e-01" itree="35">
      <Node pos="s" depth="0" NCoef="0" IVar="51" Cut="1.7758598923683167e-01" cType="0" res="-9.9000000000000000e+01" rms="0.0000000000000000e+00" purity="5.1791334152221680e-01" nType="0">
        <Node pos="l" depth="1" NCoef="0" IVar="-1" Cut="6.2949096679687500e+01" cType="0" res="-9.9000000000000000e+01" rms="0.0000000000000000e+00" purity="5.4632854461669922e-01" nType="1"/>
        <Node pos="r" depth="1" NCoef="0" IVar="1" Cut="1.3901028442382812e+02" cType="0" res="-9.9000000000000000e+01" rms="0.0000000000000000e+00" purity="4.3562513589859009e-01" nType="0">
          <Node pos="l" depth="2" NCoef="0" IVar="-1" Cut="0.0000000000000000e+00" cType="1" res="-9.9000000000000000e+01" rms="0.0000000000000000e+00" purity="5.5834627151489258e-01" nType="1"/>
          <Node pos="r" depth="2" NCoef="0" IVar="-1" Cut="0.0000000000000000e+00" cType="1" res="-9.9000000000000000e+01" rms="0.0000000000000000e+00" purity="4.0827116370201111e-01" nType="-1"/>
        </Node>
      </Node>
    </BinaryTree>
    <BinaryTree type="DecisionTree" boostWeight="6.9202603615432207e-02" itree="36">
      <Node pos="s" depth="0" NCoef="0" IVar="33" Cut="1.7564609527587891e+01" cType="0" res="-9.9000000000000000e+01" rms="0.0000000000000000e+00" purity="5.1589709520339966e-01" nType="0">
        <Node pos="l" depth="1" NCoef="0" IVar="-1" Cut="4.2628538608551025e-01" cType="0" res="-9.9000000000000000e+01" rms="0.0000000000000000e+00" purity="5.2618354558944702e-01" nType="1"/>
        <Node pos="r" depth="1" NCoef="0" IVar="-1" Cut="0.0000000000000000e+00" cType="1" res="-9.9000000000000000e+01" rms="0.0000000000000000e+00" purity="2.4617904424667358e-01" nType="-1"/>
      </Node>
    </BinaryTree>
    <BinaryTree type="DecisionTree" boostWeight="1.0252913606471337e-01" itree="37">
      <Node pos="s" depth="0" NCoef="0" IVar="33" Cut="1.9545152664184570e+01" cType="0" res="-9.9000000000000000e+01" rms="0.0000000000000000e+00" purity="5.0080567598342896e-01" nType="0">
        <Node pos="l" depth="1" NCoef="0" IVar="5" Cut="6.5218716859817505e-01" cType="0" res="-9.9000000000000000e+01" rms="0.0000000000000000e+00" purity="5.1020258665084839e-01" nType="0">
          <Node pos="l" depth="2" NCoef="0" IVar="-1" Cut="0.0000000000000000e+00" cType="1" res="-9.9000000000000000e+01" rms="0.0000000000000000e+00" purity="5.7046413421630859e-01" nType="1"/>
          <Node pos="r" depth="2" NCoef="0" IVar="-1" Cut="0.0000000000000000e+00" cType="1" res="-9.9000000000000000e+01" rms="0.0000000000000000e+00" purity="4.7294515371322632e-01" nType="-1"/>
        </Node>
        <Node pos="r" depth="1" NCoef="0" IVar="-1" Cut="0.0000000000000000e+00" cType="1" res="-9.9000000000000000e+01" rms="0.0000000000000000e+00" purity="2.5084203481674194e-01" nType="-1"/>
      </Node>
    </BinaryTree>
    <BinaryTree type="DecisionTree" boostWeight="1.1001752445447525e-01" itree="38">
      <Node pos="s" depth="0" NCoef="0" IVar="54" Cut="9.0109616518020630e-01" cType="0" res="-9.9000000000000000e+01" rms="0.0000000000000000e+00" purity="5.0727015733718872e-01" nType="0">
        <Node pos="l" depth="1" NCoef="0" IVar="-1" Cut="7.6232446289062500e+02" cType="0" res="-9.9000000000000000e+01" rms="0.0000000000000000e+00" purity="6.3405185937881470e-01" nType="1"/>
        <Node pos="r" depth="1" NCoef="0" IVar="3" Cut="1.5365221500396729e+00" cType="0" res="-9.9000000000000000e+01" rms="0.0000000000000000e+00" purity="4.9045783281326294e-01" nType="0">
          <Node pos="l" depth="2" NCoef="0" IVar="-1" Cut="0.0000000000000000e+00" cType="1" res="-9.9000000000000000e+01" rms="0.0000000000000000e+00" purity="5.4284191131591797e-01" nType="1"/>
          <Node pos="r" depth="2" NCoef="0" IVar="-1" Cut="0.0000000000000000e+00" cType="1" res="-9.9000000000000000e+01" rms="0.0000000000000000e+00" purity="4.5474490523338318e-01" nType="-1"/>
        </Node>
      </Node>
    </BinaryTree>
    <BinaryTree type="DecisionTree" boostWeight="6.0700756208211706e-02" itree="39">
      <Node pos="s" depth="0" NCoef="0" IVar="53" Cut="4.2818149924278259e-01" cType="0" res="-9.9000000000000000e+01" rms="0.0000000000000000e+00" purity="5.0407654047012329e-01" nType="0">
        <Node pos="l" depth="1" NCoef="0" IVar="-1" Cut="4.2560169100761414e-01" cType="0" res="-9.9000000000000000e+01" rms="0.0000000000000000e+00" purity="5.1884138584136963e-01" nType="1"/>
        <Node pos="r" depth="1" NCoef="0" IVar="-1" Cut="1.0745675563812256e+00" cType="0" res="-9.9000000000000000e+01" rms="0.0000000000000000e+00" purity="3.4988886117935181e-01" nType="-1"/>
      </Node>
    </BinaryTree>
    <BinaryTree type="DecisionTree" boostWeight="9.4199336014519894e-02" itree="40">
      <Node pos="s" depth="0" NCoef="0" IVar="1" Cut="1.4980876159667969e+02" cType="0" res="-9.9000000000000000e+01" rms="0.0000000000000000e+00" purity="5.0479686260223389e-01" nType="0">
        <Node pos="l" depth="1" NCoef="0" IVar="-1" Cut="1.7088143920898438e+02" cType="0" res="-9.9000000000000000e+01" rms="0.0000000000000000e+00" purity="6.1364024877548218e-01" nType="1"/>
        <Node pos="r" depth="1" NCoef="0" IVar="48" Cut="4.2558953166007996e-01" cType="0" res="-9.9000000000000000e+01" rms="0.0000000000000000e+00" purity="4.8827928304672241e-01" nType="0">
          <Node pos="l" depth="2" NCoef="0" IVar="-1" Cut="0.0000000000000000e+00" cType="1" res="-9.9000000000000000e+01" rms="0.0000000000000000e+00" purity="6.3163059949874878e-01" nType="1"/>
          <Node pos="r" depth="2" NCoef="0" IVar="-1" Cut="0.0000000000000000e+00" cType="1" res="-9.9000000000000000e+01" rms="0.0000000000000000e+00" purity="4.7315728664398193e-01" nType="-1"/>
        </Node>
      </Node>
    </BinaryTree>
    <BinaryTree type="DecisionTree" boostWeight="1.1985405423923573e-01" itree="41">
      <Node pos="s" depth="0" NCoef="0" IVar="33" Cut="8.1180610656738281e+01" cType="0" res="-9.9000000000000000e+01" rms="0.0000000000000000e+00" purity="5.0994086265563965e-01" nType="0">
        <Node pos="l" depth="1" NCoef="0" IVar="-1" Cut="8.0552095174789429e-01" cType="0" res="-9.9000000000000000e+01" rms="0.0000000000000000e+00" purity="5.7946044206619263e-01" nType="1"/>
        <Node pos="r" depth="1" NCoef="0" IVar="29" Cut="7.9791969299316406e+01" cType="0" res="-9.9000000000000000e+01" rms="0.0000000000000000e+00" purity="4.8105040192604065e-01" nType="0">
          <Node pos="l" depth="2" NCoef="0" IVar="-1" Cut="0.0000000000000000e+00" cType="1" res="-9.9000000000000000e+01" rms="0.0000000000000000e+00" purity="5.6253498792648315e-01" nType="1"/>
          <Node pos="r" depth="2" NCoef="0" IVar="-1" Cut="0.0000000000000000e+00" cType="1" res="-9.9000000000000000e+01" rms="0.0000000000000000e+00" purity="4.5249459147453308e-01" nType="-1"/>
        </Node>
      </Node>
    </BinaryTree>
    <BinaryTree type="DecisionTree" boostWeight="7.4624648251045936e-02" itree="42">
      <Node pos="s" depth="0" NCoef="0" IVar="49" Cut="6.0000000000000000e+00" cType="0" res="-9.9000000000000000e+01" rms="0.0000000000000000e+00" purity="5.1189202070236206e-01" nType="0">
        <Node pos="l" depth="1" NCoef="0" IVar="-1" Cut="2.2002157592773438e+02" cType="0" res="-9.9000000000000000e+01" rms="0.0000000000000000e+00" purity="5.2793347835540771e-01" nType="1"/>
        <Node pos="r" depth="1" NCoef="0" IVar="-1" Cut="8.5380321741104126e-01" cType="0" res="-9.9000000000000000e+01" rms="0.0000000000000000e+00" purity="3.9480432868003845e-01" nType="-1"/>
      </Node>
    </BinaryTree>
    <BinaryTree type="DecisionTree" boostWeight="4.4775086190545287e-02" itree="43">
      <Node pos="s" depth="0" NCoef="0" IVar="54" Cut="8.9967232942581177e-01" cType="0" res="-9.9000000000000000e+01" rms="0.0000000000000000e+00" purity="5.0884503126144409e-01" nType="0">
        <Node pos="l" depth="1" NCoef="0" IVar="-1" Cut="7.7591870117187500e+02" cType="0" res="-9.9000000000000000e+01" rms="0.0000000000000000e+00" purity="6.1503469944000244e-01" nType="1"/>
        <Node pos="r" depth="1" NCoef="0" IVar="33" Cut="2.0138944625854492e+01" cType="0" res="-9.9000000000000000e+01" rms="0.0000000000000000e+00" purity="4.9503302574157715e-01" nType="0">
          <Node pos="l" depth="2" NCoef="0" IVar="-1" Cut="0.0000000000000000e+00" cType="1" res="-9.9000000000000000e+01" rms="0.0000000000000000e+00" purity="5.0279068946838379e-01" nType="1"/>
          <Node pos="r" depth="2" NCoef="0" IVar="-1" Cut="0.0000000000000000e+00" cType="1" res="-9.9000000000000000e+01" rms="0.0000000000000000e+00" purity="3.1306055188179016e-01" nType="-1"/>
        </Node>
      </Node>
    </BinaryTree>
    <BinaryTree type="DecisionTree" boostWeight="8.4229553023733042e-02" itree="44">
      <Node pos="s" depth="0" NCoef="0" IVar="58" Cut="1.9047619402408600e-01" cType="0" res="-9.9000000000000000e+01" rms="0.0000000000000000e+00" purity="4.9015745520591736e-01" nType="0">
        <Node pos="l" depth="1" NCoef="0" IVar="-1" Cut="5.2000087499618530e-01" cType="0" res="-9.9000000000000000e+01" rms="0.0000000000000000e+00" purity="5.8863908052444458e-01" nType="1"/>
        <Node pos="r" depth="1" NCoef="0" IVar="16" Cut="4.2157571411132812e+02" cType="1" res="-9.9000000000000000e+01" rms="0.0000000000000000e+00" purity="4.7229713201522827e-01" nType="0">
          <Node pos="l" depth="2" NCoef="0" IVar="-1" Cut="0.0000000000000000e+00" cType="1" res="-9.9000000000000000e+01" rms="0.0000000000000000e+00" purity="5.0439739227294922e-01" nType="1"/>
          <Node pos="r" depth="2" NCoef="0" IVar="-1" Cut="0.0000000000000000e+00" cType="1" res="-9.9000000000000000e+01" rms="0.0000000000000000e+00" purity="4.0829440951347351e-01" nType="-1"/>
        </Node>
      </Node>
    </BinaryTree>
    <BinaryTree type="DecisionTree" boostWeight="8.5331322252976377e-02" itree="45">
      <Node pos="s" depth="0" NCoef="0" IVar="55" Cut="4.1487580537796021e-01" cType="0" res="-9.9000000000000000e+01" rms="0.0000000000000000e+00" purity="4.9799543619155884e-01" nType="0">
        <Node pos="l" depth="1" NCoef="0" IVar="-1" Cut="0.0000000000000000e+00" cType="1" res="-9.9000000000000000e+01" rms="0.0000000000000000e+00" purity="6.3667386770248413e-01" nType="1"/>
        <Node pos="r" depth="1" NCoef="0" IVar="24" Cut="1.7293180847167969e+02" cType="0" res="-9.9000000000000000e+01" rms="0.0000000000000000e+00" purity="4.8835328221321106e-01" nType="0">
          <Node pos="l" depth="2" NCoef="0" IVar="-1" Cut="0.0000000000000000e+00" cType="1" res="-9.9000000000000000e+01" rms="0.0000000000000000e+00" purity="5.5578982830047607e-01" nType="1"/>
          <Node pos="r" depth="2" NCoef="0" IVar="-1" Cut="0.0000000000000000e+00" cType="1" res="-9.9000000000000000e+01" rms="0.0000000000000000e+00" purity="4.6950656175613403e-01" nType="-1"/>
        </Node>
      </Node>
    </BinaryTree>
    <BinaryTree type="DecisionTree" boostWeight="7.8336022968730254e-02" itree="46">
      <Node pos="s" depth="0" NCoef="0" IVar="20" Cut="1.9341574096679688e+02" cType="0" res="-9.9000000000000000e+01" rms="0.0000000000000000e+00" purity="5.0416076183319092e-01" nType="0">
        <Node pos="l" depth="1" NCoef="0" IVar="-1" Cut="1.6427418518066406e+02" cType="0" res="-9.9000000000000000e+01" rms="0.0000000000000000e+00" purity="6.0862708091735840e-01" nType="1"/>
        <Node pos="r" depth="1" NCoef="0" IVar="49" Cut="1.0000000000000000e+01" cType="0" res="-9.9000000000000000e+01" rms="0.0000000000000000e+00" purity="4.9074232578277588e-01" nType="0">
          <Node pos="l" depth="2" NCoef="0" IVar="-1" Cut="0.0000000000000000e+00" cType="1" res="-9.9000000000000000e+01" rms="0.0000000000000000e+00" purity="6.0611104965209961e-01" nType="1"/>
          <Node pos="r" depth="2" NCoef="0" IVar="-1" Cut="0.0000000000000000e+00" cType="1" res="-9.9000000000000000e+01" rms="0.0000000000000000e+00" purity="4.7814062237739563e-01" nType="-1"/>
        </Node>
      </Node>
    </BinaryTree>
    <BinaryTree type="DecisionTree" boostWeight="8.6874777854724583e-02" itree="47">
      <Node pos="s" depth="0" NCoef="0" IVar="48" Cut="4.2628538608551025e-01" cType="0" res="-9.9000000000000000e+01" rms="0.0000000000000000e+00" purity="5.0165206193923950e-01" nType="0">
        <Node pos="l" depth="1" NCoef="0" IVar="-1" Cut="0.0000000000000000e+00" cType="1" res="-9.9000000000000000e+01" rms="0.0000000000000000e+00" purity="6.2580990791320801e-01" nType="1"/>
        <Node pos="r" depth="1" NCoef="0" IVar="58" Cut="1.4285714924335480e-01" cType="0" res="-9.9000000000000000e+01" rms="0.0000000000000000e+00" purity="4.8918396234512329e-01" nType="0">
          <Node pos="l" depth="2" NCoef="0" IVar="-1" Cut="0.0000000000000000e+00" cType="1" res="-9.9000000000000000e+01" rms="0.0000000000000000e+00" purity="5.7756912708282471e-01" nType="1"/>
          <Node pos="r" depth="2" NCoef="0" IVar="-1" Cut="0.0000000000000000e+00" cType="1" res="-9.9000000000000000e+01" rms="0.0000000000000000e+00" purity="4.7282502055168152e-01" nType="-1"/>
        </Node>
      </Node>
    </BinaryTree>
    <BinaryTree type="DecisionTree" boostWeight="9.2618352147007824e-02" itree="48">
      <Node pos="s" depth="0" NCoef="0" IVar="34" Cut="1.3321174621582031e+01" cType="0" res="-9.9000000000000000e+01" rms="0.0000000000000000e+00" purity="5.1129060983657837e-01" nType="0">
        <Node pos="l" depth="1" NCoef="0" IVar="37" Cut="2.1582336425781250e+02" cType="0" res="-9.9000000000000000e+01" rms="0.0000000000000000e+00" purity="5.2565437555313110e-01" nType="0">
          <Node pos="l" depth="2" NCoef="0" IVar="-1" Cut="0.0000000000000000e+00" cType="1" res="-9.9000000000000000e+01" rms="0.0000000000000000e+00" purity="5.5714881420135498e-01" nType="1"/>
          <Node pos="r" depth="2" NCoef="0" IVar="-1" Cut="0.0000000000000000e+00" cType="1" res="-9.9000000000000000e+01" rms="0.0000000000000000e+00" purity="4.8408791422843933e-01" nType="-1"/>
        </Node>
        <Node pos="r" depth="1" NCoef="0" IVar="-1" Cut="1.1049541234970093e+00" cType="0" res="-9.9000000000000000e+01" rms="0.0000000000000000e+00" purity="4.0209543704986572e-01" nType="-1"/>
      </Node>
    </BinaryTree>
    <BinaryTree type="DecisionTree" boostWeight="8.8734197306798088e-02" itree="49">
      <Node pos="s" depth="0" NCoef="0" IVar="53" Cut="6.1860567331314087e-01" cType="0" res="-9.9000000000000000e+01" rms="0.0000000000000000e+00" purity="5.1558554172515869e-01" nType="0">
        <Node pos="l" depth="1" NCoef="0" IVar="20" Cut="1.0019631958007812e+02" cType="0" res="-9.9000000000000000e+01" rms="0.0000000000000000e+00" purity="5.2876639366149902e-01" nType="0">
          <Node pos="l" depth="2" NCoef="0" IVar="-1" Cut="0.0000000000000000e+00" cType="1" res="-9.9000000000000000e+01" rms="0.0000000000000000e+00" purity="5.5995023250579834e-01" nType="1"/>
          <Node pos="r" depth="2" NCoef="0" IVar="-1" Cut="0.0000000000000000e+00" cType="1" res="-9.9000000000000000e+01" rms="0.0000000000000000e+00" purity="4.8718422651290894e-01" nType="-1"/>
        </Node>
        <Node pos="r" depth="1" NCoef="0" IVar="-1" Cut="9.5956659317016602e-01" cType="0" res="-9.9000000000000000e+01" rms="0.0000000000000000e+00" purity="4.2472845315933228e-01" nType="-1"/>
      </Node>
    </BinaryTree>
    <BinaryTree type="DecisionTree" boostWeight="1.0414722937893359e-01" itree="50">
      <Node pos="s" depth="0" NCoef="0" IVar="16" Cut="5.2910333251953125e+02" cType="1" res="-9.9000000000000000e+01" rms="0.0000000000000000e+00" purity="5.1285547018051147e-01" nType="0">
        <Node pos="l" depth="1" NCoef="0" IVar="16" Cut="1.9686793518066406e+02" cType="0" res="-9.9000000000000000e+01" rms="0.0000000000000000e+00" purity="5.3230017423629761e-01" nType="0">
          <Node pos="l" depth="2" NCoef="0" IVar="-1" Cut="0.0000000000000000e+00" cType="1" res="-9.9000000000000000e+01" rms="0.0000000000000000e+00" purity="5.5518662929534912e-01" nType="1"/>
          <Node pos="r" depth="2" NCoef="0" IVar="-1" Cut="0.0000000000000000e+00" cType="1" res="-9.9000000000000000e+01" rms="0.0000000000000000e+00" purity="4.6021258831024170e-01" nType="-1"/>
        </Node>
        <Node pos="r" depth="1" NCoef="0" IVar="-1" Cut="3.3286356925964355e-01" cType="0" res="-9.9000000000000000e+01" rms="0.0000000000000000e+00" purity="4.4671806693077087e-01" nType="-1"/>
      </Node>
    </BinaryTree>
    <BinaryTree type="DecisionTree" boostWeight="4.4417511420462651e-02" itree="51">
      <Node pos="s" depth="0" NCoef="0" IVar="53" Cut="4.7354977577924728e-02" cType="0" res="-9.9000000000000000e+01" rms="0.0000000000000000e+00" purity="5.0534379482269287e-01" nType="0">
        <Node pos="l" depth="1" NCoef="0" IVar="47" Cut="7.1352082490921021e-01" cType="0" res="-9.9000000000000000e+01" rms="0.0000000000000000e+00" purity="5.1343786716461182e-01" nType="0">
          <Node pos="l" depth="2" NCoef="0" IVar="-1" Cut="0.0000000000000000e+00" cType="1" res="-9.9000000000000000e+01" rms="0.0000000000000000e+00" purity="5.9996050596237183e-01" nType="1"/>
          <Node pos="r" depth="2" NCoef="0" IVar="-1" Cut="0.0000000000000000e+00" cType="1" res="-9.9000000000000000e+01" rms="0.0000000000000000e+00" purity="4.9886530637741089e-01" nType="-1"/>
        </Node>
        <Node pos="r" depth="1" NCoef="0" IVar="-1" Cut="0.0000000000000000e+00" cType="1" res="-9.9000000000000000e+01" rms="0.0000000000000000e+00" purity="3.3121377229690552e-01" nType="-1"/>
      </Node>
    </BinaryTree>
    <BinaryTree type="DecisionTree" boostWeight="7.3231444259469952e-02" itree="52">
      <Node pos="s" depth="0" NCoef="0" IVar="52" Cut="6.0646615922451019e-02" cType="0" res="-9.9000000000000000e+01" rms="0.0000000000000000e+00" purity="5.0553804636001587e-01" nType="0">
        <Node pos="l" depth="1" NCoef="0" IVar="-1" Cut="3.7430573254823685e-02" cType="0" res="-9.9000000000000000e+01" rms="0.0000000000000000e+00" purity="5.4962742328643799e-01" nType="1"/>
        <Node pos="r" depth="1" NCoef="0" IVar="-1" Cut="1.4270213246345520e-01" cType="0" res="-9.9000000000000000e+01" rms="0.0000000000000000e+00" purity="4.7307750582695007e-01" nType="-1"/>
      </Node>
    </BinaryTree>
    <BinaryTree type="DecisionTree" boostWeight="7.2805726713175645e-02" itree="53">
      <Node pos="s" depth="0" NCoef="0" IVar="33" Cut="1.9545152664184570e+01" cType="0" res="-9.9000000000000000e+01" rms="0.0000000000000000e+00" purity="5.1387041807174683e-01" nType="0">
        <Node pos="l" depth="1" NCoef="0" IVar="24" Cut="1.2073568725585938e+02" cType="0" res="-9.9000000000000000e+01" rms="0.0000000000000000e+00" purity="5.2056545019149780e-01" nType="0">
          <Node pos="l" depth="2" NCoef="0" IVar="-1" Cut="0.0000000000000000e+00" cType="1" res="-9.9000000000000000e+01" rms="0.0000000000000000e+00" purity="5.5921030044555664e-01" nType="1"/>
          <Node pos="r" depth="2" NCoef="0" IVar="-1" Cut="0.0000000000000000e+00" cType="1" res="-9.9000000000000000e+01" rms="0.0000000000000000e+00" purity="4.9031463265419006e-01" nType="-1"/>
        </Node>
        <Node pos="r" depth="1" NCoef="0" IVar="-1" Cut="0.0000000000000000e+00" cType="1" res="-9.9000000000000000e+01" rms="0.0000000000000000e+00" purity="3.2577788829803467e-01" nType="-1"/>
      </Node>
    </BinaryTree>
    <BinaryTree type="DecisionTree" boostWeight="1.0479733473324782e-01" itree="54">
      <Node pos="s" depth="0" NCoef="0" IVar="54" Cut="1.4048913121223450e-01" cType="0" res="-9.9000000000000000e+01" rms="0.0000000000000000e+00" purity="5.1092559099197388e-01" nType="0">
        <Node pos="l" depth="1" NCoef="0" IVar="36" Cut="6.9043296813964844e+01" cType="0" res="-9.9000000000000000e+01" rms="0.0000000000000000e+00" purity="5.3987163305282593e-01" nType="0">
          <Node pos="l" depth="2" NCoef="0" IVar="-1" Cut="0.0000000000000000e+00" cType="1" res="-9.9000000000000000e+01" rms="0.0000000000000000e+00" purity="5.7382923364639282e-01" nType="1"/>
          <Node pos="r" depth="2" NCoef="0" IVar="-1" Cut="0.0000000000000000e+00" cType="1" res="-9.9000000000000000e+01" rms="0.0000000000000000e+00" purity="4.9689894914627075e-01" nType="-1"/>
        </Node>
        <Node pos="r" depth="1" NCoef="0" IVar="19" Cut="1.2413913011550903e+00" cType="0" res="-9.9000000000000000e+01" rms="0.0000000000000000e+00" purity="4.6847102046012878e-01" nType="0">
          <Node pos="l" depth="2" NCoef="0" IVar="-1" Cut="0.0000000000000000e+00" cType="1" res="-9.9000000000000000e+01" rms="0.0000000000000000e+00" purity="5.4480308294296265e-01" nType="1"/>
          <Node pos="r" depth="2" NCoef="0" IVar="-1" Cut="0.0000000000000000e+00" cType="1" res="-9.9000000000000000e+01" rms="0.0000000000000000e+00" purity="4.2010164260864258e-01" nType="-1"/>
        </Node>
      </Node>
    </BinaryTree>
    <BinaryTree type="DecisionTree" boostWeight="6.1711704482068995e-02" itree="55">
      <Node pos="s" depth="0" NCoef="0" IVar="54" Cut="9.0054833889007568e-01" cType="0" res="-9.9000000000000000e+01" rms="0.0000000000000000e+00" purity="5.1429194211959839e-01" nType="0">
        <Node pos="l" depth="1" NCoef="0" IVar="-1" Cut="9.3675118684768677e-01" cType="0" res="-9.9000000000000000e+01" rms="0.0000000000000000e+00" purity="6.0496896505355835e-01" nType="1"/>
        <Node pos="r" depth="1" NCoef="0" IVar="5" Cut="7.6858216524124146e-01" cType="0" res="-9.9000000000000000e+01" rms="0.0000000000000000e+00" purity="5.0263583660125732e-01" nType="0">
          <Node pos="l" depth="2" NCoef="0" IVar="-1" Cut="0.0000000000000000e+00" cType="1" res="-9.9000000000000000e+01" rms="0.0000000000000000e+00" purity="5.7834196090698242e-01" nType="1"/>
          <Node pos="r" depth="2" NCoef="0" IVar="-1" Cut="0.0000000000000000e+00" cType="1" res="-9.9000000000000000e+01" rms="0.0000000000000000e+00" purity="4.8899546265602112e-01" nType="-1"/>
        </Node>
      </Node>
    </BinaryTree>
    <BinaryTree type="DecisionTree" boostWeight="7.8254566843553086e-02" itree="56">
      <Node pos="s" depth="0" NCoef="0" IVar="33" Cut="4.1277889251708984e+01" cType="0" res="-9.9000000000000000e+01" rms="0.0000000000000000e+00" purity="5.1813983917236328e-01" nType="0">
        <Node pos="l" depth="1" NCoef="0" IVar="-1" Cut="2.2380102539062500e+02" cType="0" res="-9.9000000000000000e+01" rms="0.0000000000000000e+00" purity="5.3102058172225952e-01" nType="1"/>
        <Node pos="r" depth="1" NCoef="0" IVar="19" Cut="1.5368378162384033e+00" cType="0" res="-9.9000000000000000e+01" rms="0.0000000000000000e+00" purity="4.1013127565383911e-01" nType="0">
          <Node pos="l" depth="2" NCoef="0" IVar="-1" Cut="0.0000000000000000e+00" cType="1" res="-9.9000000000000000e+01" rms="0.0000000000000000e+00" purity="5.2898734807968140e-01" nType="1"/>
          <Node pos="r" depth="2" NCoef="0" IVar="-1" Cut="0.0000000000000000e+00" cType="1" res="-9.9000000000000000e+01" rms="0.0000000000000000e+00" purity="3.6289691925048828e-01" nType="-1"/>
        </Node>
      </Node>
    </BinaryTree>
    <BinaryTree type="DecisionTree" boostWeight="6.0469560341473730e-02" itree="57">
      <Node pos="s" depth="0" NCoef="0" IVar="47" Cut="1.4226071536540985e-01" cType="0" res="-9.9000000000000000e+01" rms="0.0000000000000000e+00" purity="5.0488537549972534e-01" nType="0">
        <Node pos="l" depth="1" NCoef="0" IVar="-1" Cut="6.4414654541015625e+02" cType="0" res="-9.9000000000000000e+01" rms="0.0000000000000000e+00" purity="5.2306610345840454e-01" nType="1"/>
        <Node pos="r" depth="1" NCoef="0" IVar="-1" Cut="3.9402283728122711e-02" cType="0" res="-9.9000000000000000e+01" rms="0.0000000000000000e+00" purity="4.4715610146522522e-01" nType="-1"/>
      </Node>
    </BinaryTree>
    <BinaryTree type="DecisionTree" boostWeight="7.7130291947161270e-02" itree="58">
      <Node pos="s" depth="0" NCoef="0" IVar="47" Cut="8.5626608133316040e-01" cType="0" res="-9.9000000000000000e+01" rms="0.0000000000000000e+00" purity="5.1475572586059570e-01" nType="0">
        <Node pos="l" depth="1" NCoef="0" IVar="-1" Cut="0.0000000000000000e+00" cType="1" res="-9.9000000000000000e+01" rms="0.0000000000000000e+00" purity="6.1403280496597290e-01" nType="1"/>
        <Node pos="r" depth="1" NCoef="0" IVar="48" Cut="3.7526112049818039e-02" cType="0" res="-9.9000000000000000e+01" rms="0.0000000000000000e+00" purity="5.0699126720428467e-01" nType="0">
          <Node pos="l" depth="2" NCoef="0" IVar="-1" Cut="0.0000000000000000e+00" cType="1" res="-9.9000000000000000e+01" rms="0.0000000000000000e+00" purity="5.2246332168579102e-01" nType="1"/>
          <Node pos="r" depth="2" NCoef="0" IVar="-1" Cut="0.0000000000000000e+00" cType="1" res="-9.9000000000000000e+01" rms="0.0000000000000000e+00" purity="3.9265578985214233e-01" nType="-1"/>
        </Node>
      </Node>
    </BinaryTree>
    <BinaryTree type="DecisionTree" boostWeight="6.7560113182775799e-02" itree="59">
      <Node pos="s" depth="0" NCoef="0" IVar="55" Cut="4.1487580537796021e-01" cType="0" res="-9.9000000000000000e+01" rms="0.0000000000000000e+00" purity="4.9589785933494568e-01" nType="0">
        <Node pos="l" depth="1" NCoef="0" IVar="-1" Cut="0.0000000000000000e+00" cType="1" res="-9.9000000000000000e+01" rms="0.0000000000000000e+00" purity="6.1819803714752197e-01" nType="1"/>
        <Node pos="r" depth="1" NCoef="0" IVar="43" Cut="5.0745776367187500e+02" cType="0" res="-9.9000000000000000e+01" rms="0.0000000000000000e+00" purity="4.8722299933433533e-01" nType="0">
          <Node pos="l" depth="2" NCoef="0" IVar="-1" Cut="0.0000000000000000e+00" cType="1" res="-9.9000000000000000e+01" rms="0.0000000000000000e+00" purity="5.5334669351577759e-01" nType="1"/>
          <Node pos="r" depth="2" NCoef="0" IVar="-1" Cut="0.0000000000000000e+00" cType="1" res="-9.9000000000000000e+01" rms="0.0000000000000000e+00" purity="4.7643926739692688e-01" nType="-1"/>
        </Node>
      </Node>
    </BinaryTree>
    <BinaryTree type="DecisionTree" boostWeight="5.4955457703701777e-02" itree="60">
      <Node pos="s" depth="0" NCoef="0" IVar="20" Cut="2.0931507873535156e+02" cType="0" res="-9.9000000000000000e+01" rms="0.0000000000000000e+00" purity="5.0718867778778076e-01" nType="0">
        <Node pos="l" depth="1" NCoef="0" IVar="-1" Cut="8.0859237909317017e-01" cType="0" res="-9.9000000000000000e+01" rms="0.0000000000000000e+00" purity="5.9795743227005005e-01" nType="1"/>
        <Node pos="r" depth="1" NCoef="0" IVar="1" Cut="1.5133541870117188e+02" cType="0" res="-9.9000000000000000e+01" rms="0.0000000000000000e+00" purity="4.9867227673530579e-01" nType="0">
          <Node pos="l" depth="2" NCoef="0" IVar="-1" Cut="0.0000000000000000e+00" cType="1" res="-9.9000000000000000e+01" rms="0.0000000000000000e+00" purity="5.8309751749038696e-01" nType="1"/>
          <Node pos="r" depth="2" NCoef="0" IVar="-1" Cut="0.0000000000000000e+00" cType="1" res="-9.9000000000000000e+01" rms="0.0000000000000000e+00" purity="4.8744511604309082e-01" nType="-1"/>
        </Node>
      </Node>
    </BinaryTree>
    <BinaryTree type="DecisionTree" boostWeight="7.9434201550888497e-02" itree="61">
      <Node pos="s" depth="0" NCoef="0" IVar="24" Cut="1.7786264038085938e+02" cType="0" res="-9.9000000000000000e+01" rms="0.0000000000000000e+00" purity="5.0986021757125854e-01" nType="0">
        <Node pos="l" depth="1" NCoef="0" IVar="20" Cut="1.0898271179199219e+02" cType="0" res="-9.9000000000000000e+01" rms="0.0000000000000000e+00" purity="5.7265722751617432e-01" nType="0">
          <Node pos="l" depth="2" NCoef="0" IVar="-1" Cut="0.0000000000000000e+00" cType="1" res="-9.9000000000000000e+01" rms="0.0000000000000000e+00" purity="6.8441379070281982e-01" nType="1"/>
          <Node pos="r" depth="2" NCoef="0" IVar="-1" Cut="0.0000000000000000e+00" cType="1" res="-9.9000000000000000e+01" rms="0.0000000000000000e+00" purity="4.7736832499504089e-01" nType="-1"/>
        </Node>
        <Node pos="r" depth="1" NCoef="0" IVar="51" Cut="2.2392031550407410e-01" cType="0" res="-9.9000000000000000e+01" rms="0.0000000000000000e+00" purity="4.9355262517929077e-01" nType="0">
          <Node pos="l" depth="2" NCoef="0" IVar="-1" Cut="0.0000000000000000e+00" cType="1" res="-9.9000000000000000e+01" rms="0.0000000000000000e+00" purity="5.1380074024200439e-01" nType="1"/>
          <Node pos="r" depth="2" NCoef="0" IVar="-1" Cut="0.0000000000000000e+00" cType="1" res="-9.9000000000000000e+01" rms="0.0000000000000000e+00" purity="4.5393458008766174e-01" nType="-1"/>
        </Node>
      </Node>
    </BinaryTree>
    <BinaryTree type="DecisionTree" boostWeight="7.0228861666800840e-02" itree="62">
      <Node pos="s" depth="0" NCoef="0" IVar="54" Cut="9.0109616518020630e-01" cType="0" res="-9.9000000000000000e+01" rms="0.0000000000000000e+00" purity="5.1069754362106323e-01" nType="0">
        <Node pos="l" depth="1" NCoef="0" IVar="-1" Cut="1.2888285827636719e+02" cType="0" res="-9.9000000000000000e+01" rms="0.0000000000000000e+00" purity="5.8861464262008667e-01" nType="1"/>
        <Node pos="r" depth="1" NCoef="0" IVar="29" Cut="4.2159904479980469e+01" cType="0" res="-9.9000000000000000e+01" rms="0.0000000000000000e+00" purity="5.0084060430526733e-01" nType="0">
          <Node pos="l" depth="2" NCoef="0" IVar="-1" Cut="0.0000000000000000e+00" cType="1" res="-9.9000000000000000e+01" rms="0.0000000000000000e+00" purity="5.2621716260910034e-01" nType="1"/>
          <Node pos="r" depth="2" NCoef="0" IVar="-1" Cut="0.0000000000000000e+00" cType="1" res="-9.9000000000000000e+01" rms="0.0000000000000000e+00" purity="4.6913987398147583e-01" nType="-1"/>
        </Node>
      </Node>
    </BinaryTree>
    <BinaryTree type="DecisionTree" boostWeight="6.0280045317499462e-02" itree="63">
      <Node pos="s" depth="0" NCoef="0" IVar="33" Cut="1.9545152664184570e+01" cType="0" res="-9.9000000000000000e+01" rms="0.0000000000000000e+00" purity="5.0214487314224243e-01" nType="0">
        <Node pos="l" depth="1" NCoef="0" IVar="16" Cut="4.5660433959960938e+02" cType="1" res="-9.9000000000000000e+01" rms="0.0000000000000000e+00" purity="5.0717085599899292e-01" nType="0">
          <Node pos="l" depth="2" NCoef="0" IVar="-1" Cut="0.0000000000000000e+00" cType="1" res="-9.9000000000000000e+01" rms="0.0000000000000000e+00" purity="5.2380514144897461e-01" nType="1"/>
          <Node pos="r" depth="2" NCoef="0" IVar="-1" Cut="0.0000000000000000e+00" cType="1" res="-9.9000000000000000e+01" rms="0.0000000000000000e+00" purity="4.6817362308502197e-01" nType="-1"/>
        </Node>
        <Node pos="r" depth="1" NCoef="0" IVar="-1" Cut="0.0000000000000000e+00" cType="1" res="-9.9000000000000000e+01" rms="0.0000000000000000e+00" purity="3.5820153355598450e-01" nType="-1"/>
      </Node>
    </BinaryTree>
    <BinaryTree type="DecisionTree" boostWeight="7.2512010740865121e-02" itree="64">
      <Node pos="s" depth="0" NCoef="0" IVar="47" Cut="8.5634762048721313e-01" cType="0" res="-9.9000000000000000e+01" rms="0.0000000000000000e+00" purity="5.0176864862442017e-01" nType="0">
        <Node pos="l" depth="1" NCoef="0" IVar="-1" Cut="0.0000000000000000e+00" cType="1" res="-9.9000000000000000e+01" rms="0.0000000000000000e+00" purity="5.9995615482330322e-01" nType="1"/>
        <Node pos="r" depth="1" NCoef="0" IVar="7" Cut="7.2809600830078125e-01" cType="1" res="-9.9000000000000000e+01" rms="0.0000000000000000e+00" purity="4.9370166659355164e-01" nType="0">
          <Node pos="l" depth="2" NCoef="0" IVar="-1" Cut="0.0000000000000000e+00" cType="1" res="-9.9000000000000000e+01" rms="0.0000000000000000e+00" purity="5.2522462606430054e-01" nType="1"/>
          <Node pos="r" depth="2" NCoef="0" IVar="-1" Cut="0.0000000000000000e+00" cType="1" res="-9.9000000000000000e+01" rms="0.0000000000000000e+00" purity="4.6356979012489319e-01" nType="-1"/>
        </Node>
      </Node>
    </BinaryTree>
    <BinaryTree type="DecisionTree" boostWeight="6.8354749534329171e-02" itree="65">
      <Node pos="s" depth="0" NCoef="0" IVar="37" Cut="1.8480136108398438e+02" cType="0" res="-9.9000000000000000e+01" rms="0.0000000000000000e+00" purity="5.0529515743255615e-01" nType="0">
        <Node pos="l" depth="1" NCoef="0" IVar="-1" Cut="1.0000000000000000e+01" cType="0" res="-9.9000000000000000e+01" rms="0.0000000000000000e+00" purity="5.2408510446548462e-01" nType="1"/>
        <Node pos="r" depth="1" NCoef="0" IVar="20" Cut="1.4190130615234375e+02" cType="0" res="-9.9000000000000000e+01" rms="0.0000000000000000e+00" purity="4.6689593791961670e-01" nType="0">
          <Node pos="l" depth="2" NCoef="0" IVar="-1" Cut="0.0000000000000000e+00" cType="1" res="-9.9000000000000000e+01" rms="0.0000000000000000e+00" purity="5.4119044542312622e-01" nType="1"/>
          <Node pos="r" depth="2" NCoef="0" IVar="-1" Cut="0.0000000000000000e+00" cType="1" res="-9.9000000000000000e+01" rms="0.0000000000000000e+00" purity="4.4059932231903076e-01" nType="-1"/>
        </Node>
      </Node>
    </BinaryTree>
    <BinaryTree type="DecisionTree" boostWeight="6.1264667338502464e-02" itree="66">
      <Node pos="s" depth="0" NCoef="0" IVar="55" Cut="4.1408255696296692e-01" cType="0" res="-9.9000000000000000e+01" rms="0.0000000000000000e+00" purity="5.0038123130798340e-01" nType="0">
        <Node pos="l" depth="1" NCoef="0" IVar="-1" Cut="0.0000000000000000e+00" cType="1" res="-9.9000000000000000e+01" rms="0.0000000000000000e+00" purity="6.0351300239562988e-01" nType="1"/>
        <Node pos="r" depth="1" NCoef="0" IVar="40" Cut="1.0560295581817627e+00" cType="0" res="-9.9000000000000000e+01" rms="0.0000000000000000e+00" purity="4.9323448538780212e-01" nType="0">
          <Node pos="l" depth="2" NCoef="0" IVar="-1" Cut="0.0000000000000000e+00" cType="1" res="-9.9000000000000000e+01" rms="0.0000000000000000e+00" purity="5.1704221963882446e-01" nType="1"/>
          <Node pos="r" depth="2" NCoef="0" IVar="-1" Cut="0.0000000000000000e+00" cType="1" res="-9.9000000000000000e+01" rms="0.0000000000000000e+00" purity="4.6403595805168152e-01" nType="-1"/>
        </Node>
      </Node>
    </BinaryTree>
    <BinaryTree type="DecisionTree" boostWeight="7.3575206419105282e-02" itree="67">
      <Node pos="s" depth="0" NCoef="0" IVar="47" Cut="8.5634762048721313e-01" cType="0" res="-9.9000000000000000e+01" rms="0.0000000000000000e+00" purity="4.9186787009239197e-01" nType="0">
        <Node pos="l" depth="1" NCoef="0" IVar="-1" Cut="0.0000000000000000e+00" cType="1" res="-9.9000000000000000e+01" rms="0.0000000000000000e+00" purity="5.8479219675064087e-01" nType="1"/>
        <Node pos="r" depth="1" NCoef="0" IVar="3" Cut="1.7638465166091919e+00" cType="0" res="-9.9000000000000000e+01" rms="0.0000000000000000e+00" purity="4.8447445034980774e-01" nType="0">
          <Node pos="l" depth="2" NCoef="0" IVar="-1" Cut="0.0000000000000000e+00" cType="1" res="-9.9000000000000000e+01" rms="0.0000000000000000e+00" purity="5.2546477317810059e-01" nType="1"/>
          <Node pos="r" depth="2" NCoef="0" IVar="-1" Cut="0.0000000000000000e+00" cType="1" res="-9.9000000000000000e+01" rms="0.0000000000000000e+00" purity="4.6325626969337463e-01" nType="-1"/>
        </Node>
      </Node>
    </BinaryTree>
    <BinaryTree type="DecisionTree" boostWeight="3.4429352255442733e-02" itree="68">
      <Node pos="s" depth="0" NCoef="0" IVar="53" Cut="5.2360284328460693e-01" cType="0" res="-9.9000000000000000e+01" rms="0.0000000000000000e+00" purity="4.9724027514457703e-01" nType="0">
        <Node pos="l" depth="1" NCoef="0" IVar="20" Cut="2.0931491088867188e+02" cType="0" res="-9.9000000000000000e+01" rms="0.0000000000000000e+00" purity="5.0694203376770020e-01" nType="0">
          <Node pos="l" depth="2" NCoef="0" IVar="-1" Cut="0.0000000000000000e+00" cType="1" res="-9.9000000000000000e+01" rms="0.0000000000000000e+00" purity="6.0072046518325806e-01" nType="1"/>
          <Node pos="r" depth="2" NCoef="0" IVar="-1" Cut="0.0000000000000000e+00" cType="1" res="-9.9000000000000000e+01" rms="0.0000000000000000e+00" purity="4.9878117442131042e-01" nType="-1"/>
        </Node>
        <Node pos="r" depth="1" NCoef="0" IVar="-1" Cut="7.9249352216720581e-01" cType="0" res="-9.9000000000000000e+01" rms="0.0000000000000000e+00" purity="4.1372492909431458e-01" nType="-1"/>
      </Node>
    </BinaryTree>
    <BinaryTree type="DecisionTree" boostWeight="6.8317038284699927e-02" itree="69">
      <Node pos="s" depth="0" NCoef="0" IVar="54" Cut="4.5106153935194016e-02" cType="0" res="-9.9000000000000000e+01" rms="0.0000000000000000e+00" purity="5.0092291831970215e-01" nType="0">
        <Node pos="l" depth="1" NCoef="0" IVar="36" Cut="6.5001220703125000e+01" cType="0" res="-9.9000000000000000e+01" rms="0.0000000000000000e+00" purity="5.2527034282684326e-01" nType="0">
          <Node pos="l" depth="2" NCoef="0" IVar="-1" Cut="0.0000000000000000e+00" cType="1" res="-9.9000000000000000e+01" rms="0.0000000000000000e+00" purity="5.4514044523239136e-01" nType="1"/>
          <Node pos="r" depth="2" NCoef="0" IVar="-1" Cut="0.0000000000000000e+00" cType="1" res="-9.9000000000000000e+01" rms="0.0000000000000000e+00" purity="4.9523136019706726e-01" nType="-1"/>
        </Node>
        <Node pos="r" depth="1" NCoef="0" IVar="-1" Cut="8.5377788543701172e-01" cType="0" res="-9.9000000000000000e+01" rms="0.0000000000000000e+00" purity="4.5675513148307800e-01" nType="-1"/>
      </Node>
    </BinaryTree>
    <BinaryTree type="DecisionTree" boostWeight="5.6337971726187049e-02" itree="70">
      <Node pos="s" depth="0" NCoef="0" IVar="10" Cut="3.2495075464248657e-01" cType="0" res="-9.9000000000000000e+01" rms="0.0000000000000000e+00" purity="5.0701701641082764e-01" nType="0">
        <Node pos="l" depth="1" NCoef="0" IVar="-1" Cut="9.3987417221069336e-01" cType="0" res="-9.9000000000000000e+01" rms="0.0000000000000000e+00" purity="5.6330132484436035e-01" nType="1"/>
        <Node pos="r" depth="1" NCoef="0" IVar="8" Cut="1.8859224319458008e+00" cType="0" res="-9.9000000000000000e+01" rms="0.0000000000000000e+00" purity="4.9249109625816345e-01" nType="0">
          <Node pos="l" depth="2" NCoef="0" IVar="-1" Cut="0.0000000000000000e+00" cType="1" res="-9.9000000000000000e+01" rms="0.0000000000000000e+00" purity="5.0757211446762085e-01" nType="1"/>
          <Node pos="r" depth="2" NCoef="0" IVar="-1" Cut="0.0000000000000000e+00" cType="1" res="-9.9000000000000000e+01" rms="0.0000000000000000e+00" purity="4.4392839074134827e-01" nType="-1"/>
        </Node>
      </Node>
    </BinaryTree>
    <BinaryTree type="DecisionTree" boostWeight="3.6992116089942205e-02" itree="71">
      <Node pos="s" depth="0" NCoef="0" IVar="29" Cut="1.1679324340820312e+02" cType="0" res="-9.9000000000000000e+01" rms="0.0000000000000000e+00" purity="4.9868005514144897e-01" nType="0">
        <Node pos="l" depth="1" NCoef="0" IVar="-1" Cut="8.9778266906738281e+01" cType="1" res="-9.9000000000000000e+01" rms="0.0000000000000000e+00" purity="5.8356863260269165e-01" nType="1"/>
        <Node pos="r" depth="1" NCoef="0" IVar="-1" Cut="6.1863952875137329e-01" cType="0" res="-9.9000000000000000e+01" rms="0.0000000000000000e+00" purity="4.8896247148513794e-01" nType="-1"/>
      </Node>
    </BinaryTree>
    <BinaryTree type="DecisionTree" boostWeight="7.7943250491993979e-02" itree="72">
      <Node pos="s" depth="0" NCoef="0" IVar="10" Cut="3.2240304350852966e-01" cType="0" res="-9.9000000000000000e+01" rms="0.0000000000000000e+00" purity="5.0203579664230347e-01" nType="0">
        <Node pos="l" depth="1" NCoef="0" IVar="14" Cut="3.4044268727302551e-01" cType="1" res="-9.9000000000000000e+01" rms="0.0000000000000000e+00" purity="5.5017119646072388e-01" nType="0">
          <Node pos="l" depth="2" NCoef="0" IVar="-1" Cut="0.0000000000000000e+00" cType="1" res="-9.9000000000000000e+01" rms="0.0000000000000000e+00" purity="5.6703060865402222e-01" nType="1"/>
          <Node pos="r" depth="2" NCoef="0" IVar="-1" Cut="0.0000000000000000e+00" cType="1" res="-9.9000000000000000e+01" rms="0.0000000000000000e+00" purity="4.3113288283348083e-01" nType="-1"/>
        </Node>
        <Node pos="r" depth="1" NCoef="0" IVar="5" Cut="7.3508083820343018e-01" cType="0" res="-9.9000000000000000e+01" rms="0.0000000000000000e+00" purity="4.8935383558273315e-01" nType="0">
          <Node pos="l" depth="2" NCoef="0" IVar="-1" Cut="0.0000000000000000e+00" cType="1" res="-9.9000000000000000e+01" rms="0.0000000000000000e+00" purity="5.4398155212402344e-01" nType="1"/>
          <Node pos="r" depth="2" NCoef="0" IVar="-1" Cut="0.0000000000000000e+00" cType="1" res="-9.9000000000000000e+01" rms="0.0000000000000000e+00" purity="4.7246423363685608e-01" nType="-1"/>
        </Node>
      </Node>
    </BinaryTree>
    <BinaryTree type="DecisionTree" boostWeight="7.5924321506533679e-02" itree="73">
      <Node pos="s" depth="0" NCoef="0" IVar="8" Cut="1.8558368682861328e+00" cType="0" res="-9.9000000000000000e+01" rms="0.0000000000000000e+00" purity="5.0684672594070435e-01" nType="0">
        <Node pos="l" depth="1" NCoef="0" IVar="29" Cut="2.8122446060180664e+01" cType="0" res="-9.9000000000000000e+01" rms="0.0000000000000000e+00" purity="5.2133339643478394e-01" nType="0">
          <Node pos="l" depth="2" NCoef="0" IVar="-1" Cut="0.0000000000000000e+00" cType="1" res="-9.9000000000000000e+01" rms="0.0000000000000000e+00" purity="5.4113322496414185e-01" nType="1"/>
          <Node pos="r" depth="2" NCoef="0" IVar="-1" Cut="0.0000000000000000e+00" cType="1" res="-9.9000000000000000e+01" rms="0.0000000000000000e+00" purity="4.7388646006584167e-01" nType="-1"/>
        </Node>
        <Node pos="r" depth="1" NCoef="0" IVar="-1" Cut="7.1372991800308228e-01" cType="0" res="-9.9000000000000000e+01" rms="0.0000000000000000e+00" purity="4.5814910531044006e-01" nType="-1"/>
      </Node>
    </BinaryTree>
    <BinaryTree type="DecisionTree" boostWeight="4.5948004773180770e-02" itree="74">
      <Node pos="s" depth="0" NCoef="0" IVar="53" Cut="2.3792731761932373e-01" cType="0" res="-9.9000000000000000e+01" rms="0.0000000000000000e+00" purity="5.0824576616287231e-01" nType="0">
        <Node pos="l" depth="1" NCoef="0" IVar="-1" Cut="6.7224441528320312e+01" cType="0" res="-9.9000000000000000e+01" rms="0.0000000000000000e+00" purity="5.1665633916854858e-01" nType="1"/>
        <Node pos="r" depth="1" NCoef="0" IVar="-1" Cut="1.1741832494735718e+00" cType="0" res="-9.9000000000000000e+01" rms="0.0000000000000000e+00" purity="3.8380733132362366e-01" nType="-1"/>
      </Node>
    </BinaryTree>
    <BinaryTree type="DecisionTree" boostWeight="8.2341653225029454e-02" itree="75">
      <Node pos="s" depth="0" NCoef="0" IVar="20" Cut="1.4687295532226562e+02" cType="0" res="-9.9000000000000000e+01" rms="0.0000000000000000e+00" purity="5.0132411718368530e-01" nType="0">
        <Node pos="l" depth="1" NCoef="0" IVar="24" Cut="1.2353623962402344e+02" cType="0" res="-9.9000000000000000e+01" rms="0.0000000000000000e+00" purity="5.4306524991989136e-01" nType="0">
          <Node pos="l" depth="2" NCoef="0" IVar="-1" Cut="0.0000000000000000e+00" cType="1" res="-9.9000000000000000e+01" rms="0.0000000000000000e+00" purity="6.2713676691055298e-01" nType="1"/>
          <Node pos="r" depth="2" NCoef="0" IVar="-1" Cut="0.0000000000000000e+00" cType="1" res="-9.9000000000000000e+01" rms="0.0000000000000000e+00" purity="4.7192740440368652e-01" nType="-1"/>
        </Node>
        <Node pos="r" depth="1" NCoef="0" IVar="21" Cut="1.2057615966796875e+03" cType="0" res="-9.9000000000000000e+01" rms="0.0000000000000000e+00" purity="4.8670536279678345e-01" nType="0">
          <Node pos="l" depth="2" NCoef="0" IVar="-1" Cut="0.0000000000000000e+00" cType="1" res="-9.9000000000000000e+01" rms="0.0000000000000000e+00" purity="5.5377382040023804e-01" nType="1"/>
          <Node pos="r" depth="2" NCoef="0" IVar="-1" Cut="0.0000000000000000e+00" cType="1" res="-9.9000000000000000e+01" rms="0.0000000000000000e+00" purity="4.7460621595382690e-01" nType="-1"/>
        </Node>
      </Node>
    </BinaryTree>
    <BinaryTree type="DecisionTree" boostWeight="2.7993011213404972e-02" itree="76">
      <Node pos="s" depth="0" NCoef="0" IVar="33" Cut="1.9545152664184570e+01" cType="0" res="-9.9000000000000000e+01" rms="0.0000000000000000e+00" purity="5.0370013713836670e-01" nType="0">
        <Node pos="l" depth="1" NCoef="0" IVar="-1" Cut="5.0277912616729736e-01" cType="0" res="-9.9000000000000000e+01" rms="0.0000000000000000e+00" purity="5.0913286209106445e-01" nType="1"/>
        <Node pos="r" depth="1" NCoef="0" IVar="-1" Cut="0.0000000000000000e+00" cType="1" res="-9.9000000000000000e+01" rms="0.0000000000000000e+00" purity="3.3589664101600647e-01" nType="-1"/>
      </Node>
    </BinaryTree>
    <BinaryTree type="DecisionTree" boostWeight="7.5195568183210840e-02" itree="77">
      <Node pos="s" depth="0" NCoef="0" IVar="29" Cut="7.1313865661621094e+01" cType="0" res="-9.9000000000000000e+01" rms="0.0000000000000000e+00" purity="4.9490100145339966e-01" nType="0">
        <Node pos="l" depth="1" NCoef="0" IVar="-1" Cut="1.8112480163574219e+02" cType="0" res="-9.9000000000000000e+01" rms="0.0000000000000000e+00" purity="5.3322368860244751e-01" nType="1"/>
        <Node pos="r" depth="1" NCoef="0" IVar="48" Cut="2.8094083070755005e-01" cType="0" res="-9.9000000000000000e+01" rms="0.0000000000000000e+00" purity="4.7607567906379700e-01" nType="0">
          <Node pos="l" depth="2" NCoef="0" IVar="-1" Cut="0.0000000000000000e+00" cType="1" res="-9.9000000000000000e+01" rms="0.0000000000000000e+00" purity="5.4098176956176758e-01" nType="1"/>
          <Node pos="r" depth="2" NCoef="0" IVar="-1" Cut="0.0000000000000000e+00" cType="1" res="-9.9000000000000000e+01" rms="0.0000000000000000e+00" purity="4.6067702770233154e-01" nType="-1"/>
        </Node>
      </Node>
    </BinaryTree>
    <BinaryTree type="DecisionTree" boostWeight="3.5268157070655767e-02" itree="78">
      <Node pos="s" depth="0" NCoef="0" IVar="49" Cut="1.0000000000000000e+01" cType="0" res="-9.9000000000000000e+01" rms="0.0000000000000000e+00" purity="4.9745640158653259e-01" nType="0">
        <Node pos="l" depth="1" NCoef="0" IVar="-1" Cut="0.0000000000000000e+00" cType="1" res="-9.9000000000000000e+01" rms="0.0000000000000000e+00" purity="5.7605302333831787e-01" nType="1"/>
        <Node pos="r" depth="1" NCoef="0" IVar="-1" Cut="6.7430999755859375e+02" cType="1" res="-9.9000000000000000e+01" rms="0.0000000000000000e+00" purity="4.8880466818809509e-01" nType="-1"/>
      </Node>
    </BinaryTree>
    <BinaryTree type="DecisionTree" boostWeight="3.5527052097292539e-02" itree="79">
      <Node pos="s" depth="0" NCoef="0" IVar="53" Cut="3.3299723267555237e-01" cType="0" res="-9.9000000000000000e+01" rms="0.0000000000000000e+00" purity="5.0474113225936890e-01" nType="0">
        <Node pos="l" depth="1" NCoef="0" IVar="-1" Cut="2.0767216491699219e+02" cType="0" res="-9.9000000000000000e+01" rms="0.0000000000000000e+00" purity="5.1216077804565430e-01" nType="1"/>
        <Node pos="r" depth="1" NCoef="0" IVar="-1" Cut="7.1421837806701660e-01" cType="0" res="-9.9000000000000000e+01" rms="0.0000000000000000e+00" purity="4.1324377059936523e-01" nType="-1"/>
      </Node>
    </BinaryTree>
    <BinaryTree type="DecisionTree" boostWeight="5.1850218434025527e-02" itree="80">
      <Node pos="s" depth="0" NCoef="0" IVar="20" Cut="2.2380059814453125e+02" cType="0" res="-9.9000000000000000e+01" rms="0.0000000000000000e+00" purity="4.9548721313476562e-01" nType="0">
        <Node pos="l" depth="1" NCoef="0" IVar="-1" Cut="0.0000000000000000e+00" cType="1" res="-9.9000000000000000e+01" rms="0.0000000000000000e+00" purity="5.9320652484893799e-01" nType="1"/>
        <Node pos="r" depth="1" NCoef="0" IVar="20" Cut="9.1200286865234375e+01" cType="0" res="-9.9000000000000000e+01" rms="0.0000000000000000e+00" purity="4.8821637034416199e-01" nType="0">
          <Node pos="l" depth="2" NCoef="0" IVar="-1" Cut="0.0000000000000000e+00" cType="1" res="-9.9000000000000000e+01" rms="0.0000000000000000e+00" purity="5.0705677270889282e-01" nType="1"/>
          <Node pos="r" depth="2" NCoef="0" IVar="-1" Cut="0.0000000000000000e+00" cType="1" res="-9.9000000000000000e+01" rms="0.0000000000000000e+00" purity="4.5390895009040833e-01" nType="-1"/>
        </Node>
      </Node>
    </BinaryTree>
    <BinaryTree type="DecisionTree" boostWeight="4.4307836274901646e-02" itree="81">
      <Node pos="s" depth="0" NCoef="0" IVar="54" Cut="8.9966619014739990e-01" cType="0" res="-9.9000000000000000e+01" rms="0.0000000000000000e+00" purity="5.0103920698165894e-01" nType="0">
        <Node pos="l" depth="1" NCoef="0" IVar="-1" Cut="-9.0539437532424927e-01" cType="0" res="-9.9000000000000000e+01" rms="0.0000000000000000e+00" purity="5.6460750102996826e-01" nType="1"/>
        <Node pos="r" depth="1" NCoef="0" IVar="5" Cut="8.4163320064544678e-01" cType="0" res="-9.9000000000000000e+01" rms="0.0000000000000000e+00" purity="4.9288243055343628e-01" nType="0">
          <Node pos="l" depth="2" NCoef="0" IVar="-1" Cut="0.0000000000000000e+00" cType="1" res="-9.9000000000000000e+01" rms="0.0000000000000000e+00" purity="5.7944726943969727e-01" nType="1"/>
          <Node pos="r" depth="2" NCoef="0" IVar="-1" Cut="0.0000000000000000e+00" cType="1" res="-9.9000000000000000e+01" rms="0.0000000000000000e+00" purity="4.8733302950859070e-01" nType="-1"/>
        </Node>
      </Node>
    </BinaryTree>
    <BinaryTree type="DecisionTree" boostWeight="6.1250166783561072e-02" itree="82">
      <Node pos="s" depth="0" NCoef="0" IVar="52" Cut="2.0522996783256531e-02" cType="0" res="-9.9000000000000000e+01" rms="0.0000000000000000e+00" purity="4.9808618426322937e-01" nType="0">
        <Node pos="l" depth="1" NCoef="0" IVar="40" Cut="1.2747013568878174e+00" cType="0" res="-9.9000000000000000e+01" rms="0.0000000000000000e+00" purity="5.1149243116378784e-01" nType="0">
